{"learner":{"attributes":{"scikit_learn":"{\"_estimator_type\": \"regressor\"}"},"feature_names":[],"feature_types":[],"gradient_booster":{"model":{"gbtree_model_param":{"num_parallel_tree":"1","num_trees":"50"},"iteration_indptr":[0,1,2,3,4,5,6,7,8,9,10,11,12,13,14,15,16,17,18,19,20,21,22,23,24,25,26,27,28,29,30,31,32,33,34,35,36,37,38,39,40,41,42,43,44,45,46,47,48,49,50],"tree_info":[0,0,0,0,0,0,0,0,0,0,0,0,0,0,0,0,0,0,0,0,0,0,0,0,0,0,0,0,0,0,0,0,0,0,0,0,0,0,0,0,0,0,0,0,0,0,0,0,0,0],"trees":[{"base_weights":[-1.677886E-9,-1.714103E-2,5.8168907E-2,-8.186262E-3,-3.889661E-4,6.4487816E-3,2.0491777E-2],"categories":[],"categories_nodes":[],"categories_segments":[],"categories_sizes":[],"default_left":[0,0,0,0,0,0,0],"id":0,"left_children":[1,3,5,-1,-1,-1,-1],"loss_changes":[1.358016E0,3.8024133E-1,3.5264373E-1,0E0,0E0,0E0,0E0],"parents":[2147483647,0,0,1,1,2,2],"right_children":[2,4,6,-1,-1,-1,-1],"split_conditions":[3.636656E0,2.5518763E0,3.0065865E1,-8.186262E-3,-3.889661E-4,6.4487816E-3,2.0491777E-2],"split_indices":[1,1,2,0,0,0,0],"split_type":[0,0,0,0,0,0,0],"sum_hessian":[1.36E3,1.051E3,3.09E2,4.09E2,6.42E2,1.96E2,1.13E2],"tree_param":{"num_deleted":"0","num_feature":"4","num_nodes":"7","size_leaf_vector":"1"}},{"base_weights":[1.34926595E-5,-2.0339893E-2,3.327964E-2,-9.726433E-3,-2.6284768E-3,3.373726E-3,1.47396615E-2],"categories":[],"categories_nodes":[],"categories_segments":[],"categories_sizes":[],"default_left":[0,0,0,0,0,0,0],"id":1,"left_children":[1,3,5,-1,-1,-1,-1],"loss_changes":[9.22181E-1,1.7143145E-1,3.4168863E-1,0E0,0E0,0E0,0E0],"parents":[2147483647,0,0,1,1,2,2],"right_children":[2,4,6,-1,-1,-1,-1],"split_conditions":[3.229054E0,2.0010147E0,3.0065865E1,-9.726433E-3,-2.6284768E-3,3.373726E-3,1.47396615E-2],"split_indices":[1,1,2,0,0,0,0],"split_type":[0,0,0,0,0,0,0],"sum_hessian":[1.36E3,8.44E2,5.16E2,1.7E2,6.74E2,3.68E2,1.48E2],"tree_param":{"num_deleted":"0","num_feature":"4","num_nodes":"7","size_leaf_vector":"1"}},{"base_weights":[1.5024437E-5,-2.1611288E-2,2.2285916E-2,-8.380324E-3,-3.285208E-3,2.3707699E-3,1.4739022E-2],"categories":[],"categories_nodes":[],"categories_segments":[],"categories_sizes":[],"default_left":[0,0,0,0,0,0,0],"id":2,"left_children":[1,3,5,-1,-1,-1,-1],"loss_changes":[6.5598994E-1,7.201213E-2,3.5898647E-1,0E0,0E0,0E0,0E0],"parents":[2147483647,0,0,1,1,2,2],"right_children":[2,4,6,-1,-1,-1,-1],"split_conditions":[3.9263943E1,3.5538588E0,4.138223E0,-8.380324E-3,-3.285208E-3,2.3707699E-3,1.4739022E-2],"split_indices":[3,0,1,0,0,0,0],"split_type":[0,0,0,0,0,0,0],"sum_hessian":[1.36E3,6.9E2,6.7E2,1.39E2,5.51E2,5.58E2,1.12E2],"tree_param":{"num_deleted":"0","num_feature":"4","num_nodes":"7","size_leaf_vector":"1"}},{"base_weights":[1.6020284E-5,-9.855697E-3,3.4961846E-2,-3.7056056E-3,1.002835E-3,5.241807E-3,1.9684216E-2],"categories":[],"categories_nodes":[],"categories_segments":[],"categories_sizes":[],"default_left":[0,0,0,0,0,0,0],"id":3,"left_children":[1,3,5,-1,-1,-1,-1],"loss_changes":[4.6985596E-1,1.3704465E-1,1.6405448E-1,0E0,0E0,0E0,0E0],"parents":[2147483647,0,0,1,1,2,2],"right_children":[2,4,6,-1,-1,-1,-1],"split_conditions":[2.4309488E1,3.05314E0,4.527014E0,-3.7056056E-3,1.002835E-3,5.241807E-3,1.9684216E-2],"split_indices":[2,1,1,0,0,0,0],"split_type":[0,0,0,0,0,0,0],"sum_hessian":[1.36E3,1.061E3,2.99E2,6.7E2,3.91E2,2.64E2,3.5E1],"tree_param":{"num_deleted":"0","num_feature":"4","num_nodes":"7","size_leaf_vector":"1"}},{"base_weights":[2.9146186E-5,-7.023188E-3,3.455798E-2,-4.7378372E-3,-1.0644264E-4,6.0941665E-3,2.8935684E-2],"categories":[],"categories_nodes":[],"categories_segments":[],"categories_sizes":[],"default_left":[0,0,0,0,0,0,0],"id":4,"left_children":[1,3,5,-1,-1,-1,-1],"loss_changes":[3.3165827E-1,1.2233735E-1,9.9559695E-2,0E0,0E0,0E0,0E0],"parents":[2147483647,0,0,1,1,2,2],"right_children":[2,4,6,-1,-1,-1,-1],"split_conditions":[3.8372653E0,3.101433E1,3.5737526E1,-4.7378372E-3,-1.0644264E-4,6.0941665E-3,2.8935684E-2],"split_indices":[1,3,0,0,0,0,0],"split_type":[0,0,0,0,0,0,0],"sum_hessian":[1.36E3,1.13E3,2.3E2,3.16E2,8.14E2,2.23E2,7E0],"tree_param":{"num_deleted":"0","num_feature":"4","num_nodes":"7","size_leaf_vector":"1"}},{"base_weights":[4.5494256E-5,-9.407816E-3,2.0396266E-2,-5.101754E-3,-1.2058071E-3,3.0823168E-3,1.3772172E-2],"categories":[],"categories_nodes":[],"categories_segments":[],"categories_sizes":[],"default_left":[0,0,0,0,0,0,0],"id":5,"left_children":[1,3,5,-1,-1,-1,-1],"loss_changes":[2.6202402E-1,5.0439678E-2,1.0330154E-1,0E0,0E0,0E0,0E0],"parents":[2147483647,0,0,1,1,2,2],"right_children":[2,4,6,-1,-1,-1,-1],"split_conditions":[4.543247E1,6.59301E0,4.55606E0,-5.101754E-3,-1.2058071E-3,3.0823168E-3,1.3772172E-2],"split_indices":[3,2,1,0,0,0,0],"split_type":[0,0,0,0,0,0,0],"sum_hessian":[1.36E3,9.29E2,4.31E2,1.6E2,7.69E2,3.92E2,3.9E1],"tree_param":{"num_deleted":"0","num_feature":"4","num_nodes":"7","size_leaf_vector":"1"}},{"base_weights":[4.414467E-5,-8.197547E-3,1.685857E-2,-3.6443414E-3,-6.637235E-4,2.1873757E-3,9.957909E-3],"categories":[],"categories_nodes":[],"categories_segments":[],"categories_sizes":[],"default_left":[0,0,0,0,0,0,0],"id":6,"left_children":[1,3,5,-1,-1,-1,-1],"loss_changes":[1.8874465E-1,4.464068E-2,8.6818606E-2,0E0,0E0,0E0,0E0],"parents":[2147483647,0,0,1,1,2,2],"right_children":[2,4,6,-1,-1,-1,-1],"split_conditions":[3.3209E0,5.3473105E0,4.2272472E1,-3.6443414E-3,-6.637235E-4,2.1873757E-3,9.957909E-3],"split_indices":[1,0,2,0,0,0,0],"split_type":[0,0,0,0,0,0,0],"sum_hessian":[1.36E3,9.13E2,4.47E2,2.98E2,6.15E2,3.8E2,6.7E1],"tree_param":{"num_deleted":"0","num_feature":"4","num_nodes":"7","size_leaf_vector":"1"}},{"base_weights":[4.10721E-5,-9.631469E-3,1.0001855E-2,-4.9232454E-3,-1.553413E-3,5.2847754E-4,5.1196963E-3],"categories":[],"categories_nodes":[],"categories_segments":[],"categories_sizes":[],"default_left":[0,0,0,0,0,0,0],"id":7,"left_children":[1,3,5,-1,-1,-1,-1],"loss_changes":[1.3122335E-1,1.9113712E-2,7.695167E-2,0E0,0E0,0E0,0E0],"parents":[2147483647,0,0,1,1,2,2],"right_children":[2,4,6,-1,-1,-1,-1],"split_conditions":[3.9263943E1,2.2117498E1,3.7366552E0,-4.9232454E-3,-1.553413E-3,5.2847754E-4,5.1196963E-3],"split_indices":[3,3,1,0,0,0,0],"split_type":[0,0,0,0,0,0,0],"sum_hessian":[1.36E3,6.9E2,6.7E2,7.5E1,6.15E2,4.56E2,2.14E2],"tree_param":{"num_deleted":"0","num_feature":"4","num_nodes":"7","size_leaf_vector":"1"}},{"base_weights":[3.2249525E-5,-2.3991012E-3,2.9751068E-2,-1.8328599E-3,6.9352513E-4,4.678853E-3,2.271761E-2],"categories":[],"categories_nodes":[],"categories_segments":[],"categories_sizes":[],"default_left":[0,0,0,0,0,0,0],"id":8,"left_children":[1,3,5,-1,-1,-1,-1],"loss_changes":[9.8412976E-2,5.000095E-2,5.2235015E-2,0E0,0E0,0E0,0E0],"parents":[2147483647,0,0,1,1,2,2],"right_children":[2,4,6,-1,-1,-1,-1],"split_conditions":[3.7654762E1,3.6648808E1,3.5737526E1,-1.8328599E-3,6.9352513E-4,4.678853E-3,2.271761E-2],"split_indices":[2,3,0,0,0,0,0],"split_type":[0,0,0,0,0,0,0],"sum_hessian":[1.36E3,1.258E3,1.02E2,5.84E2,6.74E2,9.6E1,6E0],"tree_param":{"num_deleted":"0","num_feature":"4","num_nodes":"7","size_leaf_vector":"1"}},{"base_weights":[4.509316E-5,-6.9120596E-3,8.033677E-3,-2.9601555E-3,-9.883106E-4,1.4184697E-3,1.6161224E-2],"categories":[],"categories_nodes":[],"categories_segments":[],"categories_sizes":[],"default_left":[0,0,0,0,0,0,0],"id":9,"left_children":[1,3,5,-1,-1,-1,-1],"loss_changes":[7.569692E-2,1.1243455E-2,4.285767E-2,0E0,0E0,0E0,0E0],"parents":[2147483647,0,0,1,1,2,2],"right_children":[2,4,6,-1,-1,-1,-1],"split_conditions":[3.05314E0,3.4894972E0,3.5737526E1,-2.9601555E-3,-9.883106E-4,1.4184697E-3,1.6161224E-2],"split_indices":[1,0,0,0,0,0,0],"split_type":[0,0,0,0,0,0,0],"sum_hessian":[1.36E3,7.27E2,6.33E2,1.44E2,5.83E2,6.26E2,7E0],"tree_param":{"num_deleted":"0","num_feature":"4","num_nodes":"7","size_leaf_vector":"1"}},{"base_weights":[4.6090026E-5,-1.5238728E-3,2.624552E-2,-1.2678646E-3,6.1201176E-4,4.021268E-3,1.9108292E-2],"categories":[],"categories_nodes":[],"categories_segments":[],"categories_sizes":[],"default_left":[0,0,0,0,0,0,0],"id":10,"left_children":[1,3,5,-1,-1,-1,-1],"loss_changes":[5.602083E-2,2.8384095E-2,3.0836381E-2,0E0,0E0,0E0,0E0],"parents":[2147483647,0,0,1,1,2,2],"right_children":[2,4,6,-1,-1,-1,-1],"split_conditions":[4.2272472E1,2.888911E0,3.5737526E1,-1.2678646E-3,6.1201176E-4,4.021268E-3,1.9108292E-2],"split_indices":[2,1,0,0,0,0,0],"split_type":[0,0,0,0,0,0,0],"sum_hessian":[1.36E3,1.284E3,7.6E1,6.26E2,6.58E2,7.1E1,5E0],"tree_param":{"num_deleted":"0","num_feature":"4","num_nodes":"7","size_leaf_vector":"1"}},{"base_weights":[5.3384687E-5,-1.419416E-3,2.163692E-2,-7.979699E-4,9.6143613E-4,3.550119E-3,1.9568104E-2],"categories":[],"categories_nodes":[],"categories_segments":[],"categories_sizes":[],"default_left":[0,0,0,0,0,0,0],"id":11,"left_children":[1,3,5,-1,-1,-1,-1],"loss_changes":[4.3294515E-2,2.042562E-2,2.4028495E-2,0E0,0E0,0E0,0E0],"parents":[2147483647,0,0,1,1,2,2],"right_children":[2,4,6,-1,-1,-1,-1],"split_conditions":[4.382209E0,2.0255642E1,8.7715385E1,-7.979699E-4,9.6143613E-4,3.550119E-3,1.9568104E-2],"split_indices":[1,2,2,0,0,0,0],"split_type":[0,0,0,0,0,0,0],"sum_hessian":[1.36E3,1.274E3,8.6E1,9.02E2,3.72E2,8.3E1,3E0],"tree_param":{"num_deleted":"0","num_feature":"4","num_nodes":"7","size_leaf_vector":"1"}},{"base_weights":[5.9814152E-5,-6.361362E-4,3.204747E-2,-1.0568158E-3,5.5383146E-4,4.590146E-3,1.6632887E-2],"categories":[],"categories_nodes":[],"categories_segments":[],"categories_sizes":[],"default_left":[0,0,0,0,0,0,0],"id":12,"left_children":[1,3,5,-1,-1,-1,-1],"loss_changes":[3.0318724E-2,2.1112837E-2,1.1576254E-2,0E0,0E0,0E0,0E0],"parents":[2147483647,0,0,1,1,2,2],"right_children":[2,4,6,-1,-1,-1,-1],"split_conditions":[6.0413433E1,3.639318E1,2.7942764E1,-1.0568158E-3,5.5383146E-4,4.590146E-3,1.6632887E-2],"split_indices":[2,3,0,0,0,0,0],"split_type":[0,0,0,0,0,0,0],"sum_hessian":[1.36E3,1.332E3,2.8E1,5.63E2,7.69E2,2.5E1,3E0],"tree_param":{"num_deleted":"0","num_feature":"4","num_nodes":"7","size_leaf_vector":"1"}},{"base_weights":[6.307539E-5,-1.023783E-3,1.5990447E-2,-1.4188279E-3,1.414538E-4,2.639071E-3,1.41379535E-2],"categories":[],"categories_nodes":[],"categories_segments":[],"categories_sizes":[],"default_left":[0,0,0,0,0,0,0],"id":13,"left_children":[1,3,5,-1,-1,-1,-1],"loss_changes":[2.3576368E-2,1.3402849E-2,1.2368619E-2,0E0,0E0,0E0,0E0],"parents":[2147483647,0,0,1,1,2,2],"right_children":[2,4,6,-1,-1,-1,-1],"split_conditions":[4.382209E0,5.2212653E0,8.7715385E1,-1.4188279E-3,1.414538E-4,2.639071E-3,1.41379535E-2],"split_indices":[1,0,2,0,0,0,0],"split_type":[0,0,0,0,0,0,0],"sum_hessian":[1.36E3,1.274E3,8.6E1,2.82E2,9.92E2,8.3E1,3E0],"tree_param":{"num_deleted":"0","num_feature":"4","num_nodes":"7","size_leaf_vector":"1"}},{"base_weights":[6.18473E-5,-9.461721E-4,1.381577E-2,-8.601063E-4,2.395021E-4,1.5571011E-3,8.930823E-3],"categories":[],"categories_nodes":[],"categories_segments":[],"categories_sizes":[],"default_left":[0,0,0,0,0,0,0],"id":14,"left_children":[1,3,5,-1,-1,-1,-1],"loss_changes":[1.8882276E-2,9.130126E-3,1.6946938E-2,0E0,0E0,0E0,0E0],"parents":[2147483647,0,0,1,1,2,2],"right_children":[2,4,6,-1,-1,-1,-1],"split_conditions":[3.9371975E1,3.4853554E1,2.1475212E1,-8.601063E-4,2.395021E-4,1.5571011E-3,8.930823E-3],"split_indices":[2,3,0,0,0,0,0],"split_type":[0,0,0,0,0,0,0],"sum_hessian":[1.36E3,1.268E3,9.2E1,4.94E2,7.74E2,7.8E1,1.4E1],"tree_param":{"num_deleted":"0","num_feature":"4","num_nodes":"7","size_leaf_vector":"1"}},{"base_weights":[5.672936E-5,-1.7345088E-3,5.7489565E-3,-2.3153035E-3,-2.1491307E-4,-2.207607E-3,1.751669E-3],"categories":[],"categories_nodes":[],"categories_segments":[],"categories_sizes":[],"default_left":[0,0,0,0,0,0,0],"id":15,"left_children":[1,3,5,-1,-1,-1,-1],"loss_changes":[1.3886911E-2,6.716556E-3,1.6565733E-2,0E0,0E0,0E0,0E0],"parents":[2147483647,0,0,1,1,2,2],"right_children":[2,4,6,-1,-1,-1,-1],"split_conditions":[1.2515455E1,4.5716925E0,1.2305739E1,-2.3153035E-3,-2.1491307E-4,-2.207607E-3,1.751669E-3],"split_indices":[0,2,2,0,0,0,0],"split_type":[0,0,0,0,0,0,0],"sum_hessian":[1.36E3,1.035E3,3.25E2,6.4E1,9.71E2,4.9E1,2.76E2],"tree_param":{"num_deleted":"0","num_feature":"4","num_nodes":"7","size_leaf_vector":"1"}},{"base_weights":[4.318806E-5,-1.4263924E-3,5.2453587E-3,-2.0077492E-3,-1.9101145E-4,-1.9626936E-3,1.6022368E-3],"categories":[],"categories_nodes":[],"categories_segments":[],"categories_sizes":[],"default_left":[0,0,0,0,0,0,0],"id":16,"left_children":[1,3,5,-1,-1,-1,-1],"loss_changes":[1.0412337E-2,4.301394E-3,1.2573642E-2,0E0,0E0,0E0,0E0],"parents":[2147483647,0,0,1,1,2,2],"right_children":[2,4,6,-1,-1,-1,-1],"split_conditions":[2.4309488E1,3.9875283E0,2.9858088E0,-2.0077492E-3,-1.9101145E-4,-1.9626936E-3,1.6022368E-3],"split_indices":[2,2,1,0,0,0,0],"split_type":[0,0,0,0,0,0,0],"sum_hessian":[1.36E3,1.061E3,2.99E2,5.4E1,1.007E3,4.6E1,2.53E2],"tree_param":{"num_deleted":"0","num_feature":"4","num_nodes":"7","size_leaf_vector":"1"}},{"base_weights":[3.2669603E-5,-4.095164E-4,1.46461E-2,-5.1069027E-4,2.41786E-4,6.770651E-4,6.637674E-3],"categories":[],"categories_nodes":[],"categories_segments":[],"categories_sizes":[],"default_left":[0,0,0,0,0,0,0],"id":17,"left_children":[1,3,5,-1,-1,-1,-1],"loss_changes":[8.80058E-3,4.5902203E-3,8.239659E-3,0E0,0E0,0E0,0E0],"parents":[2147483647,0,0,1,1,2,2],"right_children":[2,4,6,-1,-1,-1,-1],"split_conditions":[2.1475212E1,2.8068125E0,3.9371975E1,-5.1069027E-4,2.41786E-4,6.770651E-4,6.637674E-3],"split_indices":[0,1,2,0,0,0,0],"split_type":[0,0,0,0,0,0,0],"sum_hessian":[1.36E3,1.321E3,3.9E1,5.68E2,7.53E2,2.5E1,1.4E1],"tree_param":{"num_deleted":"0","num_feature":"4","num_nodes":"7","size_leaf_vector":"1"}},{"base_weights":[3.131248E-5,-2.8866183E-4,1.4738018E-2,-6.469316E-4,1.2370518E-4,1.8755728E-3,9.178902E-3],"categories":[],"categories_nodes":[],"categories_segments":[],"categories_sizes":[],"default_left":[0,0,0,0,0,0,0],"id":18,"left_children":[1,3,5,-1,-1,-1,-1],"loss_changes":[6.408805E-3,3.5645384E-3,4.4127116E-3,0E0,0E0,0E0,0E0],"parents":[2147483647,0,0,1,1,2,2],"right_children":[2,4,6,-1,-1,-1,-1],"split_conditions":[6.0413433E1,5.537509E0,2.7942764E1,-6.469316E-4,1.2370518E-4,1.8755728E-3,9.178902E-3],"split_indices":[2,0,0,0,0,0,0],"split_type":[0,0,0,0,0,0,0],"sum_hessian":[1.36E3,1.332E3,2.8E1,3.13E2,1.019E3,2.5E1,3E0],"tree_param":{"num_deleted":"0","num_feature":"4","num_nodes":"7","size_leaf_vector":"1"}},{"base_weights":[3.278871E-5,-2.9414755E-4,1.0837213E-2,-2.1064247E-4,5.225961E-4,5.2307046E-4,4.8731915E-3],"categories":[],"categories_nodes":[],"categories_segments":[],"categories_sizes":[],"default_left":[0,0,0,0,0,0,0],"id":19,"left_children":[1,3,5,-1,-1,-1,-1],"loss_changes":[4.8107277E-3,2.9200076E-3,4.3855323E-3,0E0,0E0,0E0,0E0],"parents":[2147483647,0,0,1,1,2,2],"right_children":[2,4,6,-1,-1,-1,-1],"split_conditions":[2.1475212E1,2.4309488E1,3.9371975E1,-2.1064247E-4,5.225961E-4,5.2307046E-4,4.8731915E-3],"split_indices":[0,2,2,0,0,0,0],"split_type":[0,0,0,0,0,0,0],"sum_hessian":[1.36E3,1.321E3,3.9E1,1.048E3,2.73E2,2.5E1,1.4E1],"tree_param":{"num_deleted":"0","num_feature":"4","num_nodes":"7","size_leaf_vector":"1"}},{"base_weights":[3.0424852E-5,-9.6846234E-5,2.1567253E-2,-1.0610414E-3,5.652403E-5,1.2446506E-3,7.0710885E-3],"categories":[],"categories_nodes":[],"categories_segments":[],"categories_sizes":[],"default_left":[0,0,0,0,0,0,0],"id":20,"left_children":[1,3,5,-1,-1,-1,-1],"loss_changes":[3.732611E-3,2.677542E-3,1.4725018E-3,0E0,0E0,0E0,0E0],"parents":[2147483647,0,0,1,1,2,2],"right_children":[2,4,6,-1,-1,-1,-1],"split_conditions":[8.7715385E1,1.6054728E0,1.8622366E1,-1.0610414E-3,5.652403E-5,1.2446506E-3,7.0710885E-3],"split_indices":[2,1,0,0,0,0,0],"split_type":[0,0,0,0,0,0,0],"sum_hessian":[1.36E3,1.353E3,7E0,9.1E1,1.262E3,4E0,3E0],"tree_param":{"num_deleted":"0","num_feature":"4","num_nodes":"7","size_leaf_vector":"1"}},{"base_weights":[2.9710505E-5,-3.4922207E-4,5.582691E-3,-1.4675877E-3,-2.5720059E-5,4.786239E-3,2.221517E-4],"categories":[],"categories_nodes":[],"categories_segments":[],"categories_sizes":[],"default_left":[0,0,0,0,0,0,0],"id":21,"left_children":[1,3,5,-1,-1,-1,-1],"loss_changes":[2.8657732E-3,1.9649318E-3,7.1120523E-3,0E0,0E0,0E0,0E0],"parents":[2147483647,0,0,1,1,2,2],"right_children":[2,4,6,-1,-1,-1,-1],"split_conditions":[4.382209E0,3.0089192E0,4.449782E0,-1.4675877E-3,-2.5720059E-5,4.786239E-3,2.221517E-4],"split_indices":[1,2,1,0,0,0,0],"split_type":[0,0,0,0,0,0,0],"sum_hessian":[1.36E3,1.274E3,8.6E1,3.8E1,1.236E3,1.6E1,7E1],"tree_param":{"num_deleted":"0","num_feature":"4","num_nodes":"7","size_leaf_vector":"1"}},{"base_weights":[2.6350759E-5,-8.118113E-5,1.822283E-2,-1.7611228E-4,3.2772098E-4,1.0496217E-3,5.977105E-3],"categories":[],"categories_nodes":[],"categories_segments":[],"categories_sizes":[],"default_left":[0,0,0,0,0,0,0],"id":22,"left_children":[1,3,5,-1,-1,-1,-1],"loss_changes":[2.6645504E-3,1.862872E-3,1.0537191E-3,0E0,0E0,0E0,0E0],"parents":[2147483647,0,0,1,1,2,2],"right_children":[2,4,6,-1,-1,-1,-1],"split_conditions":[8.7715385E1,1.0858205E1,1.8622366E1,-1.7611228E-4,3.2772098E-4,1.0496217E-3,5.977105E-3],"split_indices":[2,0,0,0,0,0,0],"split_type":[0,0,0,0,0,0,0],"sum_hessian":[1.36E3,1.353E3,7E0,9.24E2,4.29E2,4E0,3E0],"tree_param":{"num_deleted":"0","num_feature":"4","num_nodes":"7","size_leaf_vector":"1"}},{"base_weights":[2.6354288E-5,-1.9264591E-4,7.263652E-3,1.927688E-6,-1.6695069E-3,5.2581155E-3,6.265414E-4],"categories":[],"categories_nodes":[],"categories_segments":[],"categories_sizes":[],"default_left":[0,0,0,0,0,0,0],"id":23,"left_children":[1,3,5,-1,-1,-1,-1],"loss_changes":[2.158543E-3,2.18086E-3,3.0616063E-3,0E0,0E0,0E0,0E0],"parents":[2147483647,0,0,1,1,2,2],"right_children":[2,4,6,-1,-1,-1,-1],"split_conditions":[2.1475212E1,4.449782E0,2.2903032E1,1.927688E-6,-1.6695069E-3,5.2581155E-3,6.265414E-4],"split_indices":[0,1,0,0,0,0,0],"split_type":[0,0,0,0,0,0,0],"sum_hessian":[1.36E3,1.321E3,3.9E1,1.29E3,3.1E1,6E0,3.3E1],"tree_param":{"num_deleted":"0","num_feature":"4","num_nodes":"7","size_leaf_vector":"1"}},{"base_weights":[2.4182025E-5,-6.5623215E-5,1.5220696E-2,-1.5505408E-4,2.922192E-4,8.8137446E-4,4.9865604E-3],"categories":[],"categories_nodes":[],"categories_segments":[],"categories_sizes":[],"default_left":[0,0,0,0,0,0,0],"id":24,"left_children":[1,3,5,-1,-1,-1,-1],"loss_changes":[1.8583918E-3,1.4680997E-3,7.303244E-4,0E0,0E0,0E0,0E0],"parents":[2147483647,0,0,1,1,2,2],"right_children":[2,4,6,-1,-1,-1,-1],"split_conditions":[8.7715385E1,2.0255642E1,1.8622366E1,-1.5505408E-4,2.922192E-4,8.8137446E-4,4.9865604E-3],"split_indices":[2,2,0,0,0,0,0],"split_type":[0,0,0,0,0,0,0],"sum_hessian":[1.36E3,1.353E3,7E0,9.24E2,4.29E2,4E0,3E0],"tree_param":{"num_deleted":"0","num_feature":"4","num_nodes":"7","size_leaf_vector":"1"}},{"base_weights":[2.3758706E-5,-1.7937815E-3,5.683044E-4,-1.396817E-5,-2.4741844E-3,-1.052607E-3,2.4326307E-4],"categories":[],"categories_nodes":[],"categories_segments":[],"categories_sizes":[],"default_left":[0,0,0,0,0,0,0],"id":25,"left_children":[1,3,5,-1,-1,-1,-1],"loss_changes":[1.3480469E-3,5.7247262E-3,3.966554E-3,0E0,0E0,0E0,0E0],"parents":[2147483647,0,0,1,1,2,2],"right_children":[2,4,6,-1,-1,-1,-1],"split_conditions":[3.0651382E1,3.0693445E0,4.9595838E0,-1.396817E-5,-2.4741844E-3,-1.052607E-3,2.4326307E-4],"split_indices":[3,1,0,0,0,0,0],"split_type":[0,0,0,0,0,0,0],"sum_hessian":[1.36E3,3.13E2,1.047E3,2.7E2,4.3E1,1.04E2,9.43E2],"tree_param":{"num_deleted":"0","num_feature":"4","num_nodes":"7","size_leaf_vector":"1"}},{"base_weights":[1.6585285E-5,-4.3538185E-3,2.3559813E-4,-6.149117E-4,-3.2841563E-3,3.1626856E-5,2.5394384E-3],"categories":[],"categories_nodes":[],"categories_segments":[],"categories_sizes":[],"default_left":[0,0,0,0,0,0,0],"id":26,"left_children":[1,3,5,-1,-1,-1,-1],"loss_changes":[1.3037402E-3,9.529042E-4,1.2500158E-3,0E0,0E0,0E0,0E0],"parents":[2147483647,0,0,1,1,2,2],"right_children":[2,4,6,-1,-1,-1,-1],"split_conditions":[4.5716925E0,6.014336E0,8.7715385E1,-6.149117E-4,-3.2841563E-3,3.1626856E-5,2.5394384E-3],"split_indices":[2,0,2,0,0,0,0],"split_type":[0,0,0,0,0,0,0],"sum_hessian":[1.36E3,6.4E1,1.296E3,5.9E1,5E0,1.289E3,7E0],"tree_param":{"num_deleted":"0","num_feature":"4","num_nodes":"7","size_leaf_vector":"1"}},{"base_weights":[1.229252E-5,-8.1906555E-4,9.668925E-4,-6.190559E-5,-1.8698756E-3,-1.6064286E-3,4.863995E-4],"categories":[],"categories_nodes":[],"categories_segments":[],"categories_sizes":[],"default_left":[0,0,0,0,0,0,0],"id":27,"left_children":[1,3,5,-1,-1,-1,-1],"loss_changes":[1.0809011E-3,3.1613684E-3,8.378528E-3,0E0,0E0,0E0,0E0],"parents":[2147483647,0,0,1,1,2,2],"right_children":[2,4,6,-1,-1,-1,-1],"split_conditions":[3.05314E0,5.243135E1,1.0963766E1,-6.190559E-5,-1.8698756E-3,-1.6064286E-3,4.863995E-4],"split_indices":[1,3,2,0,0,0,0],"split_type":[0,0,0,0,0,0,0],"sum_hessian":[1.36E3,7.27E2,6.33E2,6.87E2,4E1,8.8E1,5.45E2],"tree_param":{"num_deleted":"0","num_feature":"4","num_nodes":"7","size_leaf_vector":"1"}},{"base_weights":[7.5923826E-6,-5.292742E-3,1.3919768E-4,-1.9672608E-3,-7.837508E-4,4.180146E-6,1.0882887E-3],"categories":[],"categories_nodes":[],"categories_segments":[],"categories_sizes":[],"default_left":[0,0,0,0,0,0,0],"id":28,"left_children":[1,3,5,-1,-1,-1,-1],"loss_changes":[9.5010514E-4,1.6746623E-4,8.334876E-4,0E0,0E0,0E0,0E0],"parents":[2147483647,0,0,1,1,2,2],"right_children":[2,4,6,-1,-1,-1,-1],"split_conditions":[1.6550226E1,1.5280583E0,6.0413433E1,-1.9672608E-3,-7.837508E-4,4.180146E-6,1.0882887E-3],"split_indices":[3,2,2,0,0,0,0],"split_type":[0,0,0,0,0,0,0],"sum_hessian":[1.36E3,3.2E1,1.328E3,6E0,2.6E1,1.3E3,2.8E1],"tree_param":{"num_deleted":"0","num_feature":"4","num_nodes":"7","size_leaf_vector":"1"}},{"base_weights":[4.8548895E-6,-1.2622161E-4,4.3368116E-3,1.1178517E-5,-1.4938893E-3,4.2297863E-3,1.4958794E-4],"categories":[],"categories_nodes":[],"categories_segments":[],"categories_sizes":[],"default_left":[0,0,0,0,0,0,0],"id":29,"left_children":[1,3,5,-1,-1,-1,-1],"loss_changes":[7.733473E-4,1.7683352E-3,2.3976439E-3,0E0,0E0,0E0,0E0],"parents":[2147483647,0,0,1,1,2,2],"right_children":[2,4,6,-1,-1,-1,-1],"split_conditions":[2.1475212E1,4.449782E0,2.2903032E1,1.1178517E-5,-1.4938893E-3,4.2297863E-3,1.4958794E-4],"split_indices":[0,1,0,0,0,0,0],"split_type":[0,0,0,0,0,0,0],"sum_hessian":[1.36E3,1.321E3,3.9E1,1.29E3,3.1E1,6E0,3.3E1],"tree_param":{"num_deleted":"0","num_feature":"4","num_nodes":"7","size_leaf_vector":"1"}},{"base_weights":[6.013393E-6,-1.9795969E-4,2.9952049E-3,-1.4213452E-5,-2.1704372E-3,3.6486746E-3,-1.3959018E-4],"categories":[],"categories_nodes":[],"categories_segments":[],"categories_sizes":[],"default_left":[0,0,0,0,0,0,0],"id":30,"left_children":[1,3,5,-1,-1,-1,-1],"loss_changes":[8.3041453E-4,1.722953E-3,4.912039E-3,0E0,0E0,0E0,0E0],"parents":[2147483647,0,0,1,1,2,2],"right_children":[2,4,6,-1,-1,-1,-1],"split_conditions":[4.382209E0,1.8414223E1,4.449782E0,-1.4213452E-5,-2.1704372E-3,3.6486746E-3,-1.3959018E-4],"split_indices":[1,0,1,0,0,0,0],"split_type":[0,0,0,0,0,0,0],"sum_hessian":[1.36E3,1.274E3,8.6E1,1.26E3,1.4E1,1.6E1,7E1],"tree_param":{"num_deleted":"0","num_feature":"4","num_nodes":"7","size_leaf_vector":"1"}},{"base_weights":[5.784942E-6,-4.951533E-5,9.364633E-3,1.3893702E-5,-1.5210928E-3,1.2990653E-4,3.5834701E-3],"categories":[],"categories_nodes":[],"categories_segments":[],"categories_sizes":[],"default_left":[0,0,0,0,0,0,0],"id":31,"left_children":[1,3,5,-1,-1,-1,-1],"loss_changes":[7.0484495E-4,1.2178228E-3,5.846644E-4,0E0,0E0,0E0,0E0],"parents":[2147483647,0,0,1,1,2,2],"right_children":[2,4,6,-1,-1,-1,-1],"split_conditions":[8.7715385E1,4.985336E0,1.8622366E1,1.3893702E-5,-1.5210928E-3,1.2990653E-4,3.5834701E-3],"split_indices":[2,1,0,0,0,0,0],"split_type":[0,0,0,0,0,0,0],"sum_hessian":[1.36E3,1.353E3,7E0,1.333E3,2E1,4E0,3E0],"tree_param":{"num_deleted":"0","num_feature":"4","num_nodes":"7","size_leaf_vector":"1"}},{"base_weights":[6.248319E-6,-1.19524775E-4,4.1628927E-3,-1.578068E-5,-5.3780363E-3,2.4593854E-3,-4.7677368E-4],"categories":[],"categories_nodes":[],"categories_segments":[],"categories_sizes":[],"default_left":[0,0,0,0,0,0,0],"id":32,"left_children":[1,3,5,-1,-1,-1,-1],"loss_changes":[7.120202E-4,1.4355015E-3,2.1593776E-3,0E0,0E0,0E0,0E0],"parents":[2147483647,0,0,1,1,2,2],"right_children":[2,4,6,-1,-1,-1,-1],"split_conditions":[2.1475212E1,4.667947E0,3.4271317E1,-1.578068E-5,-5.3780363E-3,2.4593854E-3,-4.7677368E-4],"split_indices":[0,1,2,0,0,0,0],"split_type":[0,0,0,0,0,0,0],"sum_hessian":[1.36E3,1.321E3,3.9E1,1.32E3,1E0,1.7E1,2.2E1],"tree_param":{"num_deleted":"0","num_feature":"4","num_nodes":"7","size_leaf_vector":"1"}},{"base_weights":[2.4919236E-6,-2.5863124E-3,1.9002538E-4,-3.421665E-4,-2.594547E-3,2.7900513E-5,1.6285125E-3],"categories":[],"categories_nodes":[],"categories_segments":[],"categories_sizes":[],"default_left":[0,0,0,0,0,0,0],"id":33,"left_children":[1,3,5,-1,-1,-1,-1],"loss_changes":[6.6123984E-4,8.1437157E-4,5.0913054E-4,0E0,0E0,0E0,0E0],"parents":[2147483647,0,0,1,1,2,2],"right_children":[2,4,6,-1,-1,-1,-1],"split_conditions":[1.6054728E0,1.1872351E1,8.7715385E1,-3.421665E-4,-2.594547E-3,2.7900513E-5,1.6285125E-3],"split_indices":[1,2,2,0,0,0,0],"split_type":[0,0,0,0,0,0,0],"sum_hessian":[1.36E3,9.1E1,1.269E3,8.5E1,6E0,1.262E3,7E0],"tree_param":{"num_deleted":"0","num_feature":"4","num_nodes":"7","size_leaf_vector":"1"}},{"base_weights":[1.0529474E-6,-5.760285E-3,7.387205E-5,-8.4557495E-4,-2.3004483E-3,-3.422318E-5,3.2608275E-4],"categories":[],"categories_nodes":[],"categories_segments":[],"categories_sizes":[],"default_left":[0,0,0,0,0,0,0],"id":34,"left_children":[1,3,5,-1,-1,-1,-1],"loss_changes":[5.7141326E-4,1.00953504E-4,5.131732E-4,0E0,0E0,0E0,0E0],"parents":[2147483647,0,0,1,1,2,2],"right_children":[2,4,6,-1,-1,-1,-1],"split_conditions":[2.0737584E0,1.474311E0,3.9727852E0,-8.4557495E-4,-2.3004483E-3,-3.422318E-5,3.2608275E-4],"split_indices":[2,0,1,0,0,0,0],"split_type":[0,0,0,0,0,0,0],"sum_hessian":[1.36E3,1.6E1,1.344E3,1.4E1,2E0,1.162E3,1.82E2],"tree_param":{"num_deleted":"0","num_feature":"4","num_nodes":"7","size_leaf_vector":"1"}},{"base_weights":[-1.2555502E-6,-2.7897395E-3,1.1608789E-4,-4.8080963E-4,-1.4212589E-3,4.461802E-3,1.2996144E-5],"categories":[],"categories_nodes":[],"categories_segments":[],"categories_sizes":[],"default_left":[0,0,0,0,0,0,0],"id":35,"left_children":[1,3,5,-1,-1,-1,-1],"loss_changes":[4.4565706E-4,7.448334E-5,1.4809726E-3,0E0,0E0,0E0,0E0],"parents":[2147483647,0,0,1,1,2,2],"right_children":[2,4,6,-1,-1,-1,-1],"split_conditions":[1.3366297E0,6.117938E0,1.3687103E0,-4.8080963E-4,-1.4212589E-3,4.461802E-3,1.2996144E-5],"split_indices":[1,2,0,0,0,0,0],"split_type":[0,0,0,0,0,0,0],"sum_hessian":[1.36E3,5.4E1,1.306E3,5.1E1,3E0,2E0,1.304E3],"tree_param":{"num_deleted":"0","num_feature":"4","num_nodes":"7","size_leaf_vector":"1"}},{"base_weights":[8.869609E-7,-2.982787E-4,1.0599304E-3,-1.8266146E-5,-2.0154244E-3,-1.6886687E-3,4.940989E-4],"categories":[],"categories_nodes":[],"categories_segments":[],"categories_sizes":[],"default_left":[0,0,0,0,0,0,0],"id":36,"left_children":[1,3,5,-1,-1,-1,-1],"loss_changes":[4.31521E-4,2.148261E-3,4.0423516E-3,0E0,0E0,0E0,0E0],"parents":[2147483647,0,0,1,1,2,2],"right_children":[2,4,6,-1,-1,-1,-1],"split_conditions":[2.4309488E1,2.3408356E1,7.7177033E0,-1.8266146E-5,-2.0154244E-3,-1.6886687E-3,4.940989E-4],"split_indices":[2,2,0,0,0,0,0],"split_type":[0,0,0,0,0,0,0],"sum_hessian":[1.36E3,1.061E3,2.99E2,1.04E3,2.1E1,3.8E1,2.61E2],"tree_param":{"num_deleted":"0","num_feature":"4","num_nodes":"7","size_leaf_vector":"1"}},{"base_weights":[-1.66115E-6,1.8744357E-4,-1.7204006E-3,9.778967E-6,3.408787E-3,6.38839E-5,-3.6120513E-3],"categories":[],"categories_nodes":[],"categories_segments":[],"categories_sizes":[],"default_left":[0,0,0,0,0,0,0],"id":37,"left_children":[1,3,5,-1,-1,-1,-1],"loss_changes":[4.426771E-4,2.8647583E-3,4.5053684E-3,0E0,0E0,0E0,0E0],"parents":[2147483647,0,0,1,1,2,2],"right_children":[2,4,6,-1,-1,-1,-1],"split_conditions":[3.4271317E1,2.4462267E1,4.985336E0,9.778967E-6,3.408787E-3,6.38839E-5,-3.6120513E-3],"split_indices":[2,0,1,0,0,0,0],"split_type":[0,0,0,0,0,0,0],"sum_hessian":[1.36E3,1.226E3,1.34E2,1.217E3,9E0,1.2E2,1.4E1],"tree_param":{"num_deleted":"0","num_feature":"4","num_nodes":"7","size_leaf_vector":"1"}},{"base_weights":[-1.4254767E-6,-4.516244E-5,7.4012335E-3,1.2777408E-5,-1.3940501E-3,-2.6362002E-4,3.2900185E-3],"categories":[],"categories_nodes":[],"categories_segments":[],"categories_sizes":[],"default_left":[0,0,0,0,0,0,0],"id":38,"left_children":[1,3,5,-1,-1,-1,-1],"loss_changes":[4.40985E-4,1.0229552E-3,6.5288297E-4,0E0,0E0,0E0,0E0],"parents":[2147483647,0,0,1,1,2,2],"right_children":[2,4,6,-1,-1,-1,-1],"split_conditions":[8.7715385E1,4.985336E0,1.8622366E1,1.2777408E-5,-1.3940501E-3,-2.6362002E-4,3.2900185E-3],"split_indices":[2,1,0,0,0,0,0],"split_type":[0,0,0,0,0,0,0],"sum_hessian":[1.36E3,1.353E3,7E0,1.333E3,2E1,4E0,3E0],"tree_param":{"num_deleted":"0","num_feature":"4","num_nodes":"7","size_leaf_vector":"1"}},{"base_weights":[6.87468E-8,-1.03933555E-4,3.437343E-3,9.1701395E-6,-1.2287088E-3,-1.8136246E-3,1.4720965E-3],"categories":[],"categories_nodes":[],"categories_segments":[],"categories_sizes":[],"default_left":[0,0,0,0,0,0,0],"id":39,"left_children":[1,3,5,-1,-1,-1,-1],"loss_changes":[4.8689358E-4,1.1962139E-3,2.029173E-3,0E0,0E0,0E0,0E0],"parents":[2147483647,0,0,1,1,2,2],"right_children":[2,4,6,-1,-1,-1,-1],"split_conditions":[2.1475212E1,4.449782E0,2.0575653E1,9.1701395E-6,-1.2287088E-3,-1.8136246E-3,1.4720965E-3],"split_indices":[0,1,2,0,0,0,0],"split_type":[0,0,0,0,0,0,0],"sum_hessian":[1.36E3,1.321E3,3.9E1,1.29E3,3.1E1,9E0,3E1],"tree_param":{"num_deleted":"0","num_feature":"4","num_nodes":"7","size_leaf_vector":"1"}},{"base_weights":[-1.0928243E-6,-1.5084293E-4,2.1935331E-3,6.363106E-7,-1.4021093E-3,-2.9226437E-3,8.6402457E-4],"categories":[],"categories_nodes":[],"categories_segments":[],"categories_sizes":[],"default_left":[0,0,0,0,0,0,0],"id":40,"left_children":[1,3,5,-1,-1,-1,-1],"loss_changes":[4.4761735E-4,1.3471392E-3,3.1726034E-3,0E0,0E0,0E0,0E0],"parents":[2147483647,0,0,1,1,2,2],"right_children":[2,4,6,-1,-1,-1,-1],"split_conditions":[4.382209E0,4.2407937E0,1.2305739E1,6.363106E-7,-1.4021093E-3,-2.9226437E-3,8.6402457E-4],"split_indices":[1,1,2,0,0,0,0],"split_type":[0,0,0,0,0,0,0],"sum_hessian":[1.36E3,1.274E3,8.6E1,1.247E3,2.7E1,9E0,7.7E1],"tree_param":{"num_deleted":"0","num_feature":"4","num_nodes":"7","size_leaf_vector":"1"}},{"base_weights":[-3.415807E-6,1.8193536E-4,-1.6880267E-3,-1.6069622E-6,1.940905E-3,-2.5539382E-3,2.1449181E-4],"categories":[],"categories_nodes":[],"categories_segments":[],"categories_sizes":[],"default_left":[0,0,0,0,0,0,0],"id":41,"left_children":[1,3,5,-1,-1,-1,-1],"loss_changes":[4.25272E-4,2.219731E-3,4.1434495E-3,0E0,0E0,0E0,0E0],"parents":[2147483647,0,0,1,1,2,2],"right_children":[2,4,6,-1,-1,-1,-1],"split_conditions":[3.4271317E1,2.0678629E1,3.6781414E1,-1.6069622E-6,1.940905E-3,-2.5539382E-3,2.1449181E-4],"split_indices":[2,0,2,0,0,0,0],"split_type":[0,0,0,0,0,0,0],"sum_hessian":[1.36E3,1.226E3,1.34E2,1.203E3,2.3E1,2.6E1,1.08E2],"tree_param":{"num_deleted":"0","num_feature":"4","num_nodes":"7","size_leaf_vector":"1"}},{"base_weights":[-3.0255735E-6,7.8647E-5,-4.5561455E-3,-9.273807E-6,1.9591711E-3,2.5491442E-3,-3.1573959E-3],"categories":[],"categories_nodes":[],"categories_segments":[],"categories_sizes":[],"default_left":[0,0,0,0,0,0,0],"id":42,"left_children":[1,3,5,-1,-1,-1,-1],"loss_changes":[5.0646666E-4,1.6258659E-3,4.8647616E-3,0E0,0E0,0E0,0E0],"parents":[2147483647,0,0,1,1,2,2],"right_children":[2,4,6,-1,-1,-1,-1],"split_conditions":[4.985336E0,4.667947E0,3.4271317E1,-9.273807E-6,1.9591711E-3,2.5491442E-3,-3.1573959E-3],"split_indices":[1,1,2,0,0,0,0],"split_type":[0,0,0,0,0,0,0],"sum_hessian":[1.36E3,1.337E3,2.3E1,1.321E3,1.6E1,9E0,1.4E1],"tree_param":{"num_deleted":"0","num_feature":"4","num_nodes":"7","size_leaf_vector":"1"}},{"base_weights":[-1.4344889E-6,-2.7925803E-4,9.820656E-4,-2.1501191E-5,-1.678712E-3,-1.3343208E-3,4.302558E-4],"categories":[],"categories_nodes":[],"categories_segments":[],"categories_sizes":[],"default_left":[0,0,0,0,0,0,0],"id":43,"left_children":[1,3,5,-1,-1,-1,-1],"loss_changes":[3.7215318E-4,1.479152E-3,2.6989845E-3,0E0,0E0,0E0,0E0],"parents":[2147483647,0,0,1,1,2,2],"right_children":[2,4,6,-1,-1,-1,-1],"split_conditions":[2.4309488E1,2.3408356E1,2.9537547E0,-2.1501191E-5,-1.678712E-3,-1.3343208E-3,4.302558E-4],"split_indices":[2,2,1,0,0,0,0],"split_type":[0,0,0,0,0,0,0],"sum_hessian":[1.36E3,1.061E3,2.99E2,1.04E3,2.1E1,3.9E1,2.6E2],"tree_param":{"num_deleted":"0","num_feature":"4","num_nodes":"7","size_leaf_vector":"1"}},{"base_weights":[-3.0603876E-6,7.807443E-5,-3.7323588E-3,-6.287454E-6,2.4272215E-3,-5.2478043E-3,1.836536E-4],"categories":[],"categories_nodes":[],"categories_segments":[],"categories_sizes":[],"default_left":[0,0,0,0,0,0,0],"id":44,"left_children":[1,3,5,-1,-1,-1,-1],"loss_changes":[4.120973E-4,1.7606022E-3,3.0595274E-3,0E0,0E0,0E0,0E0],"parents":[2147483647,0,0,1,1,2,2],"right_children":[2,4,6,-1,-1,-1,-1],"split_conditions":[4.916054E0,4.667947E0,2.0575653E1,-6.287454E-6,2.4272215E-3,-5.2478043E-3,1.836536E-4],"split_indices":[1,1,2,0,0,0,0],"split_type":[0,0,0,0,0,0,0],"sum_hessian":[1.36E3,1.332E3,2.8E1,1.321E3,1.1E1,4E0,2.4E1],"tree_param":{"num_deleted":"0","num_feature":"4","num_nodes":"7","size_leaf_vector":"1"}},{"base_weights":[-4.3896594E-6,1.7490642E-4,-1.7035311E-3,2.5432286E-5,5.8949008E-3,-2.5759637E-3,1.135724E-4],"categories":[],"categories_nodes":[],"categories_segments":[],"categories_sizes":[],"default_left":[0,0,0,0,0,0,0],"id":45,"left_children":[1,3,5,-1,-1,-1,-1],"loss_changes":[4.1492583E-4,1.7197084E-3,3.3074606E-3,0E0,0E0,0E0,0E0],"parents":[2147483647,0,0,1,1,2,2],"right_children":[2,4,6,-1,-1,-1,-1],"split_conditions":[3.4556606E1,5.9054222E1,3.6781414E1,2.5432286E-5,5.8949008E-3,-2.5759637E-3,1.135724E-4],"split_indices":[2,3,2,0,0,0,0],"split_type":[0,0,0,0,0,0,0],"sum_hessian":[1.36E3,1.231E3,1.29E2,1.23E3,1E0,2.1E1,1.08E2],"tree_param":{"num_deleted":"0","num_feature":"4","num_nodes":"7","size_leaf_vector":"1"}},{"base_weights":[-9.6985E-7,-5.3518284E-3,4.6594057E-5,-6.85768E-4,-1.9955696E-3,-4.061165E-7,1.0095214E-3],"categories":[],"categories_nodes":[],"categories_segments":[],"categories_sizes":[],"default_left":[0,0,0,0,0,0,0],"id":46,"left_children":[1,3,5,-1,-1,-1,-1],"loss_changes":[3.4663442E-4,7.25369E-5,3.2829307E-4,0E0,0E0,0E0,0E0],"parents":[2147483647,0,0,1,1,2,2],"right_children":[2,4,6,-1,-1,-1,-1],"split_conditions":[1.8090212E0,1.474311E0,2.7942764E1,-6.85768E-4,-1.9955696E-3,-4.061165E-7,1.0095214E-3],"split_indices":[2,0,0,0,0,0,0],"split_type":[0,0,0,0,0,0,0],"sum_hessian":[1.36E3,1.1E1,1.349E3,9E0,2E0,1.337E3,1.2E1],"tree_param":{"num_deleted":"0","num_feature":"4","num_nodes":"7","size_leaf_vector":"1"}},{"base_weights":[-2.0031825E-6,6.445961E-5,-3.7072205E-3,-4.7062117E-6,1.3806473E-3,2.2745926E-3,-2.7027058E-3],"categories":[],"categories_nodes":[],"categories_segments":[],"categories_sizes":[],"default_left":[0,0,0,0,0,0,0],"id":47,"left_children":[1,3,5,-1,-1,-1,-1],"loss_changes":[3.3539758E-4,8.05302E-4,3.702831E-3,0E0,0E0,0E0,0E0],"parents":[2147483647,0,0,1,1,2,2],"right_children":[2,4,6,-1,-1,-1,-1],"split_conditions":[4.985336E0,4.667947E0,3.4271317E1,-4.7062117E-6,1.3806473E-3,2.2745926E-3,-2.7027058E-3],"split_indices":[1,1,2,0,0,0,0],"split_type":[0,0,0,0,0,0,0],"sum_hessian":[1.36E3,1.337E3,2.3E1,1.321E3,1.6E1,9E0,1.4E1],"tree_param":{"num_deleted":"0","num_feature":"4","num_nodes":"7","size_leaf_vector":"1"}},{"base_weights":[-9.0484195E-7,-4.044034E-5,6.6905916E-3,9.8222E-6,-1.4172558E-3,-2.849245E-4,3.0323924E-3],"categories":[],"categories_nodes":[],"categories_segments":[],"categories_sizes":[],"default_left":[0,0,0,0,0,0,0],"id":48,"left_children":[1,3,5,-1,-1,-1,-1],"loss_changes":[3.603254E-4,8.546737E-4,5.7157595E-4,0E0,0E0,0E0,0E0],"parents":[2147483647,0,0,1,1,2,2],"right_children":[2,4,6,-1,-1,-1,-1],"split_conditions":[8.7715385E1,6.445527E1,1.8622366E1,9.8222E-6,-1.4172558E-3,-2.849245E-4,3.0323924E-3],"split_indices":[2,2,0,0,0,0,0],"split_type":[0,0,0,0,0,0,0],"sum_hessian":[1.36E3,1.353E3,7E0,1.337E3,1.6E1,4E0,3E0],"tree_param":{"num_deleted":"0","num_feature":"4","num_nodes":"7","size_leaf_vector":"1"}},{"base_weights":[2.616871E-7,1.18650896E-4,-2.1524248E-3,-5.971732E-6,5.4727625E-3,-2.5695853E-3,1.8837384E-4],"categories":[],"categories_nodes":[],"categories_segments":[],"categories_sizes":[],"default_left":[0,0,0,0,0,0,0],"id":49,"left_children":[1,3,5,-1,-1,-1,-1],"loss_changes":[3.4711283E-4,5.2244184E-3,2.3618478E-3,0E0,0E0,0E0,0E0],"parents":[2147483647,0,0,1,1,2,2],"right_children":[2,4,6,-1,-1,-1,-1],"split_conditions":[4.449782E0,4.431308E0,4.55606E0,-5.971732E-6,5.4727625E-3,-2.5695853E-3,1.8837384E-4],"split_indices":[1,1,1,0,0,0,0],"split_type":[0,0,0,0,0,0,0],"sum_hessian":[1.36E3,1.29E3,7E1,1.284E3,6E0,1.5E1,5.5E1],"tree_param":{"num_deleted":"0","num_feature":"4","num_nodes":"7","size_leaf_vector":"1"}}]},"name":"gbtree"},"learner_model_param":{"base_score":"7.899916E-2","boost_from_average":"1","num_class":"0","num_feature":"4","num_target":"1"},"objective":{"name":"reg:squarederror","reg_loss_param":{"scale_pos_weight":"1"}}},"version":[2,0,3]}