{"learner":{"attributes":{"best_iteration":"49","best_ntree_limit":"50","scikit_learn":"{\"n_estimators\": 50, \"objective\": \"reg:squarederror\", \"max_depth\": 2, \"max_leaves\": null, \"max_bin\": null, \"grow_policy\": null, \"learning_rate\": 0.1, \"verbosity\": null, \"booster\": null, \"tree_method\": null, \"gamma\": null, \"min_child_weight\": null, \"max_delta_step\": null, \"subsample\": null, \"sampling_method\": null, \"colsample_bytree\": null, \"colsample_bylevel\": null, \"colsample_bynode\": null, \"reg_alpha\": null, \"reg_lambda\": null, \"scale_pos_weight\": null, \"base_score\": null, \"missing\": NaN, \"num_parallel_tree\": null, \"random_state\": null, \"n_jobs\": null, \"monotone_constraints\": null, \"interaction_constraints\": null, \"importance_type\": null, \"gpu_id\": null, \"validate_parameters\": null, \"predictor\": null, \"enable_categorical\": false, \"feature_types\": null, \"max_cat_to_onehot\": null, \"max_cat_threshold\": null, \"eval_metric\": null, \"early_stopping_rounds\": null, \"callbacks\": null, \"_estimator_type\": \"regressor\"}"},"feature_names":[],"feature_types":[],"gradient_booster":{"model":{"gbtree_model_param":{"num_parallel_tree":"1","num_trees":"50","size_leaf_vector":"0"},"tree_info":[0,0,0,0,0,0,0,0,0,0,0,0,0,0,0,0,0,0,0,0,0,0,0,0,0,0,0,0,0,0,0,0,0,0,0,0,0,0,0,0,0,0,0,0,0,0,0,0,0,0],"trees":[{"base_weights":[-4.2548203E-1,-4.430472E-1,-3.6525407E-1,-4.6420386E-1,-4.2840993E-1,-3.6997408E-1,-6.2084917E-2],"categories":[],"categories_nodes":[],"categories_segments":[],"categories_sizes":[],"default_left":[1,1,1,0,0,0,0],"id":0,"left_children":[1,3,5,-1,-1,-1,-1],"loss_changes":[1.2779846E0,1.2599182E-1,4.2492294E-1,0E0,0E0,0E0,0E0],"parents":[2147483647,0,0,1,1,2,2],"right_children":[2,4,6,-1,-1,-1,-1],"split_conditions":[3.6215043E0,2.5583396E0,6.057186E0,-4.6420388E-2,-4.2840995E-2,-3.6997408E-2,-6.208492E-3],"split_indices":[0,0,0,0,0,0,0],"split_type":[0,0,0,0,0,0,0],"sum_hessian":[1.36E3,1.048E3,3.12E2,4.16E2,6.32E2,3.07E2,5E0],"tree_param":{"num_deleted":"0","num_feature":"4","num_nodes":"7","size_leaf_vector":"0"}},{"base_weights":[-3.8303116E-1,-3.9882758E-1,-3.288667E-1,-4.1947764E-1,-3.8652033E-1,-3.330968E-1,-5.6911185E-2],"categories":[],"categories_nodes":[],"categories_segments":[],"categories_sizes":[],"default_left":[1,1,1,0,0,0,0],"id":1,"left_children":[1,3,5,-1,-1,-1,-1],"loss_changes":[1.0333252E0,1.0446167E-1,3.4111404E-1,0E0,0E0,0E0,0E0],"parents":[2147483647,0,0,1,1,2,2],"right_children":[2,4,6,-1,-1,-1,-1],"split_conditions":[3.6215043E0,2.5171747E0,6.057186E0,-4.1947763E-2,-3.8652033E-2,-3.330968E-2,-5.6911185E-3],"split_indices":[0,0,0,0,0,0,0],"split_type":[0,0,0,0,0,0,0],"sum_hessian":[1.36E3,1.048E3,3.12E2,3.79E2,6.69E2,3.07E2,5E0],"tree_param":{"num_deleted":"0","num_feature":"4","num_nodes":"7","size_leaf_vector":"0"}},{"base_weights":[-3.448159E-1,-3.566835E-1,-2.8521833E-1,-3.686572E-1,-3.3584842E-1,-2.9014346E-1,-5.2168593E-2],"categories":[],"categories_nodes":[],"categories_segments":[],"categories_sizes":[],"default_left":[1,1,1,0,0,0,0],"id":2,"left_children":[1,3,5,-1,-1,-1,-1],"loss_changes":[8.6087036E-1,1.5834045E-1,2.500038E-1,0E0,0E0,0E0,0E0],"parents":[2147483647,0,0,1,1,2,2],"right_children":[2,4,6,-1,-1,-1,-1],"split_conditions":[3.8369255E0,3.0189004E0,6.057186E0,-3.6865722E-2,-3.3584844E-2,-2.9014347E-2,-5.2168593E-3],"split_indices":[0,0,0,0,0,0,0],"split_type":[0,0,0,0,0,0,0],"sum_hessian":[1.36E3,1.13E3,2.3E2,7.07E2,4.23E2,2.25E2,5E0],"tree_param":{"num_deleted":"0","num_feature":"4","num_nodes":"7","size_leaf_vector":"0"}},{"base_weights":[-3.1041124E-1,-3.209962E-1,-2.5640363E-1,-3.3956277E-1,-3.0976602E-1,-2.608659E-1,-4.7821205E-2],"categories":[],"categories_nodes":[],"categories_segments":[],"categories_sizes":[],"default_left":[1,1,1,0,0,0,0],"id":3,"left_children":[1,3,5,-1,-1,-1,-1],"loss_changes":[6.9573975E-1,1.3127136E-1,1.997366E-1,0E0,0E0,0E0,0E0],"parents":[2147483647,0,0,1,1,2,2],"right_children":[2,4,6,-1,-1,-1,-1],"split_conditions":[3.8448043E0,2.5583396E0,6.057186E0,-3.3956278E-2,-3.0976603E-2,-2.608659E-2,-4.7821207E-3],"split_indices":[0,0,0,0,0,0,0],"split_type":[0,0,0,0,0,0,0],"sum_hessian":[1.36E3,1.133E3,2.27E2,4.16E2,7.17E2,2.22E2,5E0],"tree_param":{"num_deleted":"0","num_feature":"4","num_nodes":"7","size_leaf_vector":"0"}},{"base_weights":[-2.7944052E-1,-2.9479206E-1,-2.4770708E-1,-3.1668845E-1,-2.8807604E-1,-2.5489175E-1,-1.6981864E-1],"categories":[],"categories_nodes":[],"categories_segments":[],"categories_sizes":[],"default_left":[1,1,1,0,0,0,0],"id":4,"left_children":[1,3,5,-1,-1,-1,-1],"loss_changes":[5.9000397E-1,4.2884827E-2,2.0853615E-1,0E0,0E0,0E0,0E0],"parents":[2147483647,0,0,1,1,2,2],"right_children":[2,4,6,-1,-1,-1,-1],"split_conditions":[3.3166223E0,2.1384263E0,4.6602635E0,-3.1668846E-2,-2.8807605E-2,-2.5489176E-2,-1.6981864E-2],"split_indices":[0,0,0,0,0,0,0],"split_type":[0,0,0,0,0,0,0],"sum_hessian":[1.36E3,9.11E2,4.49E2,2.03E2,7.08E2,4.09E2,4E1],"tree_param":{"num_deleted":"0","num_feature":"4","num_nodes":"7","size_leaf_vector":"0"}},{"base_weights":[-2.515721E-1,-2.6537916E-1,-2.2303075E-1,-2.8772607E-1,-2.5987148E-1,-2.2513647E-1,-2.9684553E-2],"categories":[],"categories_nodes":[],"categories_segments":[],"categories_sizes":[],"default_left":[1,1,1,0,0,0,0],"id":5,"left_children":[1,3,5,-1,-1,-1,-1],"loss_changes":[4.7714996E-1,3.7483215E-2,1.7652893E-1,0E0,0E0,0E0,0E0],"parents":[2147483647,0,0,1,1,2,2],"right_children":[2,4,6,-1,-1,-1,-1],"split_conditions":[3.3166223E0,2.0007892E0,6.057186E0,-2.8772607E-2,-2.5987148E-2,-2.2513648E-2,-2.9684554E-3],"split_indices":[0,0,0,0,0,0,0],"split_type":[0,0,0,0,0,0,0],"sum_hessian":[1.36E3,9.11E2,4.49E2,1.7E2,7.41E2,4.44E2,5E0],"tree_param":{"num_deleted":"0","num_feature":"4","num_nodes":"7","size_leaf_vector":"0"}},{"base_weights":[-2.2647384E-1,-2.345458E-1,-1.8467699E-1,-2.4295336E-1,-2.201572E-1,-1.87392E-1,1.2175299E-2],"categories":[],"categories_nodes":[],"categories_segments":[],"categories_sizes":[],"default_left":[1,1,1,0,0,0,0],"id":6,"left_children":[1,3,5,-1,-1,-1,-1],"loss_changes":[4.1586304E-1,8.406067E-2,1.225338E-1,0E0,0E0,0E0,0E0],"parents":[2147483647,0,0,1,1,2,2],"right_children":[2,4,6,-1,-1,-1,-1],"split_conditions":[3.86021E0,3.0189004E0,6.206865E0,-2.4295336E-2,-2.201572E-2,-1.87392E-2,1.21753E-3],"split_indices":[0,0,0,0,0,0,0],"split_type":[0,0,0,0,0,0,0],"sum_hessian":[1.36E3,1.136E3,2.24E2,7.07E2,4.29E2,2.21E2,3E0],"tree_param":{"num_deleted":"0","num_feature":"4","num_nodes":"7","size_leaf_vector":"0"}},{"base_weights":[-2.0387337E-1,-2.0831229E-1,-1.4038096E-1,-2.1869235E-1,-1.9488885E-1,-1.4561906E-1,1.1262141E-2],"categories":[],"categories_nodes":[],"categories_segments":[],"categories_sizes":[],"default_left":[1,1,1,0,0,0,0],"id":7,"left_children":[1,3,5,-1,-1,-1,-1],"loss_changes":[3.543396E-1,1.3433838E-1,7.471764E-2,0E0,0E0,0E0,0E0],"parents":[2147483647,0,0,1,1,2,2],"right_children":[2,4,6,-1,-1,-1,-1],"split_conditions":[4.362111E0,3.0189004E0,6.206865E0,-2.1869235E-2,-1.9488884E-2,-1.4561906E-2,1.1262142E-3],"split_indices":[0,0,0,0,0,0,0],"split_type":[0,0,0,0,0,0,0],"sum_hessian":[1.36E3,1.269E3,9.1E1,7.07E2,5.62E2,8.8E1,3E0],"tree_param":{"num_deleted":"0","num_feature":"4","num_nodes":"7","size_leaf_vector":"0"}},{"base_weights":[-1.8352629E-1,-1.8751362E-1,-1.2648892E-1,-1.9510078E-1,-1.7229152E-1,-1.312208E-1,1.0417491E-2],"categories":[],"categories_nodes":[],"categories_segments":[],"categories_sizes":[],"default_left":[1,1,1,0,0,0,0],"id":8,"left_children":[1,3,5,-1,-1,-1,-1],"loss_changes":[2.8580856E-1,1.1306381E-1,6.096661E-2,0E0,0E0,0E0,0E0],"parents":[2147483647,0,0,1,1,2,2],"right_children":[2,4,6,-1,-1,-1,-1],"split_conditions":[4.362111E0,3.223476E0,6.206865E0,-1.951008E-2,-1.7229153E-2,-1.3122081E-2,1.0417491E-3],"split_indices":[0,0,0,0,0,0,0],"split_type":[0,0,0,0,0,0,0],"sum_hessian":[1.36E3,1.269E3,9.1E1,8.39E2,4.3E2,8.8E1,3E0],"tree_param":{"num_deleted":"0","num_feature":"4","num_nodes":"7","size_leaf_vector":"0"}},{"base_weights":[-1.6520953E-1,-1.7138201E-1,-1.3427329E-1,-1.9061475E-1,-1.6644861E-1,-1.3688742E-1,-1.342918E-2],"categories":[],"categories_nodes":[],"categories_segments":[],"categories_sizes":[],"default_left":[1,1,1,0,0,0,0],"id":9,"left_children":[1,3,5,-1,-1,-1,-1],"loss_changes":[2.3687744E-1,7.558441E-2,7.1135044E-2,0E0,0E0,0E0,0E0],"parents":[2147483647,0,0,1,1,2,2],"right_children":[2,4,6,-1,-1,-1,-1],"split_conditions":[3.8369255E0,2.1891842E0,6.057186E0,-1.9061474E-2,-1.6644862E-2,-1.3688742E-2,-1.342918E-3],"split_indices":[0,0,0,0,0,0,0],"split_type":[0,0,0,0,0,0,0],"sum_hessian":[1.36E3,1.13E3,2.3E2,2.23E2,9.07E2,2.25E2,5E0],"tree_param":{"num_deleted":"0","num_feature":"4","num_nodes":"7","size_leaf_vector":"0"}},{"base_weights":[-1.4872585E-1,-1.5205865E-1,-1.0110235E-1,-1.6920418E-1,-1.4697112E-1,-1.2449925E-1,-7.605215E-2],"categories":[],"categories_nodes":[],"categories_segments":[],"categories_sizes":[],"default_left":[1,1,1,0,0,0,0],"id":10,"left_children":[1,3,5,-1,-1,-1,-1],"loss_changes":[2.0063972E-1,8.591461E-2,4.445237E-2,0E0,0E0,0E0,0E0],"parents":[2147483647,0,0,1,1,2,2],"right_children":[2,4,6,-1,-1,-1,-1],"split_conditions":[4.362111E0,2.356911E0,1.1868438E3,-1.6920418E-2,-1.4697112E-2,-1.2449925E-2,-7.605215E-3],"split_indices":[0,0,2,0,0,0,0],"split_type":[0,0,0,0,0,0,0],"sum_hessian":[1.36E3,1.269E3,9.1E1,2.83E2,9.86E2,4.5E1,4.6E1],"tree_param":{"num_deleted":"0","num_feature":"4","num_nodes":"7","size_leaf_vector":"0"}},{"base_weights":[-1.3389124E-1,-1.4019987E-1,-1.1232046E-1,-1.582295E-1,-1.3658215E-1,-1.1817059E-1,-7.062767E-2],"categories":[],"categories_nodes":[],"categories_segments":[],"categories_sizes":[],"default_left":[1,1,1,0,0,0,0],"id":11,"left_children":[1,3,5,-1,-1,-1,-1],"loss_changes":[1.694603E-1,4.681015E-2,6.799674E-2,0E0,0E0,0E0,0E0],"parents":[2147483647,0,0,1,1,2,2],"right_children":[2,4,6,-1,-1,-1,-1],"split_conditions":[3.6215043E0,1.9998592E0,4.6602635E0,-1.582295E-2,-1.3658215E-2,-1.18170595E-2,-7.0627667E-3],"split_indices":[0,0,0,0,0,0,0],"split_type":[0,0,0,0,0,0,0],"sum_hessian":[1.36E3,1.048E3,3.12E2,1.68E2,8.8E2,2.72E2,4E1],"tree_param":{"num_deleted":"0","num_feature":"4","num_nodes":"7","size_leaf_vector":"0"}},{"base_weights":[-1.2053765E-1,-1.2879701E-1,-1.0680517E-1,-1.4673446E-1,-1.2579891E-1,-1.1028312E-1,-6.373716E-2],"categories":[],"categories_nodes":[],"categories_segments":[],"categories_sizes":[],"default_left":[1,1,1,0,0,0,0],"id":12,"left_children":[1,3,5,-1,-1,-1,-1],"loss_changes":[1.4060974E-1,2.6983261E-2,7.041168E-2,0E0,0E0,0E0,0E0],"parents":[2147483647,0,0,1,1,2,2],"right_children":[2,4,6,-1,-1,-1,-1],"split_conditions":[3.22831E0,1.7745993E0,4.6602635E0,-1.4673446E-2,-1.2579891E-2,-1.1028312E-2,-6.373716E-3],"split_indices":[0,0,0,0,0,0,0],"split_type":[0,0,0,0,0,0,0],"sum_hessian":[1.36E3,8.44E2,5.16E2,1.14E2,7.3E2,4.76E2,4E1],"tree_param":{"num_deleted":"0","num_feature":"4","num_nodes":"7","size_leaf_vector":"0"}},{"base_weights":[-1.085167E-1,-1.12753E-1,-8.6627E-2,-1.285825E-1,-1.09875865E-1,-8.8273756E-2,2.6424646E-2],"categories":[],"categories_nodes":[],"categories_segments":[],"categories_sizes":[],"default_left":[1,1,1,0,0,0,0],"id":13,"left_children":[1,3,5,-1,-1,-1,-1],"loss_changes":[1.1643982E-1,3.7654877E-2,4.4220567E-2,0E0,0E0,0E0,0E0],"parents":[2147483647,0,0,1,1,2,2],"right_children":[2,4,6,-1,-1,-1,-1],"split_conditions":[3.86021E0,1.9998592E0,6.206865E0,-1.2858251E-2,-1.0987586E-2,-8.827376E-3,2.6424646E-3],"split_indices":[0,0,0,0,0,0,0],"split_type":[0,0,0,0,0,0,0],"sum_hessian":[1.36E3,1.136E3,2.24E2,1.68E2,9.68E2,2.21E2,3E0],"tree_param":{"num_deleted":"0","num_feature":"4","num_nodes":"7","size_leaf_vector":"0"}},{"base_weights":[-9.76871E-2,-1.0002541E-1,-6.434648E-2,-1.08053505E-1,-9.4185755E-2,-9.816279E-2,-5.0263334E-2],"categories":[],"categories_nodes":[],"categories_segments":[],"categories_sizes":[],"default_left":[1,1,1,0,0,0,0],"id":14,"left_children":[1,3,5,-1,-1,-1,-1],"loss_changes":[9.96685E-2,4.9362183E-2,3.888008E-2,0E0,0E0,0E0,0E0],"parents":[2147483647,0,0,1,1,2,2],"right_children":[2,4,6,-1,-1,-1,-1],"split_conditions":[4.362111E0,2.7251549E0,8.0192334E2,-1.0805351E-2,-9.418576E-3,-9.81628E-3,-5.0263335E-3],"split_indices":[0,0,1,0,0,0,0],"split_type":[0,0,0,0,0,0,0],"sum_hessian":[1.36E3,1.269E3,9.1E1,5.27E2,7.42E2,2.5E1,6.6E1],"tree_param":{"num_deleted":"0","num_feature":"4","num_nodes":"7","size_leaf_vector":"0"}},{"base_weights":[-8.794415E-2,-9.433074E-2,-7.733562E-2,-1.09446235E-1,-9.201452E-2,-8.005679E-2,-4.37909E-2],"categories":[],"categories_nodes":[],"categories_segments":[],"categories_sizes":[],"default_left":[1,1,1,0,0,0,0],"id":15,"left_children":[1,3,5,-1,-1,-1,-1],"loss_changes":[8.4916115E-2,1.951313E-2,4.368639E-2,0E0,0E0,0E0,0E0],"parents":[2147483647,0,0,1,1,2,2],"right_children":[2,4,6,-1,-1,-1,-1],"split_conditions":[3.22831E0,1.7286634E0,4.6602635E0,-1.09446235E-2,-9.201452E-3,-8.005679E-3,-4.37909E-3],"split_indices":[0,0,0,0,0,0,0],"split_type":[0,0,0,0,0,0,0],"sum_hessian":[1.36E3,8.44E2,5.16E2,1.06E2,7.38E2,4.76E2,4E1],"tree_param":{"num_deleted":"0","num_feature":"4","num_nodes":"7","size_leaf_vector":"0"}},{"base_weights":[-7.917364E-2,-8.343393E-2,-6.6083804E-2,-9.756973E-2,-8.14295E-2,-6.7336865E-2,1.46837635E-2],"categories":[],"categories_nodes":[],"categories_segments":[],"categories_sizes":[],"default_left":[1,1,1,0,0,0,0],"id":16,"left_children":[1,3,5,-1,-1,-1,-1],"loss_changes":[7.0384026E-2,2.1041393E-2,3.529775E-2,0E0,0E0,0E0,0E0],"parents":[2147483647,0,0,1,1,2,2],"right_children":[2,4,6,-1,-1,-1,-1],"split_conditions":[3.5568876E0,1.8292025E0,6.057186E0,-9.756973E-3,-8.14295E-3,-6.7336867E-3,1.4683764E-3],"split_indices":[0,0,0,0,0,0,0],"split_type":[0,0,0,0,0,0,0],"sum_hessian":[1.36E3,1.022E3,3.38E2,1.21E2,9.01E2,3.33E2,5E0],"tree_param":{"num_deleted":"0","num_feature":"4","num_nodes":"7","size_leaf_vector":"0"}},{"base_weights":[-7.12733E-2,-7.308302E-2,-4.5516547E-2,-8.148326E-2,-6.970912E-2,-6.4497374E-2,-2.5971128E-2],"categories":[],"categories_nodes":[],"categories_segments":[],"categories_sizes":[],"default_left":[1,1,1,0,0,0,0],"id":17,"left_children":[1,3,5,-1,-1,-1,-1],"loss_changes":[6.0112476E-2,3.0313969E-2,3.2455847E-2,0E0,0E0,0E0,0E0],"parents":[2147483647,0,0,1,1,2,2],"right_children":[2,4,6,-1,-1,-1,-1],"split_conditions":[4.362111E0,2.4816303E0,1.1868438E3,-8.148327E-3,-6.970912E-3,-6.4497376E-3,-2.597113E-3],"split_indices":[0,0,2,0,0,0,0],"split_type":[0,0,0,0,0,0,0],"sum_hessian":[1.36E3,1.269E3,9.1E1,3.57E2,9.12E2,4.5E1,4.6E1],"tree_param":{"num_deleted":"0","num_feature":"4","num_nodes":"7","size_leaf_vector":"0"}},{"base_weights":[-6.416372E-2,-6.9096975E-2,-5.5976566E-2,-8.0865934E-2,-6.729944E-2,-5.728427E-2,-1.1448754E-2],"categories":[],"categories_nodes":[],"categories_segments":[],"categories_sizes":[],"default_left":[1,1,1,0,0,0,0],"id":18,"left_children":[1,3,5,-1,-1,-1,-1],"loss_changes":[5.110216E-2,1.2433529E-2,2.9448748E-2,0E0,0E0,0E0,0E0],"parents":[2147483647,0,0,1,1,2,2],"right_children":[2,4,6,-1,-1,-1,-1],"split_conditions":[3.22831E0,1.7286634E0,5.1515145E0,-8.086594E-3,-6.729944E-3,-5.728427E-3,-1.1448754E-3],"split_indices":[0,0,0,0,0,0,0],"split_type":[0,0,0,0,0,0,0],"sum_hessian":[1.36E3,8.44E2,5.16E2,1.06E2,7.38E2,5.01E2,1.5E1],"tree_param":{"num_deleted":"0","num_feature":"4","num_nodes":"7","size_leaf_vector":"0"}},{"base_weights":[-5.776329E-2,-5.967139E-2,-4.028018E-2,-6.556185E-2,-5.656138E-2,-4.2710554E-2,5.120741E-2],"categories":[],"categories_nodes":[],"categories_segments":[],"categories_sizes":[],"default_left":[1,1,1,0,0,0,0],"id":19,"left_children":[1,3,5,-1,-1,-1,-1],"loss_changes":[4.299879E-2,1.8733025E-2,3.2648936E-2,0E0,0E0,0E0,0E0],"parents":[2147483647,0,0,1,1,2,2],"right_children":[2,4,6,-1,-1,-1,-1],"split_conditions":[4.128564E0,2.5583396E0,4.701374E3,-6.5561854E-3,-5.656138E-3,-4.2710556E-3,5.1207407E-3],"split_indices":[0,0,1,0,0,0,0],"split_type":[0,0,0,0,0,0,0],"sum_hessian":[1.36E3,1.224E3,1.36E2,4.16E2,8.08E2,1.33E2,3E0],"tree_param":{"num_deleted":"0","num_feature":"4","num_nodes":"7","size_leaf_vector":"0"}},{"base_weights":[-5.199531E-2,-5.3401265E-2,-3.2021835E-2,-5.7006598E-2,-4.8772536E-2,-6.0695555E-2,-2.0416781E-2],"categories":[],"categories_nodes":[],"categories_segments":[],"categories_sizes":[],"default_left":[1,1,1,0,0,0,0],"id":20,"left_children":[1,3,5,-1,-1,-1,-1],"loss_changes":[3.6509275E-2,1.8413544E-2,2.9374711E-2,0E0,0E0,0E0,0E0],"parents":[2147483647,0,0,1,1,2,2],"right_children":[2,4,6,-1,-1,-1,-1],"split_conditions":[4.362111E0,3.0189004E0,8.0192334E2,-5.70066E-3,-4.877254E-3,-6.0695554E-3,-2.0416782E-3],"split_indices":[0,0,1,0,0,0,0],"split_type":[0,0,0,0,0,0,0],"sum_hessian":[1.36E3,1.269E3,9.1E1,7.07E2,5.62E2,2.5E1,6.6E1],"tree_param":{"num_deleted":"0","num_feature":"4","num_nodes":"7","size_leaf_vector":"0"}},{"base_weights":[-4.680951E-2,-4.7644354E-2,-1.8769512E-2,-5.2112572E-2,-4.4087466E-2,-7.7827394E-2,-4.321495E-3],"categories":[],"categories_nodes":[],"categories_segments":[],"categories_sizes":[],"default_left":[1,1,1,0,0,0,0],"id":21,"left_children":[1,3,5,-1,-1,-1,-1],"loss_changes":[3.0965328E-2,1.8697023E-2,3.464771E-2,0E0,0E0,0E0,0E0],"parents":[2147483647,0,0,1,1,2,2],"right_children":[2,4,6,-1,-1,-1,-1],"split_conditions":[4.6602635E0,2.8229265E0,7.6110596E2,-5.2112574E-3,-4.4087465E-3,-7.7827396E-3,-4.321495E-4],"split_indices":[0,0,1,0,0,0,0],"split_type":[0,0,0,0,0,0,0],"sum_hessian":[1.36E3,1.32E3,4E1,5.79E2,7.41E2,7E0,3.3E1],"tree_param":{"num_deleted":"0","num_feature":"4","num_nodes":"7","size_leaf_vector":"0"}},{"base_weights":[-4.214166E-2,-4.4595066E-2,-3.3784594E-2,-5.9993338E-2,-4.3633316E-2,-3.4605227E-2,3.8260765E-2],"categories":[],"categories_nodes":[],"categories_segments":[],"categories_sizes":[],"default_left":[1,1,1,0,0,0,0],"id":22,"left_children":[1,3,5,-1,-1,-1,-1],"loss_changes":[2.639842E-2,1.291728E-2,1.9829452E-2,0E0,0E0,0E0,0E0],"parents":[2147483647,0,0,1,1,2,2],"right_children":[2,4,6,-1,-1,-1,-1],"split_conditions":[3.6215043E0,1.3621168E0,6.206865E0,-5.9993337E-3,-4.3633315E-3,-3.4605227E-3,3.8260766E-3],"split_indices":[0,0,0,0,0,0,0],"split_type":[0,0,0,0,0,0,0],"sum_hessian":[1.36E3,1.048E3,3.12E2,5.8E1,9.9E2,3.09E2,3E0],"tree_param":{"num_deleted":"0","num_feature":"4","num_nodes":"7","size_leaf_vector":"0"}},{"base_weights":[-3.7934843E-2,-3.8641237E-2,-1.4249965E-2,-4.8666853E-2,-3.7402015E-2,-6.798953E-2,-1.1862444E-3],"categories":[],"categories_nodes":[],"categories_segments":[],"categories_sizes":[],"default_left":[1,1,1,0,0,0,0],"id":23,"left_children":[1,3,5,-1,-1,-1,-1],"loss_changes":[2.2220135E-2,1.4591813E-2,2.8702933E-2,0E0,0E0,0E0,0E0],"parents":[2147483647,0,0,1,1,2,2],"right_children":[2,4,6,-1,-1,-1,-1],"split_conditions":[4.6602635E0,1.930284E0,7.6110596E2,-4.8666853E-3,-3.7402015E-3,-6.798953E-3,-1.1862444E-4],"split_indices":[0,0,1,0,0,0,0],"split_type":[0,0,0,0,0,0,0],"sum_hessian":[1.36E3,1.32E3,4E1,1.41E2,1.179E3,7E0,3.3E1],"tree_param":{"num_deleted":"0","num_feature":"4","num_nodes":"7","size_leaf_vector":"0"}},{"base_weights":[-3.4152765E-2,-3.6905047E-2,-2.8498912E-2,-4.931149E-2,-3.6004715E-2,-2.9007675E-2,3.5480164E-2],"categories":[],"categories_nodes":[],"categories_segments":[],"categories_sizes":[],"default_left":[1,1,1,0,0,0,0],"id":24,"left_children":[1,3,5,-1,-1,-1,-1],"loss_changes":[2.01267E-2,8.411646E-3,1.5676796E-2,0E0,0E0,0E0,0E0],"parents":[2147483647,0,0,1,1,2,2],"right_children":[2,4,6,-1,-1,-1,-1],"split_conditions":[3.3166223E0,1.3621168E0,6.206865E0,-4.931149E-3,-3.6004714E-3,-2.9007676E-3,3.5480165E-3],"split_indices":[0,0,0,0,0,0,0],"split_type":[0,0,0,0,0,0,0],"sum_hessian":[1.36E3,9.11E2,4.49E2,5.8E1,8.53E2,4.46E2,3E0],"tree_param":{"num_deleted":"0","num_feature":"4","num_nodes":"7","size_leaf_vector":"0"}},{"base_weights":[-3.0743284E-2,-3.1122565E-2,3.085203E-3,-3.410033E-2,-2.7774548E-2,-3.6273904E-2,3.0328058E-2],"categories":[],"categories_nodes":[],"categories_segments":[],"categories_sizes":[],"default_left":[1,1,1,0,0,0,0],"id":25,"left_children":[1,3,5,-1,-1,-1,-1],"loss_changes":[1.7558336E-2,1.24720335E-2,1.825619E-2,0E0,0E0,0E0,0E0],"parents":[2147483647,0,0,1,1,2,2],"right_children":[2,4,6,-1,-1,-1,-1],"split_conditions":[5.1515145E0,3.0189004E0,7.286509E2,-3.4100332E-3,-2.777455E-3,-3.6273904E-3,3.0328059E-3],"split_indices":[0,0,2,0,0,0,0],"split_type":[0,0,0,0,0,0,0],"sum_hessian":[1.36E3,1.345E3,1.5E1,7.07E2,6.38E2,6E0,9E0],"tree_param":{"num_deleted":"0","num_feature":"4","num_nodes":"7","size_leaf_vector":"0"}},{"base_weights":[-2.7673937E-2,-2.9179081E-2,-1.994495E-2,-3.9210096E-2,-2.835196E-2,-4.2274605E-2,-1.5609092E-2],"categories":[],"categories_nodes":[],"categories_segments":[],"categories_sizes":[],"default_left":[1,1,1,0,0,0,0],"id":26,"left_children":[1,3,5,-1,-1,-1,-1],"loss_changes":[1.5250802E-2,8.321822E-3,2.1124221E-2,0E0,0E0,0E0,0E0],"parents":[2147483647,0,0,1,1,2,2],"right_children":[2,4,6,-1,-1,-1,-1],"split_conditions":[3.86021E0,1.5641351E0,7.1963025E2,-3.9210096E-3,-2.8351962E-3,-4.227461E-3,-1.5609092E-3],"split_indices":[0,0,1,0,0,0,0],"split_type":[0,0,0,0,0,0,0],"sum_hessian":[1.36E3,1.136E3,2.24E2,8.3E1,1.053E3,3.5E1,1.89E2],"tree_param":{"num_deleted":"0","num_feature":"4","num_nodes":"7","size_leaf_vector":"0"}},{"base_weights":[-2.4915759E-2,-2.5767932E-2,-1.2881236E-2,-3.1069344E-2,-2.4483304E-2,-2.7917035E-2,-2.4623994E-4],"categories":[],"categories_nodes":[],"categories_segments":[],"categories_sizes":[],"default_left":[1,1,1,0,0,0,0],"id":27,"left_children":[1,3,5,-1,-1,-1,-1],"loss_changes":[1.362586E-2,7.888436E-3,1.7471034E-2,0E0,0E0,0E0,0E0],"parents":[2147483647,0,0,1,1,2,2],"right_children":[2,4,6,-1,-1,-1,-1],"split_conditions":[4.362111E0,2.2501755E0,1.1153356E3,-3.1069345E-3,-2.4483304E-3,-2.7917034E-3,-2.4623994E-5],"split_indices":[0,0,2,0,0,0,0],"split_type":[0,0,0,0,0,0,0],"sum_hessian":[1.36E3,1.269E3,9.1E1,2.43E2,1.026E3,4.1E1,5E1],"tree_param":{"num_deleted":"0","num_feature":"4","num_nodes":"7","size_leaf_vector":"0"}},{"base_weights":[-2.2430334E-2,-2.2748888E-2,5.769869E-3,-2.716229E-2,-2.1317432E-2,-2.867203E-2,2.9302211E-2],"categories":[],"categories_nodes":[],"categories_segments":[],"categories_sizes":[],"default_left":[1,1,1,0,0,0,0],"id":28,"left_children":[1,3,5,-1,-1,-1,-1],"loss_changes":[1.2357473E-2,7.924497E-3,1.3808131E-2,0E0,0E0,0E0,0E0],"parents":[2147483647,0,0,1,1,2,2],"right_children":[2,4,6,-1,-1,-1,-1],"split_conditions":[5.1515145E0,2.4363794E0,7.286509E2,-2.716229E-3,-2.1317431E-3,-2.867203E-3,2.9302211E-3],"split_indices":[0,0,2,0,0,0,0],"split_type":[0,0,0,0,0,0,0],"sum_hessian":[1.36E3,1.345E3,1.5E1,3.25E2,1.02E3,6E0,9E0],"tree_param":{"num_deleted":"0","num_feature":"4","num_nodes":"7","size_leaf_vector":"0"}},{"base_weights":[-2.0190816E-2,-2.04776E-2,5.1968205E-3,-3.1969342E-2,-1.997255E-2,-2.6214425E-2,2.666501E-2],"categories":[],"categories_nodes":[],"categories_segments":[],"categories_sizes":[],"default_left":[1,1,1,0,0,0,0],"id":29,"left_children":[1,3,5,-1,-1,-1,-1],"loss_changes":[1.0015607E-2,7.1734786E-3,1.1488488E-2,0E0,0E0,0E0,0E0],"parents":[2147483647,0,0,1,1,2,2],"right_children":[2,4,6,-1,-1,-1,-1],"split_conditions":[5.1515145E0,1.3309274E0,7.286509E2,-3.1969342E-3,-1.997255E-3,-2.6214425E-3,2.666501E-3],"split_indices":[0,0,2,0,0,0,0],"split_type":[0,0,0,0,0,0,0],"sum_hessian":[1.36E3,1.345E3,1.5E1,5.4E1,1.291E3,6E0,9E0],"tree_param":{"num_deleted":"0","num_feature":"4","num_nodes":"7","size_leaf_vector":"0"}},{"base_weights":[-1.8175516E-2,-1.9677682E-2,-1.3588818E-2,-2.9590497E-2,-1.9170005E-2,-1.401059E-2,6.448503E-2],"categories":[],"categories_nodes":[],"categories_segments":[],"categories_sizes":[],"default_left":[1,1,1,0,0,0,0],"id":30,"left_children":[1,3,5,-1,-1,-1,-1],"loss_changes":[9.109855E-3,4.5809746E-3,1.2066521E-2,0E0,0E0,0E0,0E0],"parents":[2147483647,0,0,1,1,2,2],"right_children":[2,4,6,-1,-1,-1,-1],"split_conditions":[3.5568876E0,1.2577431E0,1.1510035E4,-2.9590498E-3,-1.9170005E-3,-1.401059E-3,6.448503E-3],"split_indices":[0,0,1,0,0,0,0],"split_type":[0,0,0,0,0,0,0],"sum_hessian":[1.36E3,1.022E3,3.38E2,4.7E1,9.75E2,3.37E2,1E0],"tree_param":{"num_deleted":"0","num_feature":"4","num_nodes":"7","size_leaf_vector":"0"}},{"base_weights":[-1.6357841E-2,-1.7003909E-2,-6.9331224E-3,-2.3975309E-2,-1.643415E-2,-2.0017635E-2,4.660266E-3],"categories":[],"categories_nodes":[],"categories_segments":[],"categories_sizes":[],"default_left":[1,1,1,0,0,0,0],"id":31,"left_children":[1,3,5,-1,-1,-1,-1],"loss_changes":[8.169234E-3,4.6623647E-3,1.3594039E-2,0E0,0E0,0E0,0E0],"parents":[2147483647,0,0,1,1,2,2],"right_children":[2,4,6,-1,-1,-1,-1],"split_conditions":[4.3722305E0,1.6089456E0,1.1153356E3,-2.397531E-3,-1.643415E-3,-2.0017636E-3,4.660266E-4],"split_indices":[0,0,2,0,0,0,0],"split_type":[0,0,0,0,0,0,0],"sum_hessian":[1.36E3,1.272E3,8.8E1,9.3E1,1.179E3,4.1E1,4.7E1],"tree_param":{"num_deleted":"0","num_feature":"4","num_nodes":"7","size_leaf_vector":"0"}},{"base_weights":[-1.4726156E-2,-1.4841862E-2,2.8237417E-2,-1.6517188E-2,-1.2058803E-2,3.5148542E-2,3.752023E-3],"categories":[],"categories_nodes":[],"categories_segments":[],"categories_sizes":[],"default_left":[1,1,1,0,0,0,0],"id":32,"left_children":[1,3,5,-1,-1,-1,-1],"loss_changes":[7.1848035E-3,6.1325133E-3,5.450081E-4,0E0,0E0,0E0,0E0],"parents":[2147483647,0,0,1,1,2,2],"right_children":[2,4,6,-1,-1,-1,-1],"split_conditions":[6.206865E0,3.22831E0,6.2924557E0,-1.6517189E-3,-1.2058803E-3,3.5148542E-3,3.752023E-4],"split_indices":[0,0,0,0,0,0,0],"split_type":[0,0,0,0,0,0,0],"sum_hessian":[1.36E3,1.357E3,3E0,8.44E2,5.13E2,2E0,1E0],"tree_param":{"num_deleted":"0","num_feature":"4","num_nodes":"7","size_leaf_vector":"0"}},{"base_weights":[-1.3252782E-2,-1.3484607E-2,7.0778043E-3,-1.3306393E-2,-5.106798E-2,5.5154335E-2,-8.259421E-3],"categories":[],"categories_nodes":[],"categories_segments":[],"categories_sizes":[],"default_left":[1,1,1,0,0,0,0],"id":33,"left_children":[1,3,5,-1,-1,-1,-1],"loss_changes":[6.5100193E-3,8.335814E-3,1.2253311E-2,0E0,0E0,0E0,0E0],"parents":[2147483647,0,0,1,1,2,2],"right_children":[2,4,6,-1,-1,-1,-1],"split_conditions":[5.1515145E0,5.0255976E0,5.288624E0,-1.3306394E-3,-5.106798E-3,5.5154334E-3,-8.2594214E-4],"split_indices":[0,0,0,0,0,0,0],"split_type":[0,0,0,0,0,0,0],"sum_hessian":[1.36E3,1.345E3,1.5E1,1.34E3,5E0,3E0,1.2E1],"tree_param":{"num_deleted":"0","num_feature":"4","num_nodes":"7","size_leaf_vector":"0"}},{"base_weights":[-1.1928789E-2,-1.2305564E-2,-9.402511E-5,-1.2414368E-2,2.6567385E-2,4.0359758E-2,-9.081143E-3],"categories":[],"categories_nodes":[],"categories_segments":[],"categories_sizes":[],"default_left":[1,1,1,0,0,0,0],"id":34,"left_children":[1,3,5,-1,-1,-1,-1],"loss_changes":[6.0676187E-3,5.908549E-3,1.5999718E-2,0E0,0E0,0E0,0E0],"parents":[2147483647,0,0,1,1,2,2],"right_children":[2,4,6,-1,-1,-1,-1],"split_conditions":[4.6260967E0,1.2477094E4,4.7814155E0,-1.2414368E-3,2.6567385E-3,4.035976E-3,-9.081143E-4],"split_indices":[0,1,0,0,0,0,0],"split_type":[0,0,0,0,0,0,0],"sum_hessian":[1.36E3,1.318E3,4.2E1,1.315E3,3E0,7E0,3.5E1],"tree_param":{"num_deleted":"0","num_feature":"4","num_nodes":"7","size_leaf_vector":"0"}},{"base_weights":[-1.0732572E-2,-1.08378325E-2,2.7686723E-2,-1.0934373E-2,2.4574831E-2,3.3961337E-2,4.4314414E-3],"categories":[],"categories_nodes":[],"categories_segments":[],"categories_sizes":[],"default_left":[1,1,1,0,0,0,0],"id":35,"left_children":[1,3,5,-1,-1,-1,-1],"loss_changes":[5.804032E-3,4.911393E-3,4.3317373E-4,0E0,0E0,0E0,0E0],"parents":[2147483647,0,0,1,1,2,2],"right_children":[2,4,6,-1,-1,-1,-1],"split_conditions":[6.206865E0,1.2477094E4,6.2924557E0,-1.0934373E-3,2.4574832E-3,3.3961337E-3,4.4314415E-4],"split_indices":[0,1,0,0,0,0,0],"split_type":[0,0,0,0,0,0,0],"sum_hessian":[1.36E3,1.357E3,3E0,1.354E3,3E0,2E0,1E0],"tree_param":{"num_deleted":"0","num_feature":"4","num_nodes":"7","size_leaf_vector":"0"}},{"base_weights":[-9.655491E-3,-1.1223879E-2,-7.0733964E-3,-1.1566013E-2,9.618956E-4,-7.323433E-3,6.0972802E-2],"categories":[],"categories_nodes":[],"categories_segments":[],"categories_sizes":[],"default_left":[1,1,1,0,0,0,0],"id":36,"left_children":[1,3,5,-1,-1,-1,-1],"loss_changes":[5.432293E-3,3.5340786E-3,9.242799E-3,0E0,0E0,0E0,0E0],"parents":[2147483647,0,0,1,1,2,2],"right_children":[2,4,6,-1,-1,-1,-1],"split_conditions":[3.22831E0,6.3364746E3,1.2477094E4,-1.1566014E-3,9.6189564E-5,-7.3234335E-4,6.0972804E-3],"split_indices":[0,2,1,0,0,0,0],"split_type":[0,0,0,0,0,0,0],"sum_hessian":[1.36E3,8.44E2,5.16E2,8.21E2,2.3E1,5.15E2,1E0],"tree_param":{"num_deleted":"0","num_feature":"4","num_nodes":"7","size_leaf_vector":"0"}},{"base_weights":[-8.68678E-3,-8.783812E-3,2.6427127E-2,-1.2334569E-2,-7.887225E-3,3.2185476E-2,4.5760423E-3],"categories":[],"categories_nodes":[],"categories_segments":[],"categories_sizes":[],"default_left":[1,1,1,0,0,0,0],"id":37,"left_children":[1,3,5,-1,-1,-1,-1],"loss_changes":[4.8692673E-3,4.225999E-3,3.5602273E-4,0E0,0E0,0E0,0E0],"parents":[2147483647,0,0,1,1,2,2],"right_children":[2,4,6,-1,-1,-1,-1],"split_conditions":[6.206865E0,2.3198228E0,6.2924557E0,-1.233457E-3,-7.887225E-4,3.2185477E-3,4.5760424E-4],"split_indices":[0,0,0,0,0,0,0],"split_type":[0,0,0,0,0,0,0],"sum_hessian":[1.36E3,1.357E3,3E0,2.71E2,1.086E3,2E0,1E0],"tree_param":{"num_deleted":"0","num_feature":"4","num_nodes":"7","size_leaf_vector":"0"}},{"base_weights":[-7.816886E-3,-8.620188E-3,-3.722791E-3,-1.7115837E-2,-8.262525E-3,-2.2326328E-2,-1.7831667E-4],"categories":[],"categories_nodes":[],"categories_segments":[],"categories_sizes":[],"default_left":[1,1,1,0,0,0,0],"id":38,"left_children":[1,3,5,-1,-1,-1,-1],"loss_changes":[4.443966E-3,3.3134297E-3,1.4832465E-2,0E0,0E0,0E0,0E0],"parents":[2147483647,0,0,1,1,2,2],"right_children":[2,4,6,-1,-1,-1,-1],"split_conditions":[3.86021E0,1.2302079E0,7.1963025E2,-1.7115837E-3,-8.2625257E-4,-2.2326328E-3,-1.7831668E-5],"split_indices":[0,0,1,0,0,0,0],"split_type":[0,0,0,0,0,0,0],"sum_hessian":[1.36E3,1.136E3,2.24E2,4.4E1,1.092E3,3.5E1,1.89E2],"tree_param":{"num_deleted":"0","num_feature":"4","num_nodes":"7","size_leaf_vector":"0"}},{"base_weights":[-7.038714E-3,-7.2244126E-3,9.023096E-3,-7.058402E-3,-4.3123677E-2,5.4226805E-2,-5.579821E-3],"categories":[],"categories_nodes":[],"categories_segments":[],"categories_sizes":[],"default_left":[1,1,1,0,0,0,0],"id":39,"left_children":[1,3,5,-1,-1,-1,-1],"loss_changes":[4.124582E-3,7.7173114E-3,1.0864272E-2,0E0,0E0,0E0,0E0],"parents":[2147483647,0,0,1,1,2,2],"right_children":[2,4,6,-1,-1,-1,-1],"split_conditions":[5.1515145E0,5.0255976E0,5.288624E0,-7.0584024E-4,-4.3123676E-3,5.4226806E-3,-5.579821E-4],"split_indices":[0,0,0,0,0,0,0],"split_type":[0,0,0,0,0,0,0],"sum_hessian":[1.36E3,1.345E3,1.5E1,1.34E3,5E0,3E0,1.2E1],"tree_param":{"num_deleted":"0","num_feature":"4","num_nodes":"7","size_leaf_vector":"0"}},{"base_weights":[-6.3349563E-3,-6.631768E-3,3.3826781E-3,-6.3881557E-3,-1.9005101E-2,5.426763E-2,-5.1921103E-3],"categories":[],"categories_nodes":[],"categories_segments":[],"categories_sizes":[],"default_left":[1,1,1,0,0,0,0],"id":40,"left_children":[1,3,5,-1,-1,-1,-1],"loss_changes":[3.947977E-3,3.8604774E-3,1.81712E-2,0E0,0E0,0E0,0E0],"parents":[2147483647,0,0,1,1,2,2],"right_children":[2,4,6,-1,-1,-1,-1],"split_conditions":[4.6602635E0,4.475686E0,4.7814155E0,-6.388156E-4,-1.9005102E-3,5.426763E-3,-5.1921105E-4],"split_indices":[0,0,0,0,0,0,0],"split_type":[0,0,0,0,0,0,0],"sum_hessian":[1.36E3,1.32E3,4E1,1.296E3,2.4E1,5E0,3.5E1],"tree_param":{"num_deleted":"0","num_feature":"4","num_nodes":"7","size_leaf_vector":"0"}},{"base_weights":[-5.699722E-3,-5.787497E-3,2.5524713E-2,-5.8705853E-3,2.380554E-2,3.0769786E-2,4.8947483E-3],"categories":[],"categories_nodes":[],"categories_segments":[],"categories_sizes":[],"default_left":[1,1,1,0,0,0,0],"id":41,"left_children":[1,3,5,-1,-1,-1,-1],"loss_changes":[3.877841E-3,3.4788474E-3,2.822124E-4,0E0,0E0,0E0,0E0],"parents":[2147483647,0,0,1,1,2,2],"right_children":[2,4,6,-1,-1,-1,-1],"split_conditions":[6.206865E0,1.2477094E4,6.2924557E0,-5.8705854E-4,2.380554E-3,3.0769787E-3,4.8947486E-4],"split_indices":[0,1,0,0,0,0,0],"split_type":[0,0,0,0,0,0,0],"sum_hessian":[1.36E3,1.357E3,3E0,1.354E3,3E0,2E0,1E0],"tree_param":{"num_deleted":"0","num_feature":"4","num_nodes":"7","size_leaf_vector":"0"}},{"base_weights":[-5.1258104E-3,-5.568694E-3,1.0436268E-3,-5.299684E-3,-2.6321119E-2,-1.4205967E-3,4.4205237E-2],"categories":[],"categories_nodes":[],"categories_segments":[],"categories_sizes":[],"default_left":[1,1,1,0,0,0,0],"id":42,"left_children":[1,3,5,-1,-1,-1,-1],"loss_changes":[3.7245303E-3,6.950423E-3,9.847904E-3,0E0,0E0,0E0,0E0],"parents":[2147483647,0,0,1,1,2,2],"right_children":[2,4,6,-1,-1,-1,-1],"split_conditions":[4.362111E0,4.282302E0,4.276685E3,-5.299684E-4,-2.632112E-3,-1.4205968E-4,4.420524E-3],"split_indices":[0,0,2,0,0,0,0],"split_type":[0,0,0,0,0,0,0],"sum_hessian":[1.36E3,1.269E3,9.1E1,1.254E3,1.5E1,8.7E1,4E0],"tree_param":{"num_deleted":"0","num_feature":"4","num_nodes":"7","size_leaf_vector":"0"}},{"base_weights":[-4.6124095E-3,-6.1613317E-3,-2.9285427E-3,-6.4827986E-3,5.221284E-3,-3.1122353E-3,5.851136E-2],"categories":[],"categories_nodes":[],"categories_segments":[],"categories_sizes":[],"default_left":[1,1,1,0,0,0,0],"id":43,"left_children":[1,3,5,-1,-1,-1,-1],"loss_changes":[3.531687E-3,2.6245173E-3,7.563181E-3,0E0,0E0,0E0,0E0],"parents":[2147483647,0,0,1,1,2,2],"right_children":[2,4,6,-1,-1,-1,-1],"split_conditions":[3.0189004E0,6.3364746E3,1.2477094E4,-6.4827985E-4,5.221284E-4,-3.1122353E-4,5.851136E-3],"split_indices":[0,2,1,0,0,0,0],"split_type":[0,0,0,0,0,0,0],"sum_hessian":[1.36E3,7.07E2,6.53E2,6.88E2,1.9E1,6.52E2,1E0],"tree_param":{"num_deleted":"0","num_feature":"4","num_nodes":"7","size_leaf_vector":"0"}},{"base_weights":[-4.1471897E-3,-4.227644E-3,2.420383E-2,-4.111953E-3,-2.5968557E-2,2.9020667E-2,4.8766583E-3],"categories":[],"categories_nodes":[],"categories_segments":[],"categories_sizes":[],"default_left":[1,1,1,0,0,0,0],"id":44,"left_children":[1,3,5,-1,-1,-1,-1],"loss_changes":[3.2067131E-3,3.3088923E-3,2.308595E-4,0E0,0E0,0E0,0E0],"parents":[2147483647,0,0,1,1,2,2],"right_children":[2,4,6,-1,-1,-1,-1],"split_conditions":[6.206865E0,5.5397744E0,6.2924557E0,-4.111953E-4,-2.5968559E-3,2.9020668E-3,4.8766585E-4],"split_indices":[0,0,0,0,0,0,0],"split_type":[0,0,0,0,0,0,0],"sum_hessian":[1.36E3,1.357E3,3E0,1.351E3,6E0,2E0,1E0],"tree_param":{"num_deleted":"0","num_feature":"4","num_nodes":"7","size_leaf_vector":"0"}},{"base_weights":[-3.7321888E-3,-1.1204236E-2,-3.4149014E-3,-1.2890705E-2,-8.488768E-3,-3.5795812E-3,1.0096418E-2],"categories":[],"categories_nodes":[],"categories_segments":[],"categories_sizes":[],"default_left":[1,1,1,0,0,0,0],"id":45,"left_children":[1,3,5,-1,-1,-1,-1],"loss_changes":[3.188381E-3,1.4244905E-4,2.9442692E-3,0E0,0E0,0E0,0E0],"parents":[2147483647,0,0,1,1,2,2],"right_children":[2,4,6,-1,-1,-1,-1],"split_conditions":[1.3309274E0,1.0926061E0,5.1515145E0,-1.2890705E-3,-8.488768E-4,-3.579581E-4,1.0096418E-3],"split_indices":[0,0,0,0,0,0,0],"split_type":[0,0,0,0,0,0,0],"sum_hessian":[1.36E3,5.4E1,1.306E3,3.1E1,2.3E1,1.291E3,1.5E1],"tree_param":{"num_deleted":"0","num_feature":"4","num_nodes":"7","size_leaf_vector":"0"}},{"base_weights":[-3.3600635E-3,-3.874956E-3,8.541951E-4,-3.1594273E-3,-7.257895E-3,-1.0929733E-3,7.171229E-2],"categories":[],"categories_nodes":[],"categories_segments":[],"categories_sizes":[],"default_left":[1,1,1,0,0,0,0],"id":46,"left_children":[1,3,5,-1,-1,-1,-1],"loss_changes":[2.95653E-3,2.913244E-3,2.0636305E-2,0E0,0E0,0E0,0E0],"parents":[2147483647,0,0,1,1,2,2],"right_children":[2,4,6,-1,-1,-1,-1],"split_conditions":[4.0947046E0,2.1582346E3,4.701374E3,-3.1594274E-4,-7.257895E-4,-1.0929733E-4,7.1712295E-3],"split_indices":[0,3,1,0,0,0,0],"split_type":[0,0,0,0,0,0,0],"sum_hessian":[1.36E3,1.212E3,1.48E2,1.002E3,2.1E2,1.45E2,3E0],"tree_param":{"num_deleted":"0","num_feature":"4","num_nodes":"7","size_leaf_vector":"0"}},{"base_weights":[-3.019634E-3,-7.829204E-3,-2.6071689E-3,-1.0493447E-2,-5.8019E-3,-2.5236383E-3,-2.8100474E-2],"categories":[],"categories_nodes":[],"categories_segments":[],"categories_sizes":[],"default_left":[1,1,1,0,0,0,0],"id":47,"left_children":[1,3,5,-1,-1,-1,-1],"loss_changes":[2.679511E-3,5.170498E-4,2.6015723E-3,0E0,0E0,0E0,0E0],"parents":[2147483647,0,0,1,1,2,2],"right_children":[2,4,6,-1,-1,-1,-1],"split_conditions":[1.7286634E0,1.2302079E0,1.9058086E4,-1.0493448E-3,-5.8019E-4,-2.5236382E-4,-2.8100475E-3],"split_indices":[0,0,2,0,0,0,0],"split_type":[0,0,0,0,0,0,0],"sum_hessian":[1.36E3,1.06E2,1.254E3,4.4E1,6.2E1,1.251E3,3E0],"tree_param":{"num_deleted":"0","num_feature":"4","num_nodes":"7","size_leaf_vector":"0"}},{"base_weights":[-2.7211169E-3,-2.792356E-3,2.2144891E-2,-2.6789445E-3,-2.4298094E-2,2.6653966E-2,4.3088347E-3],"categories":[],"categories_nodes":[],"categories_segments":[],"categories_sizes":[],"default_left":[1,1,1,0,0,0,0],"id":48,"left_children":[1,3,5,-1,-1,-1,-1],"loss_changes":[2.472762E-3,3.2470701E-3,2.0684884E-4,0E0,0E0,0E0,0E0],"parents":[2147483647,0,0,1,1,2,2],"right_children":[2,4,6,-1,-1,-1,-1],"split_conditions":[6.206865E0,5.5397744E0,6.2924557E0,-2.6789444E-4,-2.4298094E-3,2.6653965E-3,4.3088346E-4],"split_indices":[0,0,0,0,0,0,0],"split_type":[0,0,0,0,0,0,0],"sum_hessian":[1.36E3,1.357E3,3E0,1.351E3,6E0,2E0,1E0],"tree_param":{"num_deleted":"0","num_feature":"4","num_nodes":"7","size_leaf_vector":"0"}},{"base_weights":[-2.4487134E-3,-2.5965427E-3,1.0140469E-2,-2.440386E-3,-3.7064813E-2,5.1352795E-2,-3.3202819E-3],"categories":[],"categories_nodes":[],"categories_segments":[],"categories_sizes":[],"default_left":[1,1,1,0,0,0,0],"id":49,"left_children":[1,3,5,-1,-1,-1,-1],"loss_changes":[2.5592195E-3,7.1543297E-3,9.0464875E-3,0E0,0E0,0E0,0E0],"parents":[2147483647,0,0,1,1,2,2],"right_children":[2,4,6,-1,-1,-1,-1],"split_conditions":[5.1515145E0,5.0255976E0,5.288624E0,-2.440386E-4,-3.7064813E-3,5.1352796E-3,-3.320282E-4],"split_indices":[0,0,0,0,0,0,0],"split_type":[0,0,0,0,0,0,0],"sum_hessian":[1.36E3,1.345E3,1.5E1,1.34E3,5E0,3E0,1.2E1],"tree_param":{"num_deleted":"0","num_feature":"4","num_nodes":"7","size_leaf_vector":"0"}}]},"name":"gbtree"},"learner_model_param":{"base_score":"5E-1","boost_from_average":"1","num_class":"0","num_feature":"4","num_target":"1"},"objective":{"name":"reg:squarederror","reg_loss_param":{"scale_pos_weight":"1"}}},"version":[1,7,6]}