{"learner":{"attributes":{"best_iteration":"49","best_ntree_limit":"50","scikit_learn":"{\"n_estimators\": 50, \"objective\": \"reg:squarederror\", \"max_depth\": 2, \"max_leaves\": null, \"max_bin\": null, \"grow_policy\": null, \"learning_rate\": 0.1, \"verbosity\": null, \"booster\": null, \"tree_method\": null, \"gamma\": null, \"min_child_weight\": null, \"max_delta_step\": null, \"subsample\": null, \"sampling_method\": null, \"colsample_bytree\": null, \"colsample_bylevel\": null, \"colsample_bynode\": null, \"reg_alpha\": null, \"reg_lambda\": null, \"scale_pos_weight\": null, \"base_score\": null, \"missing\": NaN, \"num_parallel_tree\": null, \"random_state\": null, \"n_jobs\": null, \"monotone_constraints\": null, \"interaction_constraints\": null, \"importance_type\": null, \"gpu_id\": null, \"validate_parameters\": null, \"predictor\": null, \"enable_categorical\": false, \"feature_types\": null, \"max_cat_to_onehot\": null, \"max_cat_threshold\": null, \"eval_metric\": null, \"early_stopping_rounds\": null, \"callbacks\": null, \"_estimator_type\": \"regressor\"}"},"feature_names":[],"feature_types":[],"gradient_booster":{"model":{"gbtree_model_param":{"num_parallel_tree":"1","num_trees":"50","size_leaf_vector":"0"},"tree_info":[0,0,0,0,0,0,0,0,0,0,0,0,0,0,0,0,0,0,0,0,0,0,0,0,0,0,0,0,0,0,0,0,0,0,0,0,0,0,0,0,0,0,0,0,0,0,0,0,0,0],"trees":[{"base_weights":[-4.161107E-1,-4.3546858E-1,-3.499045E-1,-4.597128E-1,-4.1880935E-1,-3.5453165E-1,-5.4060668E-2],"categories":[],"categories_nodes":[],"categories_segments":[],"categories_sizes":[],"default_left":[1,1,1,0,0,0,0],"id":0,"left_children":[1,3,5,-1,-1,-1,-1],"loss_changes":[1.5918884E0,2.311554E-1,4.0930557E-1,0E0,0E0,0E0,0E0],"parents":[2147483647,0,0,1,1,2,2],"right_children":[2,4,6,-1,-1,-1,-1],"split_conditions":[3.6215043E0,2.5583396E0,6.057186E0,-4.597128E-2,-4.1880935E-2,-3.5453167E-2,-5.406067E-3],"split_indices":[0,0,0,0,0,0,0],"split_type":[0,0,0,0,0,0,0],"sum_hessian":[1.36E3,1.048E3,3.12E2,4.16E2,6.32E2,3.07E2,5E0],"tree_param":{"num_deleted":"0","num_feature":"4","num_nodes":"7","size_leaf_vector":"0"}},{"base_weights":[-3.745942E-1,-3.9200547E-1,-3.150446E-1,-4.1558468E-1,-3.7804714E-1,-3.191936E-1,-4.95556E-2],"categories":[],"categories_nodes":[],"categories_segments":[],"categories_sizes":[],"default_left":[1,1,1,0,0,0,0],"id":1,"left_children":[1,3,5,-1,-1,-1,-1],"loss_changes":[1.2876282E0,1.8814087E-1,3.289547E-1,0E0,0E0,0E0,0E0],"parents":[2147483647,0,0,1,1,2,2],"right_children":[2,4,6,-1,-1,-1,-1],"split_conditions":[3.6215043E0,2.5171747E0,6.057186E0,-4.155847E-2,-3.7804715E-2,-3.191936E-2,-4.95556E-3],"split_indices":[0,0,0,0,0,0,0],"split_type":[0,0,0,0,0,0,0],"sum_hessian":[1.36E3,1.048E3,3.12E2,3.79E2,6.69E2,3.07E2,5E0],"tree_param":{"num_deleted":"0","num_feature":"4","num_nodes":"7","size_leaf_vector":"0"}},{"base_weights":[-3.372202E-1,-3.5762212E-1,-2.9512292E-1,-3.8347042E-1,-3.4880018E-1,-3.0389422E-1,-2.0021154E-1],"categories":[],"categories_nodes":[],"categories_segments":[],"categories_sizes":[],"default_left":[1,1,1,0,0,0,0],"id":2,"left_children":[1,3,5,-1,-1,-1,-1],"loss_changes":[1.0633698E0,7.420349E-2,3.1377792E-1,0E0,0E0,0E0,0E0],"parents":[2147483647,0,0,1,1,2,2],"right_children":[2,4,6,-1,-1,-1,-1],"split_conditions":[3.3166223E0,2.1857324E0,4.6602635E0,-3.8347043E-2,-3.488002E-2,-3.0389423E-2,-2.0021154E-2],"split_indices":[0,0,0,0,0,0,0],"split_type":[0,0,0,0,0,0,0],"sum_hessian":[1.36E3,9.11E2,4.49E2,2.21E2,6.9E2,4.09E2,4E1],"tree_param":{"num_deleted":"0","num_feature":"4","num_nodes":"7","size_leaf_vector":"0"}},{"base_weights":[-3.0358902E-1,-3.1550944E-1,-2.4328582E-1,-3.2830364E-1,-2.9358667E-1,-2.4794644E-1,-2.8741682E-2],"categories":[],"categories_nodes":[],"categories_segments":[],"categories_sizes":[],"default_left":[1,1,1,0,0,0,0],"id":3,"left_children":[1,3,5,-1,-1,-1,-1],"loss_changes":[9.015808E-1,2.213974E-1,2.218523E-1,0E0,0E0,0E0,0E0],"parents":[2147483647,0,0,1,1,2,2],"right_children":[2,4,6,-1,-1,-1,-1],"split_conditions":[3.8392067E0,3.018133E0,6.057186E0,-3.2830365E-2,-2.9358668E-2,-2.4794644E-2,-2.8741683E-3],"split_indices":[0,0,0,0,0,0,0],"split_type":[0,0,0,0,0,0,0],"sum_hessian":[1.36E3,1.132E3,2.28E2,7.06E2,4.26E2,2.23E2,5E0],"tree_param":{"num_deleted":"0","num_feature":"4","num_nodes":"7","size_leaf_vector":"0"}},{"base_weights":[-2.7329615E-1,-2.8407192E-1,-2.1935378E-1,-2.9551974E-1,-2.643597E-1,-2.2350727E-1,-2.6346544E-2],"categories":[],"categories_nodes":[],"categories_segments":[],"categories_sizes":[],"default_left":[1,1,1,0,0,0,0],"id":4,"left_children":[1,3,5,-1,-1,-1,-1],"loss_changes":[7.287979E-1,1.7710114E-1,1.7929363E-1,0E0,0E0,0E0,0E0],"parents":[2147483647,0,0,1,1,2,2],"right_children":[2,4,6,-1,-1,-1,-1],"split_conditions":[3.8369255E0,3.018133E0,6.057186E0,-2.9551974E-2,-2.6435971E-2,-2.2350727E-2,-2.6346545E-3],"split_indices":[0,0,0,0,0,0,0],"split_type":[0,0,0,0,0,0,0],"sum_hessian":[1.36E3,1.13E3,2.3E2,7.06E2,4.24E2,2.25E2,5E0],"tree_param":{"num_deleted":"0","num_feature":"4","num_nodes":"7","size_leaf_vector":"0"}},{"base_weights":[-2.4602602E-1,-2.5566632E-1,-1.9725543E-1,-2.7385947E-1,-2.4472876E-1,-2.0141202E-1,-3.6659002E-2],"categories":[],"categories_nodes":[],"categories_segments":[],"categories_sizes":[],"default_left":[1,1,1,0,0,0,0],"id":5,"left_children":[1,3,5,-1,-1,-1,-1],"loss_changes":[5.894623E-1,1.58432E-1,1.4548111E-1,0E0,0E0,0E0,0E0],"parents":[2147483647,0,0,1,1,2,2],"right_children":[2,4,6,-1,-1,-1,-1],"split_conditions":[3.8392067E0,2.5583396E0,6.013875E0,-2.7385948E-2,-2.4472876E-2,-2.0141203E-2,-3.6659003E-3],"split_indices":[0,0,0,0,0,0,0],"split_type":[0,0,0,0,0,0,0],"sum_hessian":[1.36E3,1.132E3,2.28E2,4.16E2,7.16E2,2.22E2,6E0],"tree_param":{"num_deleted":"0","num_feature":"4","num_nodes":"7","size_leaf_vector":"0"}},{"base_weights":[-2.2147901E-1,-2.369831E-1,-1.9571027E-1,-2.6060584E-1,-2.3064761E-1,-2.0570558E-1,-1.4792836E-1],"categories":[],"categories_nodes":[],"categories_segments":[],"categories_sizes":[],"default_left":[1,1,1,0,0,0,0],"id":6,"left_children":[1,3,5,-1,-1,-1,-1],"loss_changes":[4.9736786E-1,6.6352844E-2,2.1648788E-1,0E0,0E0,0E0,0E0],"parents":[2147483647,0,0,1,1,2,2],"right_children":[2,4,6,-1,-1,-1,-1],"split_conditions":[3.22831E0,2.0007892E0,4.3580112E0,-2.6060585E-2,-2.306476E-2,-2.057056E-2,-1.4792836E-2],"split_indices":[0,0,0,0,0,0,0],"split_type":[0,0,0,0,0,0,0],"sum_hessian":[1.36E3,8.44E2,5.16E2,1.7E2,6.74E2,4.24E2,9.2E1],"tree_param":{"num_deleted":"0","num_feature":"4","num_nodes":"7","size_leaf_vector":"0"}},{"base_weights":[-1.993932E-1,-2.1044444E-1,-1.6999038E-1,-2.3469765E-1,-2.0509751E-1,-1.7701687E-1,-1.080899E-1],"categories":[],"categories_nodes":[],"categories_segments":[],"categories_sizes":[],"default_left":[1,1,1,0,0,0,0],"id":7,"left_children":[1,3,5,-1,-1,-1,-1],"loss_changes":[4.0646744E-1,7.959747E-2,1.4484024E-1,0E0,0E0,0E0,0E0],"parents":[2147483647,0,0,1,1,2,2],"right_children":[2,4,6,-1,-1,-1,-1],"split_conditions":[3.4726806E0,2.0007892E0,4.6602635E0,-2.3469767E-2,-2.0509752E-2,-1.7701687E-2,-1.080899E-2],"split_indices":[0,0,0,0,0,0,0],"split_type":[0,0,0,0,0,0,0],"sum_hessian":[1.36E3,9.84E2,3.76E2,1.7E2,8.14E2,3.36E2,4E1],"tree_param":{"num_deleted":"0","num_feature":"4","num_nodes":"7","size_leaf_vector":"0"}},{"base_weights":[-1.7950714E-1,-1.9237094E-1,-1.5846291E-1,-2.1171576E-1,-1.8729235E-1,-1.6662963E-1,-1.1848116E-1],"categories":[],"categories_nodes":[],"categories_segments":[],"categories_sizes":[],"default_left":[1,1,1,0,0,0,0],"id":8,"left_children":[1,3,5,-1,-1,-1,-1],"loss_changes":[3.3795166E-1,4.2871475E-2,1.5069962E-1,0E0,0E0,0E0,0E0],"parents":[2147483647,0,0,1,1,2,2],"right_children":[2,4,6,-1,-1,-1,-1],"split_conditions":[3.223476E0,1.9923561E0,4.362111E0,-2.1171575E-2,-1.8729236E-2,-1.6662963E-2,-1.1848116E-2],"split_indices":[0,0,0,0,0,0,0],"split_type":[0,0,0,0,0,0,0],"sum_hessian":[1.36E3,8.39E2,5.21E2,1.66E2,6.73E2,4.3E2,9.1E1],"tree_param":{"num_deleted":"0","num_feature":"4","num_nodes":"7","size_leaf_vector":"0"}},{"base_weights":[-1.616067E-1,-1.6818039E-1,-1.2837699E-1,-1.786726E-1,-1.5876113E-1,-1.308988E-1,4.6199076E-2],"categories":[],"categories_nodes":[],"categories_segments":[],"categories_sizes":[],"default_left":[1,1,1,0,0,0,0],"id":9,"left_children":[1,3,5,-1,-1,-1,-1],"loss_changes":[2.7570724E-1,8.3610535E-2,1.06863976E-1,0E0,0E0,0E0,0E0],"parents":[2147483647,0,0,1,1,2,2],"right_children":[2,4,6,-1,-1,-1,-1],"split_conditions":[3.8392067E0,2.7251549E0,6.206865E0,-1.786726E-2,-1.5876113E-2,-1.308988E-2,4.6199076E-3],"split_indices":[0,0,0,0,0,0,0],"split_type":[0,0,0,0,0,0,0],"sum_hessian":[1.36E3,1.132E3,2.28E2,5.27E2,6.05E2,2.25E2,3E0],"tree_param":{"num_deleted":"0","num_feature":"4","num_nodes":"7","size_leaf_vector":"0"}},{"base_weights":[-1.4547704E-1,-1.4909117E-1,-9.459748E-2,-1.582982E-1,-1.3726442E-1,-9.9650025E-2,4.2734154E-2],"categories":[],"categories_nodes":[],"categories_segments":[],"categories_sizes":[],"default_left":[1,1,1,0,0,0,0],"id":10,"left_children":[1,3,5,-1,-1,-1,-1],"loss_changes":[2.361641E-1,1.1645126E-1,6.878877E-2,0E0,0E0,0E0,0E0],"parents":[2147483647,0,0,1,1,2,2],"right_children":[2,4,6,-1,-1,-1,-1],"split_conditions":[4.3580112E0,3.018133E0,6.206865E0,-1.582982E-2,-1.3726442E-2,-9.965003E-3,4.2734155E-3],"split_indices":[0,0,0,0,0,0,0],"split_type":[0,0,0,0,0,0,0],"sum_hessian":[1.36E3,1.268E3,9.2E1,7.06E2,5.62E2,8.9E1,3E0],"tree_param":{"num_deleted":"0","num_feature":"4","num_nodes":"7","size_leaf_vector":"0"}},{"base_weights":[-1.3095523E-1,-1.3420534E-1,-8.519894E-2,-1.4249076E-1,-1.2356235E-1,-8.9795746E-2,3.9529093E-2],"categories":[],"categories_nodes":[],"categories_segments":[],"categories_sizes":[],"default_left":[1,1,1,0,0,0,0],"id":11,"left_children":[1,3,5,-1,-1,-1,-1],"loss_changes":[1.9096375E-1,9.42955E-2,5.6871235E-2,0E0,0E0,0E0,0E0],"parents":[2147483647,0,0,1,1,2,2],"right_children":[2,4,6,-1,-1,-1,-1],"split_conditions":[4.3580112E0,3.018133E0,6.206865E0,-1.4249076E-2,-1.2356236E-2,-8.979575E-3,3.9529093E-3],"split_indices":[0,0,0,0,0,0,0],"split_type":[0,0,0,0,0,0,0],"sum_hessian":[1.36E3,1.268E3,9.2E1,7.06E2,5.62E2,8.9E1,3E0],"tree_param":{"num_deleted":"0","num_feature":"4","num_nodes":"7","size_leaf_vector":"0"}},{"base_weights":[-1.1788295E-1,-1.2397335E-1,-9.709476E-2,-1.4631563E-1,-1.2073714E-1,-9.914757E-2,6.806684E-3],"categories":[],"categories_nodes":[],"categories_segments":[],"categories_sizes":[],"default_left":[1,1,1,0,0,0,0],"id":12,"left_children":[1,3,5,-1,-1,-1,-1],"loss_changes":[1.6027641E-1,5.8179855E-2,6.743479E-2,0E0,0E0,0E0,0E0],"parents":[2147483647,0,0,1,1,2,2],"right_children":[2,4,6,-1,-1,-1,-1],"split_conditions":[3.6215043E0,1.8664817E0,6.013875E0,-1.4631564E-2,-1.2073714E-2,-9.914758E-3,6.8066845E-4],"split_indices":[0,0,0,0,0,0,0],"split_type":[0,0,0,0,0,0,0],"sum_hessian":[1.36E3,1.048E3,3.12E2,1.27E2,9.21E2,3.06E2,6E0],"tree_param":{"num_deleted":"0","num_feature":"4","num_nodes":"7","size_leaf_vector":"0"}},{"base_weights":[-1.0612107E-1,-1.08859874E-1,-6.7608505E-2,-1.2416968E-1,-1.0433975E-1,-9.143403E-2,-4.7064655E-2],"categories":[],"categories_nodes":[],"categories_segments":[],"categories_sizes":[],"default_left":[1,1,1,0,0,0,0],"id":13,"left_children":[1,3,5,-1,-1,-1,-1],"loss_changes":[1.3619709E-1,7.486153E-2,4.1217208E-2,0E0,0E0,0E0,0E0],"parents":[2147483647,0,0,1,1,2,2],"right_children":[2,4,6,-1,-1,-1,-1],"split_conditions":[4.3580112E0,2.356911E0,1.1153356E1,-1.2416968E-2,-1.0433975E-2,-9.143404E-3,-4.7064656E-3],"split_indices":[0,0,2,0,0,0,0],"split_type":[0,0,0,0,0,0,0],"sum_hessian":[1.36E3,1.268E3,9.2E1,2.83E2,9.85E2,4.1E1,5.1E1],"tree_param":{"num_deleted":"0","num_feature":"4","num_nodes":"7","size_leaf_vector":"0"}},{"base_weights":[-9.553593E-2,-1.0312887E-1,-8.3134376E-2,-1.2110922E-1,-1.00224994E-1,-8.6336486E-2,-4.3462414E-2],"categories":[],"categories_nodes":[],"categories_segments":[],"categories_sizes":[],"default_left":[1,1,1,0,0,0,0],"id":14,"left_children":[1,3,5,-1,-1,-1,-1],"loss_changes":[1.1958504E-1,3.1721115E-2,6.2559366E-2,0E0,0E0,0E0,0E0],"parents":[2147483647,0,0,1,1,2,2],"right_children":[2,4,6,-1,-1,-1,-1],"split_conditions":[3.223476E0,1.7638141E0,4.6602635E0,-1.2110922E-2,-1.00225E-2,-8.633649E-3,-4.3462417E-3],"split_indices":[0,0,0,0,0,0,0],"split_type":[0,0,0,0,0,0,0],"sum_hessian":[1.36E3,8.39E2,5.21E2,1.11E2,7.28E2,4.81E2,4E1],"tree_param":{"num_deleted":"0","num_feature":"4","num_nodes":"7","size_leaf_vector":"0"}},{"base_weights":[-8.600813E-2,-9.212092E-2,-7.342842E-2,-1.09587274E-1,-8.968789E-2,-7.454124E-2,2.1343961E-2],"categories":[],"categories_nodes":[],"categories_segments":[],"categories_sizes":[],"default_left":[1,1,1,0,0,0,0],"id":15,"left_children":[1,3,5,-1,-1,-1,-1],"loss_changes":[9.789276E-2,2.892828E-2,4.9050093E-2,0E0,0E0,0E0,0E0],"parents":[2147483647,0,0,1,1,2,2],"right_children":[2,4,6,-1,-1,-1,-1],"split_conditions":[3.3166223E0,1.7286634E0,6.057186E0,-1.0958727E-2,-8.968789E-3,-7.4541243E-3,2.1343962E-3],"split_indices":[0,0,0,0,0,0,0],"split_type":[0,0,0,0,0,0,0],"sum_hessian":[1.36E3,9.11E2,4.49E2,1.06E2,8.05E2,4.44E2,5E0],"tree_param":{"num_deleted":"0","num_feature":"4","num_nodes":"7","size_leaf_vector":"0"}},{"base_weights":[-7.7425875E-2,-8.099013E-2,-5.9070393E-2,-9.240979E-2,-7.778276E-2,-6.061175E-2,4.1242667E-2],"categories":[],"categories_nodes":[],"categories_segments":[],"categories_sizes":[],"default_left":[1,1,1,0,0,0,0],"id":16,"left_children":[1,3,5,-1,-1,-1,-1],"loss_changes":[8.4257126E-2,3.445673E-2,3.7288904E-2,0E0,0E0,0E0,0E0],"parents":[2147483647,0,0,1,1,2,2],"right_children":[2,4,6,-1,-1,-1,-1],"split_conditions":[3.86021E0,2.2501755E0,6.206865E0,-9.240979E-3,-7.7782758E-3,-6.0611754E-3,4.1242666E-3],"split_indices":[0,0,0,0,0,0,0],"split_type":[0,0,0,0,0,0,0],"sum_hessian":[1.36E3,1.136E3,2.24E2,2.43E2,8.93E2,2.21E2,3E0],"tree_param":{"num_deleted":"0","num_feature":"4","num_nodes":"7","size_leaf_vector":"0"}},{"base_weights":[-6.9697216E-2,-7.167776E-2,-4.1599546E-2,-7.984246E-2,-6.746211E-2,-6.26221E-2,-2.3471175E-2],"categories":[],"categories_nodes":[],"categories_segments":[],"categories_sizes":[],"default_left":[1,1,1,0,0,0,0],"id":17,"left_children":[1,3,5,-1,-1,-1,-1],"loss_changes":[7.275581E-2,3.832674E-2,3.3591807E-2,0E0,0E0,0E0,0E0],"parents":[2147483647,0,0,1,1,2,2],"right_children":[2,4,6,-1,-1,-1,-1],"split_conditions":[4.362111E0,2.5836763E0,1.1153356E1,-7.984246E-3,-6.746211E-3,-6.26221E-3,-2.3471175E-3],"split_indices":[0,0,2,0,0,0,0],"split_type":[0,0,0,0,0,0,0],"sum_hessian":[1.36E3,1.269E3,9.1E1,4.26E2,8.43E2,4.1E1,5E1],"tree_param":{"num_deleted":"0","num_feature":"4","num_nodes":"7","size_leaf_vector":"0"}},{"base_weights":[-6.274464E-2,-6.889554E-2,-5.517152E-2,-8.166672E-2,-6.665621E-2,-5.729553E-2,-2.4037909E-2],"categories":[],"categories_nodes":[],"categories_segments":[],"categories_sizes":[],"default_left":[1,1,1,0,0,0,0],"id":18,"left_children":[1,3,5,-1,-1,-1,-1],"loss_changes":[5.959654E-2,1.5919924E-2,3.929162E-2,0E0,0E0,0E0,0E0],"parents":[2147483647,0,0,1,1,2,2],"right_children":[2,4,6,-1,-1,-1,-1],"split_conditions":[3.0708306E0,1.7286634E0,4.6602635E0,-8.166673E-3,-6.665621E-3,-5.7295533E-3,-2.4037908E-3],"split_indices":[0,0,0,0,0,0,0],"split_type":[0,0,0,0,0,0,0],"sum_hessian":[1.36E3,7.46E2,6.14E2,1.06E2,6.4E2,5.74E2,4E1],"tree_param":{"num_deleted":"0","num_feature":"4","num_nodes":"7","size_leaf_vector":"0"}},{"base_weights":[-5.648705E-2,-5.854067E-2,-3.771206E-2,-6.6433646E-2,-5.5616613E-2,-3.9989773E-2,4.801925E-2],"categories":[],"categories_nodes":[],"categories_segments":[],"categories_sizes":[],"default_left":[1,1,1,0,0,0,0],"id":19,"left_children":[1,3,5,-1,-1,-1,-1],"loss_changes":[5.0268173E-2,2.4577618E-2,2.8672427E-2,0E0,0E0,0E0,0E0],"parents":[2147483647,0,0,1,1,2,2],"right_children":[2,4,6,-1,-1,-1,-1],"split_conditions":[4.128564E0,2.4363794E0,4.701374E1,-6.6433647E-3,-5.5616614E-3,-3.9989776E-3,4.801925E-3],"split_indices":[0,0,1,0,0,0,0],"split_type":[0,0,0,0,0,0,0],"sum_hessian":[1.36E3,1.224E3,1.36E2,3.25E2,8.99E2,1.33E2,3E0],"tree_param":{"num_deleted":"0","num_feature":"4","num_nodes":"7","size_leaf_vector":"0"}},{"base_weights":[-5.084672E-2,-5.1861245E-2,-1.8544218E-2,-5.6118626E-2,-4.6489418E-2,-4.6736363E-2,8.002709E-3],"categories":[],"categories_nodes":[],"categories_segments":[],"categories_sizes":[],"default_left":[1,1,1,0,0,0,0],"id":20,"left_children":[1,3,5,-1,-1,-1,-1],"loss_changes":[4.3640375E-2,2.7556658E-2,3.2555856E-2,0E0,0E0,0E0,0E0],"parents":[2147483647,0,0,1,1,2,2],"right_children":[2,4,6,-1,-1,-1,-1],"split_conditions":[4.6260967E0,3.0577044E0,1.2160139E1,-5.6118625E-3,-4.648942E-3,-4.6736365E-3,8.002709E-4],"split_indices":[0,0,2,0,0,0,0],"split_type":[0,0,0,0,0,0,0],"sum_hessian":[1.36E3,1.318E3,4.2E1,7.3E2,5.88E2,2E1,2.2E1],"tree_param":{"num_deleted":"0","num_feature":"4","num_nodes":"7","size_leaf_vector":"0"}},{"base_weights":[-4.5772437E-2,-4.910823E-2,-3.737134E-2,-6.655685E-2,-4.7926873E-2,-3.8115054E-2,4.411167E-2],"categories":[],"categories_nodes":[],"categories_segments":[],"categories_sizes":[],"default_left":[1,1,1,0,0,0,0],"id":21,"left_children":[1,3,5,-1,-1,-1,-1],"loss_changes":[3.6305666E-2,1.6825438E-2,2.5375903E-2,0E0,0E0,0E0,0E0],"parents":[2147483647,0,0,1,1,2,2],"right_children":[2,4,6,-1,-1,-1,-1],"split_conditions":[3.434963E0,1.3621168E0,6.206865E0,-6.655685E-3,-4.7926875E-3,-3.8115054E-3,4.411167E-3],"split_indices":[0,0,0,0,0,0,0],"split_type":[0,0,0,0,0,0,0],"sum_hessian":[1.36E3,9.7E2,3.9E2,5.8E1,9.12E2,3.87E2,3E0],"tree_param":{"num_deleted":"0","num_feature":"4","num_nodes":"7","size_leaf_vector":"0"}},{"base_weights":[-4.120316E-2,-4.2493485E-2,-2.2284186E-2,-5.2900534E-2,-4.0885113E-2,-5.2090045E-2,-1.1719724E-2],"categories":[],"categories_nodes":[],"categories_segments":[],"categories_sizes":[],"default_left":[1,1,1,0,0,0,0],"id":22,"left_children":[1,3,5,-1,-1,-1,-1],"loss_changes":[3.2277346E-2,1.914525E-2,2.7414095E-2,0E0,0E0,0E0,0E0],"parents":[2147483647,0,0,1,1,2,2],"right_children":[2,4,6,-1,-1,-1,-1],"split_conditions":[4.3722305E0,1.9923561E0,7.61106E0,-5.2900533E-3,-4.088511E-3,-5.2090045E-3,-1.1719725E-3],"split_indices":[0,0,1,0,0,0,0],"split_type":[0,0,0,0,0,0,0],"sum_hessian":[1.36E3,1.272E3,8.8E1,1.66E2,1.106E3,2.2E1,6.6E1],"tree_param":{"num_deleted":"0","num_feature":"4","num_nodes":"7","size_leaf_vector":"0"}},{"base_weights":[-3.7094425E-2,-3.75742E-2,5.585408E-3,-4.168024E-2,-3.3598375E-2,-3.5897825E-2,3.406513E-2],"categories":[],"categories_nodes":[],"categories_segments":[],"categories_sizes":[],"default_left":[1,1,1,0,0,0,0],"id":23,"left_children":[1,3,5,-1,-1,-1,-1],"loss_changes":[2.8079033E-2,2.0572782E-2,2.012576E-2,0E0,0E0,0E0,0E0],"parents":[2147483647,0,0,1,1,2,2],"right_children":[2,4,6,-1,-1,-1,-1],"split_conditions":[5.1515145E0,2.94348E0,7.286509E0,-4.168024E-3,-3.3598375E-3,-3.5897826E-3,3.4065132E-3],"split_indices":[0,0,2,0,0,0,0],"split_type":[0,0,0,0,0,0,0],"sum_hessian":[1.36E3,1.345E3,1.5E1,6.57E2,6.88E2,6E0,9E0],"tree_param":{"num_deleted":"0","num_feature":"4","num_nodes":"7","size_leaf_vector":"0"}},{"base_weights":[-3.3390645E-2,-3.52698E-2,-2.3746252E-2,-5.07162E-2,-3.43925E-2,-4.6872012E-2,-1.9239549E-2],"categories":[],"categories_nodes":[],"categories_segments":[],"categories_sizes":[],"default_left":[1,1,1,0,0,0,0],"id":24,"left_children":[1,3,5,-1,-1,-1,-1],"loss_changes":[2.3828268E-2,1.3663292E-2,2.2547916E-2,0E0,0E0,0E0,0E0],"parents":[2147483647,0,0,1,1,2,2],"right_children":[2,4,6,-1,-1,-1,-1],"split_conditions":[3.86021E0,1.3621168E0,7.1963024E0,-5.07162E-3,-3.43925E-3,-4.687201E-3,-1.9239549E-3],"split_indices":[0,0,1,0,0,0,0],"split_type":[0,0,0,0,0,0,0],"sum_hessian":[1.36E3,1.136E3,2.24E2,5.8E1,1.078E3,3.5E1,1.89E2],"tree_param":{"num_deleted":"0","num_feature":"4","num_nodes":"7","size_leaf_vector":"0"}},{"base_weights":[-3.0062694E-2,-3.0775188E-2,-7.508275E-3,-4.1282844E-2,-2.9679436E-2,-3.0304441E-2,1.3632063E-2],"categories":[],"categories_nodes":[],"categories_segments":[],"categories_sizes":[],"default_left":[1,1,1,0,0,0,0],"id":25,"left_children":[1,3,5,-1,-1,-1,-1],"loss_changes":[2.1640062E-2,1.3961434E-2,2.1135613E-2,0E0,0E0,0E0,0E0],"parents":[2147483647,0,0,1,1,2,2],"right_children":[2,4,6,-1,-1,-1,-1],"split_conditions":[4.6260967E0,1.8292025E0,1.2160139E1,-4.1282843E-3,-2.9679437E-3,-3.0304443E-3,1.3632063E-3],"split_indices":[0,0,2,0,0,0,0],"split_type":[0,0,0,0,0,0,0],"sum_hessian":[1.36E3,1.318E3,4.2E1,1.21E2,1.197E3,2E1,2.2E1],"tree_param":{"num_deleted":"0","num_feature":"4","num_nodes":"7","size_leaf_vector":"0"}},{"base_weights":[-2.7062863E-2,-2.7457278E-2,7.8087314E-3,-3.0962184E-2,-2.4403391E-2,-2.7784742E-2,3.194329E-2],"categories":[],"categories_nodes":[],"categories_segments":[],"categories_sizes":[],"default_left":[1,1,1,0,0,0,0],"id":26,"left_children":[1,3,5,-1,-1,-1,-1],"loss_changes":[1.8933475E-2,1.3651371E-2,1.463206E-2,0E0,0E0,0E0,0E0],"parents":[2147483647,0,0,1,1,2,2],"right_children":[2,4,6,-1,-1,-1,-1],"split_conditions":[5.1515145E0,2.8863575E0,7.286509E0,-3.0962185E-3,-2.4403392E-3,-2.7784742E-3,3.194329E-3],"split_indices":[0,0,2,0,0,0,0],"split_type":[0,0,0,0,0,0,0],"sum_hessian":[1.36E3,1.345E3,1.5E1,6.22E2,7.23E2,6E0,9E0],"tree_param":{"num_deleted":"0","num_feature":"4","num_nodes":"7","size_leaf_vector":"0"}},{"base_weights":[-2.4360342E-2,-2.526081E-2,-1.1206892E-2,-3.862848E-2,-2.4590889E-2,-3.4381665E-2,-3.084107E-3],"categories":[],"categories_nodes":[],"categories_segments":[],"categories_sizes":[],"default_left":[1,1,1,0,0,0,0],"id":27,"left_children":[1,3,5,-1,-1,-1,-1],"loss_changes":[1.5836954E-2,1.0450184E-2,1.6647652E-2,0E0,0E0,0E0,0E0],"parents":[2147483647,0,0,1,1,2,2],"right_children":[2,4,6,-1,-1,-1,-1],"split_conditions":[4.3722305E0,1.3621168E0,7.61106E0,-3.8628483E-3,-2.459089E-3,-3.4381666E-3,-3.084107E-4],"split_indices":[0,0,1,0,0,0,0],"split_type":[0,0,0,0,0,0,0],"sum_hessian":[1.36E3,1.272E3,8.8E1,5.8E1,1.214E3,2.2E1,6.6E1],"tree_param":{"num_deleted":"0","num_feature":"4","num_nodes":"7","size_leaf_vector":"0"}},{"base_weights":[-2.1931706E-2,-2.4477934E-2,-1.7727654E-2,-3.614919E-2,-2.374523E-2,-1.8006722E-2,6.313525E-2],"categories":[],"categories_nodes":[],"categories_segments":[],"categories_sizes":[],"default_left":[1,1,1,0,0,0,0],"id":28,"left_children":[1,3,5,-1,-1,-1,-1],"loss_changes":[1.4134824E-2,6.367743E-3,1.2803525E-2,0E0,0E0,0E0,0E0],"parents":[2147483647,0,0,1,1,2,2],"right_children":[2,4,6,-1,-1,-1,-1],"split_conditions":[3.22831E0,1.2577431E0,1.24770935E2,-3.614919E-3,-2.374523E-3,-1.8006722E-3,6.313525E-3],"split_indices":[0,0,1,0,0,0,0],"split_type":[0,0,0,0,0,0,0],"sum_hessian":[1.36E3,8.44E2,5.16E2,4.7E1,7.97E2,5.15E2,1E0],"tree_param":{"num_deleted":"0","num_feature":"4","num_nodes":"7","size_leaf_vector":"0"}},{"base_weights":[-1.973962E-2,-2.0073932E-2,9.617949E-3,-2.4541492E-2,-1.8436458E-2,-2.225409E-2,3.0966582E-2],"categories":[],"categories_nodes":[],"categories_segments":[],"categories_sizes":[],"default_left":[1,1,1,0,0,0,0],"id":29,"left_children":[1,3,5,-1,-1,-1,-1],"loss_changes":[1.3550699E-2,9.394228E-3,1.1575924E-2,0E0,0E0,0E0,0E0],"parents":[2147483647,0,0,1,1,2,2],"right_children":[2,4,6,-1,-1,-1,-1],"split_conditions":[5.1515145E0,2.4816303E0,7.286509E0,-2.4541493E-3,-1.8436458E-3,-2.225409E-3,3.0966583E-3],"split_indices":[0,0,2,0,0,0,0],"split_type":[0,0,0,0,0,0,0],"sum_hessian":[1.36E3,1.345E3,1.5E1,3.57E2,9.88E2,6E0,9E0],"tree_param":{"num_deleted":"0","num_feature":"4","num_nodes":"7","size_leaf_vector":"0"}},{"base_weights":[-1.7768176E-2,-1.7914679E-2,3.6411516E-2,-1.951169E-2,-1.3660747E-2,4.4902235E-2,5.46968E-3],"categories":[],"categories_nodes":[],"categories_segments":[],"categories_sizes":[],"default_left":[1,1,1,0,0,0,0],"id":30,"left_children":[1,3,5,-1,-1,-1,-1],"loss_changes":[1.1455208E-2,8.959115E-3,8.052727E-4,0E0,0E0,0E0,0E0],"parents":[2147483647,0,0,1,1,2,2],"right_children":[2,4,6,-1,-1,-1,-1],"split_conditions":[6.206865E0,3.4726806E0,6.2924557E0,-1.9511691E-3,-1.3660747E-3,4.4902237E-3,5.46968E-4],"split_indices":[0,0,0,0,0,0,0],"split_type":[0,0,0,0,0,0,0],"sum_hessian":[1.36E3,1.357E3,3E0,9.84E2,3.73E2,2E0,1E0],"tree_param":{"num_deleted":"0","num_feature":"4","num_nodes":"7","size_leaf_vector":"0"}},{"base_weights":[-1.5990097E-2,-1.6276937E-2,9.1397E-3,-2.198337E-2,-1.5244224E-2,-1.917567E-2,2.8046489E-2],"categories":[],"categories_nodes":[],"categories_segments":[],"categories_sizes":[],"default_left":[1,1,1,0,0,0,0],"id":31,"left_children":[1,3,5,-1,-1,-1,-1],"loss_changes":[9.959161E-3,7.5969994E-3,9.103454E-3,0E0,0E0,0E0,0E0],"parents":[2147483647,0,0,1,1,2,2],"right_children":[2,4,6,-1,-1,-1,-1],"split_conditions":[5.1515145E0,2.1384263E0,7.286509E0,-2.198337E-3,-1.5244224E-3,-1.917567E-3,2.8046488E-3],"split_indices":[0,0,2,0,0,0,0],"split_type":[0,0,0,0,0,0,0],"sum_hessian":[1.36E3,1.345E3,1.5E1,2.03E2,1.142E3,6E0,9E0],"tree_param":{"num_deleted":"0","num_feature":"4","num_nodes":"7","size_leaf_vector":"0"}},{"base_weights":[-1.43931685E-2,-1.5070135E-2,-5.0010877E-3,-1.4882703E-2,-4.673518E-2,-1.7625544E-2,5.2917637E-3],"categories":[],"categories_nodes":[],"categories_segments":[],"categories_sizes":[],"default_left":[1,1,1,0,0,0,0],"id":32,"left_children":[1,3,5,-1,-1,-1,-1],"loss_changes":[8.578032E-3,6.835997E-3,1.2177844E-2,0E0,0E0,0E0,0E0],"parents":[2147483647,0,0,1,1,2,2],"right_children":[2,4,6,-1,-1,-1,-1],"split_conditions":[4.3580112E0,4.3244724E0,1.1153356E1,-1.4882704E-3,-4.673518E-3,-1.7625544E-3,5.291764E-4],"split_indices":[0,0,2,0,0,0,0],"split_type":[0,0,0,0,0,0,0],"sum_hessian":[1.36E3,1.268E3,9.2E1,1.262E3,6E0,4.1E1,5.1E1],"tree_param":{"num_deleted":"0","num_feature":"4","num_nodes":"7","size_leaf_vector":"0"}},{"base_weights":[-1.2959287E-2,-1.4042826E-2,-7.598063E-3,-2.509414E-2,-1.35724E-2,-3.7146293E-2,-5.809364E-3],"categories":[],"categories_nodes":[],"categories_segments":[],"categories_sizes":[],"default_left":[1,1,1,0,0,0,0],"id":33,"left_children":[1,3,5,-1,-1,-1,-1],"loss_changes":[7.7994764E-3,5.539283E-3,1.1993219E-2,0E0,0E0,0E0,0E0],"parents":[2147483647,0,0,1,1,2,2],"right_children":[2,4,6,-1,-1,-1,-1],"split_conditions":[3.8369255E0,1.2302079E0,4.5949383E0,-2.509414E-3,-1.35724E-3,-3.7146292E-3,-5.809364E-4],"split_indices":[0,0,1,0,0,0,0],"split_type":[0,0,0,0,0,0,0],"sum_hessian":[1.36E3,1.13E3,2.3E2,4.4E1,1.086E3,1.2E1,2.18E2],"tree_param":{"num_deleted":"0","num_feature":"4","num_nodes":"7","size_leaf_vector":"0"}},{"base_weights":[-1.1669354E-2,-1.1789286E-2,3.196501E-2,-1.1894889E-2,2.693128E-2,4.0073503E-2,3.8197637E-3],"categories":[],"categories_nodes":[],"categories_segments":[],"categories_sizes":[],"default_left":[1,1,1,0,0,0,0],"id":34,"left_children":[1,3,5,-1,-1,-1,-1],"loss_changes":[7.499203E-3,5.873233E-3,7.5979065E-4,0E0,0E0,0E0,0E0],"parents":[2147483647,0,0,1,1,2,2],"right_children":[2,4,6,-1,-1,-1,-1],"split_conditions":[6.206865E0,1.24770935E2,6.2924557E0,-1.1894889E-3,2.693128E-3,4.00735E-3,3.8197637E-4],"split_indices":[0,1,0,0,0,0,0],"split_type":[0,0,0,0,0,0,0],"sum_hessian":[1.36E3,1.357E3,3E0,1.354E3,3E0,2E0,1E0],"tree_param":{"num_deleted":"0","num_feature":"4","num_nodes":"7","size_leaf_vector":"0"}},{"base_weights":[-1.0498088E-2,-1.2239751E-2,-7.675299E-3,-2.1477435E-2,-1.17021445E-2,-7.92869E-3,6.2170736E-2],"categories":[],"categories_nodes":[],"categories_segments":[],"categories_sizes":[],"default_left":[1,1,1,0,0,0,0],"id":35,"left_children":[1,3,5,-1,-1,-1,-1],"loss_changes":[6.597221E-3,3.9203167E-3,9.731481E-3,0E0,0E0,0E0,0E0],"parents":[2147483647,0,0,1,1,2,2],"right_children":[2,4,6,-1,-1,-1,-1],"split_conditions":[3.223476E0,1.2302079E0,1.24770935E2,-2.1477435E-3,-1.1702145E-3,-7.92869E-4,6.2170736E-3],"split_indices":[0,0,1,0,0,0,0],"split_type":[0,0,0,0,0,0,0],"sum_hessian":[1.36E3,8.39E2,5.21E2,4.4E1,7.95E2,5.2E2,1E0],"tree_param":{"num_deleted":"0","num_feature":"4","num_nodes":"7","size_leaf_vector":"0"}},{"base_weights":[-9.446729E-3,-9.676141E-3,1.044298E-2,-9.505165E-3,-4.6276618E-2,-1.6280035E-2,2.8104793E-2],"categories":[],"categories_nodes":[],"categories_segments":[],"categories_sizes":[],"default_left":[1,1,1,0,0,0,0],"id":36,"left_children":[1,3,5,-1,-1,-1,-1],"loss_changes":[6.311208E-3,7.983148E-3,8.009177E-3,0E0,0E0,0E0,0E0],"parents":[2147483647,0,0,1,1,2,2],"right_children":[2,4,6,-1,-1,-1,-1],"split_conditions":[5.1515145E0,5.0255976E0,4.83765E0,-9.505165E-4,-4.627662E-3,-1.6280034E-3,2.8104794E-3],"split_indices":[0,0,3,0,0,0,0],"split_type":[0,0,0,0,0,0,0],"sum_hessian":[1.36E3,1.345E3,1.5E1,1.34E3,5E0,6E0,9E0],"tree_param":{"num_deleted":"0","num_feature":"4","num_nodes":"7","size_leaf_vector":"0"}},{"base_weights":[-8.505287E-3,-8.877274E-3,3.1029822E-3,-8.601067E-3,-2.4066994E-2,4.5222472E-2,-6.3430984E-3],"categories":[],"categories_nodes":[],"categories_segments":[],"categories_sizes":[],"default_left":[1,1,1,0,0,0,0],"id":37,"left_children":[1,3,5,-1,-1,-1,-1],"loss_changes":[5.904503E-3,5.3268746E-3,1.7395006E-2,0E0,0E0,0E0,0E0],"parents":[2147483647,0,0,1,1,2,2],"right_children":[2,4,6,-1,-1,-1,-1],"split_conditions":[4.6260967E0,4.475686E0,4.7814155E0,-8.6010667E-4,-2.4066994E-3,4.5222472E-3,-6.3430984E-4],"split_indices":[0,0,0,0,0,0,0],"split_type":[0,0,0,0,0,0,0],"sum_hessian":[1.36E3,1.318E3,4.2E1,1.296E3,2.2E1,7E0,3.5E1],"tree_param":{"num_deleted":"0","num_feature":"4","num_nodes":"7","size_leaf_vector":"0"}},{"base_weights":[-7.6542995E-3,-7.759392E-3,2.993799E-2,-1.462195E-2,-7.202255E-3,3.7959237E-2,2.9371232E-3],"categories":[],"categories_nodes":[],"categories_segments":[],"categories_sizes":[],"default_left":[1,1,1,0,0,0,0],"id":38,"left_children":[1,3,5,-1,-1,-1,-1],"loss_changes":[5.609125E-3,5.086839E-3,7.548316E-4,0E0,0E0,0E0,0E0],"parents":[2147483647,0,0,1,1,2,2],"right_children":[2,4,6,-1,-1,-1,-1],"split_conditions":[6.206865E0,1.6913098E0,6.2924557E0,-1.462195E-3,-7.202255E-4,3.7959237E-3,2.9371234E-4],"split_indices":[0,0,0,0,0,0,0],"split_type":[0,0,0,0,0,0,0],"sum_hessian":[1.36E3,1.357E3,3E0,1E2,1.257E3,2E0,1E0],"tree_param":{"num_deleted":"0","num_feature":"4","num_nodes":"7","size_leaf_vector":"0"}},{"base_weights":[-6.887467E-3,-7.9407E-3,-3.3356166E-3,-8.258137E-3,1.7785836E-3,-3.7379803E-3,6.1100923E-2],"categories":[],"categories_nodes":[],"categories_segments":[],"categories_sizes":[],"default_left":[1,1,1,0,0,0,0],"id":39,"left_children":[1,3,5,-1,-1,-1,-1],"loss_changes":[5.064912E-3,3.2511204E-3,8.343521E-3,0E0,0E0,0E0,0E0],"parents":[2147483647,0,0,1,1,2,2],"right_children":[2,4,6,-1,-1,-1,-1],"split_conditions":[3.6215043E0,6.202191E1,1.1510036E2,-8.258137E-4,1.7785837E-4,-3.7379804E-4,6.110092E-3],"split_indices":[0,2,1,0,0,0,0],"split_type":[0,0,0,0,0,0,0],"sum_hessian":[1.36E3,1.048E3,3.12E2,1.015E3,3.3E1,3.11E2,1E0],"tree_param":{"num_deleted":"0","num_feature":"4","num_nodes":"7","size_leaf_vector":"0"}},{"base_weights":[-6.1949817E-3,-6.2918686E-3,2.8246962E-2,-9.460511E-3,-5.2858E-3,3.567783E-2,2.9771775E-3],"categories":[],"categories_nodes":[],"categories_segments":[],"categories_sizes":[],"default_left":[1,1,1,0,0,0,0],"id":40,"left_children":[1,3,5,-1,-1,-1,-1],"loss_changes":[4.7193617E-3,4.2791218E-3,6.4488663E-4,0E0,0E0,0E0,0E0],"parents":[2147483647,0,0,1,1,2,2],"right_children":[2,4,6,-1,-1,-1,-1],"split_conditions":[6.206865E0,2.4363794E0,6.2924557E0,-9.460511E-4,-5.2858E-4,3.5677832E-3,2.9771775E-4],"split_indices":[0,0,0,0,0,0,0],"split_type":[0,0,0,0,0,0,0],"sum_hessian":[1.36E3,1.357E3,3E0,3.25E2,1.032E3,2E0,1E0],"tree_param":{"num_deleted":"0","num_feature":"4","num_nodes":"7","size_leaf_vector":"0"}},{"base_weights":[-5.5737267E-3,-6.031712E-3,1.0396318E-3,-5.83431E-3,-2.4715709E-2,3.332079E-2,-3.0085081E-3],"categories":[],"categories_nodes":[],"categories_segments":[],"categories_sizes":[],"default_left":[1,1,1,0,0,0,0],"id":41,"left_children":[1,3,5,-1,-1,-1,-1],"loss_changes":[4.128497E-3,4.5509487E-3,1.1730644E-2,0E0,0E0,0E0,0E0],"parents":[2147483647,0,0,1,1,2,2],"right_children":[2,4,6,-1,-1,-1,-1],"split_conditions":[4.3722305E0,4.3190775E0,4.4048176E0,-5.83431E-4,-2.4715709E-3,3.332079E-3,-3.008508E-4],"split_indices":[0,0,0,0,0,0,0],"split_type":[0,0,0,0,0,0,0],"sum_hessian":[1.36E3,1.272E3,8.8E1,1.26E3,1.2E1,9E0,7.9E1],"tree_param":{"num_deleted":"0","num_feature":"4","num_nodes":"7","size_leaf_vector":"0"}},{"base_weights":[-5.0163707E-3,-4.2278874E-3,-8.855151E-3,-3.748301E-3,-2.170376E-2,-1.3954147E-2,-3.1194005E-3],"categories":[],"categories_nodes":[],"categories_segments":[],"categories_sizes":[],"default_left":[1,1,1,0,0,0,0],"id":42,"left_children":[1,3,5,-1,-1,-1,-1],"loss_changes":[4.0820576E-3,9.397771E-3,6.712429E-3,0E0,0E0,0E0,0E0],"parents":[2147483647,0,0,1,1,2,2],"right_children":[2,4,6,-1,-1,-1,-1],"split_conditions":[2.1582346E1,3.7940926E1,3.005168E1,-3.748301E-4,-2.170376E-3,-1.3954147E-3,-3.1194006E-4],"split_indices":[3,1,1,0,0,0,0],"split_type":[0,0,0,0,0,0,0],"sum_hessian":[1.36E3,1.13E3,2.3E2,1.101E3,2.9E1,1.21E2,1.09E2],"tree_param":{"num_deleted":"0","num_feature":"4","num_nodes":"7","size_leaf_vector":"0"}},{"base_weights":[-4.5178584E-3,-4.7008405E-3,1.1157891E-2,-4.5394558E-3,-3.998689E-2,-1.3601312E-2,2.7373545E-2],"categories":[],"categories_nodes":[],"categories_segments":[],"categories_sizes":[],"default_left":[1,1,1,0,0,0,0],"id":43,"left_children":[1,3,5,-1,-1,-1,-1],"loss_changes":[3.9563235E-3,7.483462E-3,6.7961025E-3,0E0,0E0,0E0,0E0],"parents":[2147483647,0,0,1,1,2,2],"right_children":[2,4,6,-1,-1,-1,-1],"split_conditions":[5.1515145E0,5.0255976E0,4.83765E0,-4.5394557E-4,-3.998689E-3,-1.3601313E-3,2.7373545E-3],"split_indices":[0,0,3,0,0,0,0],"split_type":[0,0,0,0,0,0,0],"sum_hessian":[1.36E3,1.345E3,1.5E1,1.34E3,5E0,6E0,9E0],"tree_param":{"num_deleted":"0","num_feature":"4","num_nodes":"7","size_leaf_vector":"0"}},{"base_weights":[-4.06833E-3,-5.6005702E-3,-2.2006033E-3,-5.903148E-3,5.693281E-3,-2.3988867E-3,5.9772752E-2],"categories":[],"categories_nodes":[],"categories_segments":[],"categories_sizes":[],"default_left":[1,1,1,0,0,0,0],"id":44,"left_children":[1,3,5,-1,-1,-1,-1],"loss_changes":[3.8825925E-3,2.586307E-3,7.700691E-3,0E0,0E0,0E0,0E0],"parents":[2147483647,0,0,1,1,2,2],"right_children":[2,4,6,-1,-1,-1,-1],"split_conditions":[3.0708306E0,6.336475E1,1.24770935E2,-5.903148E-4,5.6932814E-4,-2.3988867E-4,5.9772753E-3],"split_indices":[0,2,1,0,0,0,0],"split_type":[0,0,0,0,0,0,0],"sum_hessian":[1.36E3,7.46E2,6.14E2,7.27E2,1.9E1,6.13E2,1E0],"tree_param":{"num_deleted":"0","num_feature":"4","num_nodes":"7","size_leaf_vector":"0"}},{"base_weights":[-3.6572965E-3,-3.948524E-3,5.3609977E-3,-3.661791E-3,-1.8643364E-2,4.388361E-2,-3.3484995E-3],"categories":[],"categories_nodes":[],"categories_segments":[],"categories_sizes":[],"default_left":[1,1,1,0,0,0,0],"id":45,"left_children":[1,3,5,-1,-1,-1,-1],"loss_changes":[3.5956688E-3,5.4893363E-3,1.4573987E-2,0E0,0E0,0E0,0E0],"parents":[2147483647,0,0,1,1,2,2],"right_children":[2,4,6,-1,-1,-1,-1],"split_conditions":[4.6260967E0,4.464712E0,4.7814155E0,-3.6617913E-4,-1.8643364E-3,4.3883612E-3,-3.3484996E-4],"split_indices":[0,0,0,0,0,0,0],"split_type":[0,0,0,0,0,0,0],"sum_hessian":[1.36E3,1.318E3,4.2E1,1.294E3,2.4E1,7E0,3.5E1],"tree_param":{"num_deleted":"0","num_feature":"4","num_nodes":"7","size_leaf_vector":"0"}},{"base_weights":[-3.2902267E-3,-9.60714E-3,-2.8724559E-3,-2.8764734E-3,-1.0912181E-2,-2.1126627E-3,-6.516768E-3],"categories":[],"categories_nodes":[],"categories_segments":[],"categories_sizes":[],"default_left":[1,1,1,0,0,0,0],"id":46,"left_children":[1,3,5,-1,-1,-1,-1],"loss_changes":[3.564112E-3,7.064496E-4,3.5249172E-3,0E0,0E0,0E0,0E0],"parents":[2147483647,0,0,1,1,2,2],"right_children":[2,4,6,-1,-1,-1,-1],"split_conditions":[1.5641351E0,8.988599E0,2.1582346E1,-2.8764733E-4,-1.0912181E-3,-2.1126626E-4,-6.5167685E-4],"split_indices":[0,1,3,0,0,0,0],"split_type":[0,0,0,0,0,0,0],"sum_hessian":[1.36E3,8.3E1,1.277E3,1.4E1,6.9E1,1.058E3,2.19E2],"tree_param":{"num_deleted":"0","num_feature":"4","num_nodes":"7","size_leaf_vector":"0"}},{"base_weights":[-2.9628498E-3,-3.0473222E-3,2.645626E-2,-3.1314201E-3,2.6202673E-2,3.3814687E-2,2.1904856E-3],"categories":[],"categories_nodes":[],"categories_segments":[],"categories_sizes":[],"default_left":[1,1,1,0,0,0,0],"id":47,"left_children":[1,3,5,-1,-1,-1,-1],"loss_changes":[3.4628473E-3,3.4225462E-3,6.401611E-4,0E0,0E0,0E0,0E0],"parents":[2147483647,0,0,1,1,2,2],"right_children":[2,4,6,-1,-1,-1,-1],"split_conditions":[6.206865E0,1.24770935E2,6.2924557E0,-3.1314202E-4,2.6202674E-3,3.3814688E-3,2.1904857E-4],"split_indices":[0,1,0,0,0,0,0],"split_type":[0,0,0,0,0,0,0],"sum_hessian":[1.36E3,1.357E3,3E0,1.354E3,3E0,2E0,1E0],"tree_param":{"num_deleted":"0","num_feature":"4","num_nodes":"7","size_leaf_vector":"0"}},{"base_weights":[-2.6622245E-3,-3.1763997E-3,1.9547609E-3,-3.0430695E-3,-4.31147E-2,-1.8916135E-5,6.7584254E-2],"categories":[],"categories_nodes":[],"categories_segments":[],"categories_sizes":[],"default_left":[1,1,1,0,0,0,0],"id":48,"left_children":[1,3,5,-1,-1,-1,-1],"loss_changes":[3.2371404E-3,6.391906E-3,1.7747086E-2,0E0,0E0,0E0,0E0],"parents":[2147483647,0,0,1,1,2,2],"right_children":[2,4,6,-1,-1,-1,-1],"split_conditions":[4.128564E0,4.1121206E0,4.701374E1,-3.0430694E-4,-4.31147E-3,-1.8916135E-6,6.7584254E-3],"split_indices":[0,0,1,0,0,0,0],"split_type":[0,0,0,0,0,0,0],"sum_hessian":[1.36E3,1.224E3,1.36E2,1.221E3,3E0,1.33E2,3E0],"tree_param":{"num_deleted":"0","num_feature":"4","num_nodes":"7","size_leaf_vector":"0"}},{"base_weights":[-2.3944299E-3,-5.280258E-3,-1.6319349E-3,-1.0348708E-2,-4.307923E-3,-7.271124E-4,-5.8035264E-3],"categories":[],"categories_nodes":[],"categories_segments":[],"categories_sizes":[],"default_left":[1,1,1,0,0,0,0],"id":49,"left_children":[1,3,5,-1,-1,-1,-1],"loss_changes":[2.9861685E-3,1.3550371E-3,4.0647453E-3,0E0,0E0,0E0,0E0],"parents":[2147483647,0,0,1,1,2,2],"right_children":[2,4,6,-1,-1,-1,-1],"split_conditions":[2.356911E0,1.2302079E0,2.1582346E1,-1.0348709E-3,-4.307923E-4,-7.271124E-5,-5.803527E-4],"split_indices":[0,0,3,0,0,0,0],"split_type":[0,0,0,0,0,0,0],"sum_hessian":[1.36E3,2.83E2,1.077E3,4.4E1,2.39E2,8.86E2,1.91E2],"tree_param":{"num_deleted":"0","num_feature":"4","num_nodes":"7","size_leaf_vector":"0"}}]},"name":"gbtree"},"learner_model_param":{"base_score":"5E-1","boost_from_average":"1","num_class":"0","num_feature":"4","num_target":"1"},"objective":{"name":"reg:squarederror","reg_loss_param":{"scale_pos_weight":"1"}}},"version":[1,7,6]}