{"learner":{"attributes":{"best_iteration":"49","best_ntree_limit":"50","scikit_learn":"{\"n_estimators\": 50, \"objective\": \"reg:squarederror\", \"max_depth\": 2, \"max_leaves\": null, \"max_bin\": null, \"grow_policy\": null, \"learning_rate\": 0.1, \"verbosity\": null, \"booster\": null, \"tree_method\": null, \"gamma\": null, \"min_child_weight\": null, \"max_delta_step\": null, \"subsample\": null, \"sampling_method\": null, \"colsample_bytree\": null, \"colsample_bylevel\": null, \"colsample_bynode\": null, \"reg_alpha\": null, \"reg_lambda\": null, \"scale_pos_weight\": null, \"base_score\": null, \"missing\": NaN, \"num_parallel_tree\": null, \"random_state\": null, \"n_jobs\": null, \"monotone_constraints\": null, \"interaction_constraints\": null, \"importance_type\": null, \"gpu_id\": null, \"validate_parameters\": null, \"predictor\": null, \"enable_categorical\": false, \"feature_types\": null, \"max_cat_to_onehot\": null, \"max_cat_threshold\": null, \"eval_metric\": null, \"early_stopping_rounds\": null, \"callbacks\": null, \"_estimator_type\": \"regressor\"}"},"feature_names":[],"feature_types":[],"gradient_booster":{"model":{"gbtree_model_param":{"num_parallel_tree":"1","num_trees":"50","size_leaf_vector":"0"},"tree_info":[0,0,0,0,0,0,0,0,0,0,0,0,0,0,0,0,0,0,0,0,0,0,0,0,0,0,0,0,0,0,0,0,0,0,0,0,0,0,0,0,0,0,0,0,0,0,0,0,0,0],"trees":[{"base_weights":[-4.1863212E-1,-4.3759075E-1,-3.5375595E-1,-4.600722E-1,-4.2147973E-1,-3.5908678E-1,-2.1148095E-2],"categories":[],"categories_nodes":[],"categories_segments":[],"categories_sizes":[],"default_left":[1,1,1,0,0,0,0],"id":0,"left_children":[1,3,5,-1,-1,-1,-1],"loss_changes":[1.519165E0,1.8605042E-1,5.473747E-1,0E0,0E0,0E0,0E0],"parents":[2147483647,0,0,1,1,2,2],"right_children":[2,4,6,-1,-1,-1,-1],"split_conditions":[3.6215043E0,2.5836763E0,6.057186E0,-4.600722E-2,-4.2147975E-2,-3.590868E-2,-2.1148096E-3],"split_indices":[0,0,0,0,0,0,0],"split_type":[0,0,0,0,0,0,0],"sum_hessian":[1.36E3,1.048E3,3.12E2,4.26E2,6.22E2,3.07E2,5E0],"tree_param":{"num_deleted":"0","num_feature":"4","num_nodes":"7","size_leaf_vector":"0"}},{"base_weights":[-3.768616E-1,-3.939157E-1,-3.1850186E-1,-4.176057E-1,-3.8130054E-1,-3.2224503E-1,5.122059E-2],"categories":[],"categories_nodes":[],"categories_segments":[],"categories_sizes":[],"default_left":[1,1,1,0,0,0,0],"id":1,"left_children":[1,3,5,-1,-1,-1,-1],"loss_changes":[1.2291107E0,1.5426636E-1,4.4967842E-1,0E0,0E0,0E0,0E0],"parents":[2147483647,0,0,1,1,2,2],"right_children":[2,4,6,-1,-1,-1,-1],"split_conditions":[3.6215043E0,2.4758353E0,6.206865E0,-4.176057E-2,-3.8130056E-2,-3.2224502E-2,5.122059E-3],"split_indices":[0,0,0,0,0,0,0],"split_type":[0,0,0,0,0,0,0],"sum_hessian":[1.36E3,1.048E3,3.12E2,3.53E2,6.95E2,3.09E2,3E0],"tree_param":{"num_deleted":"0","num_feature":"4","num_nodes":"7","size_leaf_vector":"0"}},{"base_weights":[-3.3925408E-1,-3.5715932E-1,-2.93921E-1,-3.857258E-1,-3.491539E-1,-2.9755408E-1,-1.1205276E-2],"categories":[],"categories_nodes":[],"categories_segments":[],"categories_sizes":[],"default_left":[1,1,1,0,0,0,0],"id":2,"left_children":[1,3,5,-1,-1,-1,-1],"loss_changes":[9.9975586E-1,8.7371826E-2,3.9826965E-1,0E0,0E0,0E0,0E0],"parents":[2147483647,0,0,1,1,2,2],"right_children":[2,4,6,-1,-1,-1,-1],"split_conditions":[3.434963E0,2.1362178E0,6.057186E0,-3.857258E-2,-3.491539E-2,-2.9755408E-2,-1.1205276E-3],"split_indices":[0,0,0,0,0,0,0],"split_type":[0,0,0,0,0,0,0],"sum_hessian":[1.36E3,9.7E2,3.9E2,2.02E2,7.68E2,3.85E2,5E0],"tree_param":{"num_deleted":"0","num_feature":"4","num_nodes":"7","size_leaf_vector":"0"}},{"base_weights":[-3.0540535E-1,-3.171148E-1,-2.470559E-1,-3.2957262E-1,-2.9559404E-1,-2.511347E-1,4.8219442E-2],"categories":[],"categories_nodes":[],"categories_segments":[],"categories_sizes":[],"default_left":[1,1,1,0,0,0,0],"id":3,"left_children":[1,3,5,-1,-1,-1,-1],"loss_changes":[8.5154724E-1,2.0552826E-1,2.9152298E-1,0E0,0E0,0E0,0E0],"parents":[2147483647,0,0,1,1,2,2],"right_children":[2,4,6,-1,-1,-1,-1],"split_conditions":[3.8332767E0,3.018133E0,6.206865E0,-3.2957263E-2,-2.9559404E-2,-2.5113469E-2,4.8219445E-3],"split_indices":[0,0,0,0,0,0,0],"split_type":[0,0,0,0,0,0,0],"sum_hessian":[1.36E3,1.129E3,2.31E2,7.06E2,4.23E2,2.28E2,3E0],"tree_param":{"num_deleted":"0","num_feature":"4","num_nodes":"7","size_leaf_vector":"0"}},{"base_weights":[-2.7492565E-1,-2.8123504E-1,-1.858771E-1,-2.9561472E-1,-2.5988555E-1,-1.9405536E-1,4.4602975E-2],"categories":[],"categories_nodes":[],"categories_segments":[],"categories_sizes":[],"default_left":[1,1,1,0,0,0,0],"id":4,"left_children":[1,3,5,-1,-1,-1,-1],"loss_changes":[7.123947E-1,3.127594E-1,1.8395329E-1,0E0,0E0,0E0,0E0],"parents":[2147483647,0,0,1,1,2,2],"right_children":[2,4,6,-1,-1,-1,-1],"split_conditions":[4.3580112E0,3.0773234E0,6.206865E0,-2.9561473E-2,-2.5988555E-2,-1.9405536E-2,4.4602975E-3],"split_indices":[0,0,0,0,0,0,0],"split_type":[0,0,0,0,0,0,0],"sum_hessian":[1.36E3,1.268E3,9.2E1,7.5E2,5.18E2,8.9E1,3E0],"tree_param":{"num_deleted":"0","num_feature":"4","num_nodes":"7","size_leaf_vector":"0"}},{"base_weights":[-2.474849E-1,-2.5695795E-1,-1.9851455E-1,-2.741946E-1,-2.4624483E-1,-2.1323526E-1,-1.2725008E-1],"categories":[],"categories_nodes":[],"categories_segments":[],"categories_sizes":[],"default_left":[1,1,1,0,0,0,0],"id":5,"left_children":[1,3,5,-1,-1,-1,-1],"loss_changes":[5.803528E-1,1.4244843E-1,2.0890427E-1,0E0,0E0,0E0,0E0],"parents":[2147483647,0,0,1,1,2,2],"right_children":[2,4,6,-1,-1,-1,-1],"split_conditions":[3.86021E0,2.5836763E0,4.6602635E0,-2.7419461E-2,-2.4624484E-2,-2.1323526E-2,-1.2725008E-2],"split_indices":[0,0,0,0,0,0,0],"split_type":[0,0,0,0,0,0,0],"sum_hessian":[1.36E3,1.136E3,2.24E2,4.26E2,7.1E2,1.84E2,4E1],"tree_param":{"num_deleted":"0","num_feature":"4","num_nodes":"7","size_leaf_vector":"0"}},{"base_weights":[-2.2279966E-1,-2.3823881E-1,-1.9752824E-1,-2.6123595E-1,-2.3205735E-1,-2.0415246E-1,-1.1483544E-1],"categories":[],"categories_nodes":[],"categories_segments":[],"categories_sizes":[],"default_left":[1,1,1,0,0,0,0],"id":6,"left_children":[1,3,5,-1,-1,-1,-1],"loss_changes":[4.83963E-1,5.87883E-2,2.6249504E-1,0E0,0E0,0E0,0E0],"parents":[2147483647,0,0,1,1,2,2],"right_children":[2,4,6,-1,-1,-1,-1],"split_conditions":[3.223476E0,2.0004601E0,4.6602635E0,-2.6123596E-2,-2.3205735E-2,-2.0415246E-2,-1.14835445E-2],"split_indices":[0,0,0,0,0,0,0],"split_type":[0,0,0,0,0,0,0],"sum_hessian":[1.36E3,8.39E2,5.21E2,1.69E2,6.7E2,4.81E2,4E1],"tree_param":{"num_deleted":"0","num_feature":"4","num_nodes":"7","size_leaf_vector":"0"}},{"base_weights":[-2.0057939E-1,-2.0532265E-1,-1.337E-1,-2.1699819E-1,-1.9029613E-1,-1.4079729E-1,5.9414178E-2],"categories":[],"categories_nodes":[],"categories_segments":[],"categories_sizes":[],"default_left":[1,1,1,0,0,0,0],"id":7,"left_children":[1,3,5,-1,-1,-1,-1],"loss_changes":[4.0429306E-1,1.813469E-1,1.3583028E-1,0E0,0E0,0E0,0E0],"parents":[2147483647,0,0,1,1,2,2],"right_children":[2,4,6,-1,-1,-1,-1],"split_conditions":[4.3580112E0,3.018133E0,6.206865E0,-2.169982E-2,-1.9029614E-2,-1.4079729E-2,5.941418E-3],"split_indices":[0,0,0,0,0,0,0],"split_type":[0,0,0,0,0,0,0],"sum_hessian":[1.36E3,1.268E3,9.2E1,7.06E2,5.62E2,8.9E1,3E0],"tree_param":{"num_deleted":"0","num_feature":"4","num_nodes":"7","size_leaf_vector":"0"}},{"base_weights":[-1.8055736E-1,-1.8825962E-1,-1.4557542E-1,-2.136127E-1,-1.8345746E-1,-1.4944506E-1,1.0105504E-2],"categories":[],"categories_nodes":[],"categories_segments":[],"categories_sizes":[],"default_left":[1,1,1,0,0,0,0],"id":8,"left_children":[1,3,5,-1,-1,-1,-1],"loss_changes":[3.3930206E-1,9.619522E-2,1.5211725E-1,0E0,0E0,0E0,0E0],"parents":[2147483647,0,0,1,1,2,2],"right_children":[2,4,6,-1,-1,-1,-1],"split_conditions":[3.7716942E0,2.0007892E0,6.013875E0,-2.136127E-2,-1.8345747E-2,-1.4944506E-2,1.0105504E-3],"split_indices":[0,0,0,0,0,0,0],"split_type":[0,0,0,0,0,0,0],"sum_hessian":[1.36E3,1.111E3,2.49E2,1.7E2,9.41E2,2.43E2,6E0],"tree_param":{"num_deleted":"0","num_feature":"4","num_nodes":"7","size_leaf_vector":"0"}},{"base_weights":[-1.6254103E-1,-1.6650802E-1,-1.0666307E-1,-1.7628418E-1,-1.5393564E-1,-1.126274E-1,5.420021E-2],"categories":[],"categories_nodes":[],"categories_segments":[],"categories_sizes":[],"default_left":[1,1,1,0,0,0,0],"id":9,"left_children":[1,3,5,-1,-1,-1,-1],"loss_changes":[2.8393173E-1,1.2883377E-1,9.533262E-2,0E0,0E0,0E0,0E0],"parents":[2147483647,0,0,1,1,2,2],"right_children":[2,4,6,-1,-1,-1,-1],"split_conditions":[4.3580112E0,3.018133E0,6.206865E0,-1.7628418E-2,-1.53935645E-2,-1.126274E-2,5.4200212E-3],"split_indices":[0,0,0,0,0,0,0],"split_type":[0,0,0,0,0,0,0],"sum_hessian":[1.36E3,1.268E3,9.2E1,7.06E2,5.62E2,8.9E1,3E0],"tree_param":{"num_deleted":"0","num_feature":"4","num_nodes":"7","size_leaf_vector":"0"}},{"base_weights":[-1.4631549E-1,-1.53719E-1,-1.2103563E-1,-1.7520125E-1,-1.4948201E-1,-1.2366891E-1,1.174335E-2],"categories":[],"categories_nodes":[],"categories_segments":[],"categories_sizes":[],"default_left":[1,1,1,0,0,0,0],"id":10,"left_children":[1,3,5,-1,-1,-1,-1],"loss_changes":[2.3612022E-1,6.929016E-2,1.1089039E-1,0E0,0E0,0E0,0E0],"parents":[2147483647,0,0,1,1,2,2],"right_children":[2,4,6,-1,-1,-1,-1],"split_conditions":[3.6215043E0,1.9923561E0,6.013875E0,-1.7520126E-2,-1.4948201E-2,-1.2366891E-2,1.174335E-3],"split_indices":[0,0,0,0,0,0,0],"split_type":[0,0,0,0,0,0,0],"sum_hessian":[1.36E3,1.048E3,3.12E2,1.66E2,8.82E2,3.06E2,6E0],"tree_param":{"num_deleted":"0","num_feature":"4","num_nodes":"7","size_leaf_vector":"0"}},{"base_weights":[-1.3171601E-1,-1.3386498E-1,-5.9264548E-2,-1.4159602E-1,-1.20114096E-1,-6.9128E-2,4.9254417E-2],"categories":[],"categories_nodes":[],"categories_segments":[],"categories_sizes":[],"default_left":[1,1,1,0,0,0,0],"id":11,"left_children":[1,3,5,-1,-1,-1,-1],"loss_changes":[2.0396805E-1,1.2342644E-1,4.729013E-2,0E0,0E0,0E0,0E0],"parents":[2147483647,0,0,1,1,2,2],"right_children":[2,4,6,-1,-1,-1,-1],"split_conditions":[4.6602635E0,3.223476E0,6.206865E0,-1.4159602E-2,-1.201141E-2,-6.9128E-3,4.925442E-3],"split_indices":[0,0,0,0,0,0,0],"split_type":[0,0,0,0,0,0,0],"sum_hessian":[1.36E3,1.32E3,4E1,8.39E2,4.81E2,3.7E1,3E0],"tree_param":{"num_deleted":"0","num_feature":"4","num_nodes":"7","size_leaf_vector":"0"}},{"base_weights":[-1.185651E-1,-1.2163566E-1,-7.539187E-2,-1.3717386E-1,-1.1651294E-1,-7.992984E-2,4.5560345E-2],"categories":[],"categories_nodes":[],"categories_segments":[],"categories_sizes":[],"default_left":[1,1,1,0,0,0,0],"id":12,"left_children":[1,3,5,-1,-1,-1,-1],"loss_changes":[1.712532E-1,8.502579E-2,5.4687202E-2,0E0,0E0,0E0,0E0],"parents":[2147483647,0,0,1,1,2,2],"right_children":[2,4,6,-1,-1,-1,-1],"split_conditions":[4.3580112E0,2.413519E0,6.206865E0,-1.3717386E-2,-1.1651294E-2,-7.992985E-3,4.5560347E-3],"split_indices":[0,0,0,0,0,0,0],"split_type":[0,0,0,0,0,0,0],"sum_hessian":[1.36E3,1.268E3,9.2E1,3.08E2,9.6E2,8.9E1,3E0],"tree_param":{"num_deleted":"0","num_feature":"4","num_nodes":"7","size_leaf_vector":"0"}},{"base_weights":[-1.0672976E-1,-1.14738636E-1,-9.257601E-2,-1.3427158E-1,-1.11594796E-1,-9.6506566E-2,-4.6506755E-2],"categories":[],"categories_nodes":[],"categories_segments":[],"categories_sizes":[],"default_left":[1,1,1,0,0,0,0],"id":13,"left_children":[1,3,5,-1,-1,-1,-1],"loss_changes":[1.4365578E-1,3.813362E-2,8.5506916E-2,0E0,0E0,0E0,0E0],"parents":[2147483647,0,0,1,1,2,2],"right_children":[2,4,6,-1,-1,-1,-1],"split_conditions":[3.2534816E0,1.7745993E0,4.6602635E0,-1.3427158E-2,-1.115948E-2,-9.650657E-3,-4.6506757E-3],"split_indices":[0,0,0,0,0,0,0],"split_type":[0,0,0,0,0,0,0],"sum_hessian":[1.36E3,8.64E2,4.96E2,1.14E2,7.5E2,4.56E2,4E1],"tree_param":{"num_deleted":"0","num_feature":"4","num_nodes":"7","size_leaf_vector":"0"}},{"base_weights":[-9.6085355E-2,-1.0035991E-1,-7.405755E-2,-1.1743533E-1,-9.731979E-2,-7.642659E-2,2.515026E-2],"categories":[],"categories_nodes":[],"categories_segments":[],"categories_sizes":[],"default_left":[1,1,1,0,0,0,0],"id":14,"left_children":[1,3,5,-1,-1,-1,-1],"loss_changes":[1.20718E-1,4.7595024E-2,5.480337E-2,0E0,0E0,0E0,0E0],"parents":[2147483647,0,0,1,1,2,2],"right_children":[2,4,6,-1,-1,-1,-1],"split_conditions":[3.86021E0,1.9923561E0,6.057186E0,-1.1743533E-2,-9.731979E-3,-7.642659E-3,2.5150261E-3],"split_indices":[0,0,0,0,0,0,0],"split_type":[0,0,0,0,0,0,0],"sum_hessian":[1.36E3,1.136E3,2.24E2,1.66E2,9.7E2,2.19E2,5E0],"tree_param":{"num_deleted":"0","num_feature":"4","num_nodes":"7","size_leaf_vector":"0"}},{"base_weights":[-8.649637E-2,-9.348642E-2,-7.50823E-2,-1.0931976E-1,-9.0849616E-2,-7.827205E-2,-3.5752E-2],"categories":[],"categories_nodes":[],"categories_segments":[],"categories_sizes":[],"default_left":[1,1,1,0,0,0,0],"id":15,"left_children":[1,3,5,-1,-1,-1,-1],"loss_changes":[1.0156822E-1,2.5137424E-2,6.268835E-2,0E0,0E0,0E0,0E0],"parents":[2147483647,0,0,1,1,2,2],"right_children":[2,4,6,-1,-1,-1,-1],"split_conditions":[3.223476E0,1.7745993E0,4.6602635E0,-1.0931976E-2,-9.084961E-3,-7.827206E-3,-3.5752E-3],"split_indices":[0,0,0,0,0,0,0],"split_type":[0,0,0,0,0,0,0],"sum_hessian":[1.36E3,8.39E2,5.21E2,1.14E2,7.25E2,4.81E2,4E1],"tree_param":{"num_deleted":"0","num_feature":"4","num_nodes":"7","size_leaf_vector":"0"}},{"base_weights":[-7.786982E-2,-8.00294E-2,-4.7564693E-2,-8.941031E-2,-7.570312E-2,-6.904422E-2,-2.5989216E-2],"categories":[],"categories_nodes":[],"categories_segments":[],"categories_sizes":[],"default_left":[1,1,1,0,0,0,0],"id":16,"left_children":[1,3,5,-1,-1,-1,-1],"loss_changes":[8.526516E-2,4.4734E-2,4.1304663E-2,0E0,0E0,0E0,0E0],"parents":[2147483647,0,0,1,1,2,2],"right_children":[2,4,6,-1,-1,-1,-1],"split_conditions":[4.3580112E0,2.5360525E0,1.1868438E3,-8.941031E-3,-7.5703124E-3,-6.904422E-3,-2.5989215E-3],"split_indices":[0,0,2,0,0,0,0],"split_type":[0,0,0,0,0,0,0],"sum_hessian":[1.36E3,1.268E3,9.2E1,3.94E2,8.74E2,4.5E1,4.7E1],"tree_param":{"num_deleted":"0","num_feature":"4","num_nodes":"7","size_leaf_vector":"0"}},{"base_weights":[-7.010195E-2,-7.595738E-2,-6.0545124E-2,-9.080772E-2,-7.382786E-2,-6.216687E-2,-5.3720456E-3],"categories":[],"categories_nodes":[],"categories_segments":[],"categories_sizes":[],"default_left":[1,1,1,0,0,0,0],"id":17,"left_children":[1,3,5,-1,-1,-1,-1],"loss_changes":[7.156181E-2,1.9860268E-2,4.6372652E-2,0E0,0E0,0E0,0E0],"parents":[2147483647,0,0,1,1,2,2],"right_children":[2,4,6,-1,-1,-1,-1],"split_conditions":[3.223476E0,1.6913098E0,5.1515145E0,-9.080772E-3,-7.3827864E-3,-6.216687E-3,-5.3720456E-4],"split_indices":[0,0,0,0,0,0,0],"split_type":[0,0,0,0,0,0,0],"sum_hessian":[1.36E3,8.39E2,5.21E2,1E2,7.39E2,5.06E2,1.5E1],"tree_param":{"num_deleted":"0","num_feature":"4","num_nodes":"7","size_leaf_vector":"0"}},{"base_weights":[-6.310882E-2,-6.614952E-2,-4.7462627E-2,-7.584594E-2,-6.342908E-2,-4.8982907E-2,4.877855E-2],"categories":[],"categories_nodes":[],"categories_segments":[],"categories_sizes":[],"default_left":[1,1,1,0,0,0,0],"id":18,"left_children":[1,3,5,-1,-1,-1,-1],"loss_changes":[6.1611176E-2,2.5181293E-2,3.530985E-2,0E0,0E0,0E0,0E0],"parents":[2147483647,0,0,1,1,2,2],"right_children":[2,4,6,-1,-1,-1,-1],"split_conditions":[3.86021E0,2.2501755E0,6.206865E0,-7.584594E-3,-6.342908E-3,-4.8982906E-3,4.877855E-3],"split_indices":[0,0,0,0,0,0,0],"split_type":[0,0,0,0,0,0,0],"sum_hessian":[1.36E3,1.136E3,2.24E2,2.43E2,8.93E2,2.21E2,3E0],"tree_param":{"num_deleted":"0","num_feature":"4","num_nodes":"7","size_leaf_vector":"0"}},{"base_weights":[-5.680818E-2,-5.791419E-2,-1.9787539E-2,-6.315807E-2,-5.2582696E-2,-4.9750835E-2,5.825079E-3],"categories":[],"categories_nodes":[],"categories_segments":[],"categories_sizes":[],"default_left":[1,1,1,0,0,0,0],"id":19,"left_children":[1,3,5,-1,-1,-1,-1],"loss_changes":[5.458021E-2,3.3611298E-2,3.1754777E-2,0E0,0E0,0E0,0E0],"parents":[2147483647,0,0,1,1,2,2],"right_children":[2,4,6,-1,-1,-1,-1],"split_conditions":[4.6602635E0,2.9460716E0,1.2160138E3,-6.3158073E-3,-5.2582696E-3,-4.9750837E-3,5.825079E-4],"split_indices":[0,0,2,0,0,0,0],"split_type":[0,0,0,0,0,0,0],"sum_hessian":[1.36E3,1.32E3,4E1,6.6E2,6.6E2,1.8E1,2.2E1],"tree_param":{"num_deleted":"0","num_feature":"4","num_nodes":"7","size_leaf_vector":"0"}},{"base_weights":[-5.1139098E-2,-5.2693356E-2,-2.9381113E-2,-6.4410724E-2,-5.087151E-2,-4.8905518E-2,-1.304638E-2],"categories":[],"categories_nodes":[],"categories_segments":[],"categories_sizes":[],"default_left":[1,1,1,0,0,0,0],"id":20,"left_children":[1,3,5,-1,-1,-1,-1],"loss_changes":[4.4477463E-2,2.3813248E-2,2.9022075E-2,0E0,0E0,0E0,0E0],"parents":[2147483647,0,0,1,1,2,2],"right_children":[2,4,6,-1,-1,-1,-1],"split_conditions":[4.3580112E0,1.9923561E0,1.1153356E3,-6.4410726E-3,-5.087151E-3,-4.890552E-3,-1.304638E-3],"split_indices":[0,0,2,0,0,0,0],"split_type":[0,0,0,0,0,0,0],"sum_hessian":[1.36E3,1.268E3,9.2E1,1.66E2,1.102E3,4.1E1,5.1E1],"tree_param":{"num_deleted":"0","num_feature":"4","num_nodes":"7","size_leaf_vector":"0"}},{"base_weights":[-4.6038207E-2,-4.899215E-2,-3.599117E-2,-6.6338256E-2,-4.7909997E-2,-3.6928654E-2,4.5661733E-2],"categories":[],"categories_nodes":[],"categories_segments":[],"categories_sizes":[],"default_left":[1,1,1,0,0,0,0],"id":21,"left_children":[1,3,5,-1,-1,-1,-1],"loss_changes":[3.8629055E-2,1.6512632E-2,2.5645882E-2,0E0,0E0,0E0,0E0],"parents":[2147483647,0,0,1,1,2,2],"right_children":[2,4,6,-1,-1,-1,-1],"split_conditions":[3.6215043E0,1.3621168E0,6.206865E0,-6.6338256E-3,-4.791E-3,-3.6928654E-3,4.5661735E-3],"split_indices":[0,0,0,0,0,0,0],"split_type":[0,0,0,0,0,0,0],"sum_hessian":[1.36E3,1.048E3,3.12E2,5.8E1,9.9E2,3.09E2,3E0],"tree_param":{"num_deleted":"0","num_feature":"4","num_nodes":"7","size_leaf_vector":"0"}},{"base_weights":[-4.144214E-2,-4.231967E-2,-1.21577885E-2,-4.6500117E-2,-3.810061E-2,5.1886197E-2,-2.249407E-2],"categories":[],"categories_nodes":[],"categories_segments":[],"categories_sizes":[],"default_left":[1,1,1,0,0,0,0],"id":22,"left_children":[1,3,5,-1,-1,-1,-1],"loss_changes":[3.4460306E-2,2.1527529E-2,2.8308174E-2,0E0,0E0,0E0,0E0],"parents":[2147483647,0,0,1,1,2,2],"right_children":[2,4,6,-1,-1,-1,-1],"split_conditions":[4.6602635E0,2.9439242E0,4.7814155E0,-4.6500117E-3,-3.8100611E-3,5.1886197E-3,-2.249407E-3],"split_indices":[0,0,0,0,0,0,0],"split_type":[0,0,0,0,0,0,0],"sum_hessian":[1.36E3,1.32E3,4E1,6.58E2,6.62E2,5E0,3.5E1],"tree_param":{"num_deleted":"0","num_feature":"4","num_nodes":"7","size_leaf_vector":"0"}},{"base_weights":[-3.730198E-2,-3.779602E-2,6.590286E-3,-4.1120354E-2,-3.2924935E-2,-3.7411887E-2,3.6732778E-2],"categories":[],"categories_nodes":[],"categories_segments":[],"categories_sizes":[],"default_left":[1,1,1,0,0,0,0],"id":23,"left_children":[1,3,5,-1,-1,-1,-1],"loss_changes":[2.9761434E-2,2.0442247E-2,2.2595605E-2,0E0,0E0,0E0,0E0],"parents":[2147483647,0,0,1,1,2,2],"right_children":[2,4,6,-1,-1,-1,-1],"split_conditions":[5.1515145E0,3.1419582E0,7.286509E2,-4.1120355E-3,-3.2924935E-3,-3.7411887E-3,3.6732778E-3],"split_indices":[0,0,2,0,0,0,0],"split_type":[0,0,0,0,0,0,0],"sum_hessian":[1.36E3,1.345E3,1.5E1,7.95E2,5.5E2,6E0,9E0],"tree_param":{"num_deleted":"0","num_feature":"4","num_nodes":"7","size_leaf_vector":"0"}},{"base_weights":[-3.3577275E-2,-3.4021918E-2,5.9270146E-3,-4.0761895E-2,-3.1836554E-2,-3.4205154E-2,3.342683E-2],"categories":[],"categories_nodes":[],"categories_segments":[],"categories_sizes":[],"default_left":[1,1,1,0,0,0,0],"id":24,"left_children":[1,3,5,-1,-1,-1,-1],"loss_changes":[2.4108052E-2,1.8527985E-2,1.8801406E-2,0E0,0E0,0E0,0E0],"parents":[2147483647,0,0,1,1,2,2],"right_children":[2,4,6,-1,-1,-1,-1],"split_conditions":[5.1515145E0,2.4363794E0,7.286509E2,-4.07619E-3,-3.1836554E-3,-3.4205155E-3,3.342683E-3],"split_indices":[0,0,2,0,0,0,0],"split_type":[0,0,0,0,0,0,0],"sum_hessian":[1.36E3,1.345E3,1.5E1,3.25E2,1.02E3,6E0,9E0],"tree_param":{"num_deleted":"0","num_feature":"4","num_nodes":"7","size_leaf_vector":"0"}},{"base_weights":[-3.0224934E-2,-3.2011744E-2,-2.1061264E-2,-4.46695E-2,-3.0985577E-2,-3.944676E-2,-1.6626086E-2],"categories":[],"categories_nodes":[],"categories_segments":[],"categories_sizes":[],"default_left":[1,1,1,0,0,0,0],"id":25,"left_children":[1,3,5,-1,-1,-1,-1],"loss_changes":[2.161038E-2,1.3384461E-2,1.7691314E-2,0E0,0E0,0E0,0E0],"parents":[2147483647,0,0,1,1,2,2],"right_children":[2,4,6,-1,-1,-1,-1],"split_conditions":[3.86021E0,1.5578573E0,7.624634E2,-4.4669504E-3,-3.0985577E-3,-3.944676E-3,-1.6626086E-3],"split_indices":[0,0,1,0,0,0,0],"split_type":[0,0,0,0,0,0,0],"sum_hessian":[1.36E3,1.136E3,2.24E2,8.2E1,1.054E3,4.2E1,1.82E2],"tree_param":{"num_deleted":"0","num_feature":"4","num_nodes":"7","size_leaf_vector":"0"}},{"base_weights":[-2.721212E-2,-2.786845E-2,-5.4017953E-3,-4.294449E-2,-2.7154623E-2,5.434465E-2,-1.5209487E-2],"categories":[],"categories_nodes":[],"categories_segments":[],"categories_sizes":[],"default_left":[1,1,1,0,0,0,0],"id":26,"left_children":[1,3,5,-1,-1,-1,-1],"loss_changes":[1.9331813E-2,1.3050199E-2,2.4851518E-2,0E0,0E0,0E0,0E0],"parents":[2147483647,0,0,1,1,2,2],"right_children":[2,4,6,-1,-1,-1,-1],"split_conditions":[4.6602635E0,1.3540014E0,4.7814155E0,-4.294449E-3,-2.7154624E-3,5.434465E-3,-1.5209487E-3],"split_indices":[0,0,0,0,0,0,0],"split_type":[0,0,0,0,0,0,0],"sum_hessian":[1.36E3,1.32E3,4E1,5.7E1,1.263E3,5E0,3.5E1],"tree_param":{"num_deleted":"0","num_feature":"4","num_nodes":"7","size_leaf_vector":"0"}},{"base_weights":[-2.4493184E-2,-2.4870055E-2,8.741921E-3,-2.9434199E-2,-2.2724664E-2,-2.7566487E-2,3.3283614E-2],"categories":[],"categories_nodes":[],"categories_segments":[],"categories_sizes":[],"default_left":[1,1,1,0,0,0,0],"id":27,"left_children":[1,3,5,-1,-1,-1,-1],"loss_changes":[1.7264426E-2,1.2511015E-2,1.5174629E-2,0E0,0E0,0E0,0E0],"parents":[2147483647,0,0,1,1,2,2],"right_children":[2,4,6,-1,-1,-1,-1],"split_conditions":[5.1515145E0,2.5836763E0,7.286509E2,-2.9434199E-3,-2.2724664E-3,-2.7566487E-3,3.3283613E-3],"split_indices":[0,0,2,0,0,0,0],"split_type":[0,0,0,0,0,0,0],"sum_hessian":[1.36E3,1.345E3,1.5E1,4.26E2,9.19E2,6E0,9E0],"tree_param":{"num_deleted":"0","num_feature":"4","num_nodes":"7","size_leaf_vector":"0"}},{"base_weights":[-2.2047278E-2,-2.2945086E-2,-9.55948E-3,-3.571656E-2,-2.230391E-2,-1.9021876E-2,1.1978975E-2],"categories":[],"categories_nodes":[],"categories_segments":[],"categories_sizes":[],"default_left":[1,1,1,0,0,0,0],"id":28,"left_children":[1,3,5,-1,-1,-1,-1],"loss_changes":[1.5039682E-2,9.594917E-3,1.9181762E-2,0E0,0E0,0E0,0E0],"parents":[2147483647,0,0,1,1,2,2],"right_children":[2,4,6,-1,-1,-1,-1],"split_conditions":[4.3580112E0,1.3621168E0,1.3299454E3,-3.571656E-3,-2.2303911E-3,-1.9021876E-3,1.1978975E-3],"split_indices":[0,0,3,0,0,0,0],"split_type":[0,0,0,0,0,0,0],"sum_hessian":[1.36E3,1.268E3,9.2E1,5.8E1,1.21E3,6.4E1,2.8E1],"tree_param":{"num_deleted":"0","num_feature":"4","num_nodes":"7","size_leaf_vector":"0"}},{"base_weights":[-1.9847332E-2,-2.0006655E-2,3.920518E-2,-2.2106975E-2,-1.5803594E-2,5.2536726E-2,-3.9473176E-4],"categories":[],"categories_nodes":[],"categories_segments":[],"categories_sizes":[],"default_left":[1,1,1,0,0,0,0],"id":29,"left_children":[1,3,5,-1,-1,-1,-1],"loss_changes":[1.3589323E-2,1.1638761E-2,2.1324507E-3,0E0,0E0,0E0,0E0],"parents":[2147483647,0,0,1,1,2,2],"right_children":[2,4,6,-1,-1,-1,-1],"split_conditions":[6.206865E0,3.3087723E0,6.2924557E0,-2.2106976E-3,-1.5803594E-3,5.2536726E-3,-3.9473176E-5],"split_indices":[0,0,0,0,0,0,0],"split_type":[0,0,0,0,0,0,0],"sum_hessian":[1.36E3,1.357E3,3E0,9.02E2,4.55E2,2E0,1E0],"tree_param":{"num_deleted":"0","num_feature":"4","num_nodes":"7","size_leaf_vector":"0"}},{"base_weights":[-1.786155E-2,-1.8172849E-2,9.442763E-3,-2.6271228E-2,-1.730022E-2,-2.2218596E-2,3.066144E-2],"categories":[],"categories_nodes":[],"categories_segments":[],"categories_sizes":[],"default_left":[1,1,1,0,0,0,0],"id":30,"left_children":[1,3,5,-1,-1,-1,-1],"loss_changes":[1.173982E-2,9.057552E-3,1.1430248E-2,0E0,0E0,0E0,0E0],"parents":[2147483647,0,0,1,1,2,2],"right_children":[2,4,6,-1,-1,-1,-1],"split_conditions":[5.1515145E0,1.8739355E0,7.286509E2,-2.627123E-3,-1.730022E-3,-2.2218598E-3,3.066144E-3],"split_indices":[0,0,2,0,0,0,0],"split_type":[0,0,0,0,0,0,0],"sum_hessian":[1.36E3,1.345E3,1.5E1,1.28E2,1.217E3,6E0,9E0],"tree_param":{"num_deleted":"0","num_feature":"4","num_nodes":"7","size_leaf_vector":"0"}},{"base_weights":[-1.6077975E-2,-1.7597787E-2,-1.0933053E-2,-2.7566928E-2,-1.6997173E-2,-8.1775505E-3,-3.0658992E-2],"categories":[],"categories_nodes":[],"categories_segments":[],"categories_sizes":[],"default_left":[1,1,1,0,0,0,0],"id":31,"left_children":[1,3,5,-1,-1,-1,-1],"loss_changes":[1.0449678E-2,5.8124065E-3,1.676236E-2,0E0,0E0,0E0,0E0],"parents":[2147483647,0,0,1,1,2,2],"right_children":[2,4,6,-1,-1,-1,-1],"split_conditions":[3.6215043E0,1.3540014E0,3.1711265E3,-2.756693E-3,-1.6997174E-3,-8.1775506E-4,-3.0658992E-3],"split_indices":[0,0,1,0,0,0,0],"split_type":[0,0,0,0,0,0,0],"sum_hessian":[1.36E3,1.048E3,3.12E2,5.7E1,9.91E2,2.75E2,3.7E1],"tree_param":{"num_deleted":"0","num_feature":"4","num_nodes":"7","size_leaf_vector":"0"}},{"base_weights":[-1.4476306E-2,-1.461109E-2,3.4901947E-2,-1.706891E-2,-1.2262622E-2,4.753538E-2,-1.499176E-3],"categories":[],"categories_nodes":[],"categories_segments":[],"categories_sizes":[],"default_left":[1,1,1,0,0,0,0],"id":32,"left_children":[1,3,5,-1,-1,-1,-1],"loss_changes":[9.567976E-3,7.6292455E-3,1.910748E-3,0E0,0E0,0E0,0E0],"parents":[2147483647,0,0,1,1,2,2],"right_children":[2,4,6,-1,-1,-1,-1],"split_conditions":[6.206865E0,2.9460716E0,6.2924557E0,-1.706891E-3,-1.2262622E-3,4.753538E-3,-1.499176E-4],"split_indices":[0,0,0,0,0,0,0],"split_type":[0,0,0,0,0,0,0],"sum_hessian":[1.36E3,1.357E3,3E0,6.6E2,6.97E2,2E0,1E0],"tree_param":{"num_deleted":"0","num_feature":"4","num_nodes":"7","size_leaf_vector":"0"}},{"base_weights":[-1.3027448E-2,-1.3666395E-2,-3.5138312E-3,-2.1531934E-2,-1.3100647E-2,4.402715E-2,-8.224007E-3],"categories":[],"categories_nodes":[],"categories_segments":[],"categories_sizes":[],"default_left":[1,1,1,0,0,0,0],"id":33,"left_children":[1,3,5,-1,-1,-1,-1],"loss_changes":[8.225083E-3,5.391538E-3,1.9843673E-2,0E0,0E0,0E0,0E0],"parents":[2147483647,0,0,1,1,2,2],"right_children":[2,4,6,-1,-1,-1,-1],"split_conditions":[4.378253E0,1.5641351E0,4.4048176E0,-2.1531933E-3,-1.3100648E-3,4.4027152E-3,-8.224007E-4],"split_indices":[0,0,0,0,0,0,0],"split_type":[0,0,0,0,0,0,0],"sum_hessian":[1.36E3,1.274E3,8.6E1,8.3E1,1.191E3,7E0,7.9E1],"tree_param":{"num_deleted":"0","num_feature":"4","num_nodes":"7","size_leaf_vector":"0"}},{"base_weights":[-1.1724617E-2,-1.1848249E-2,3.3179477E-2,-1.6303468E-2,-1.0862668E-2,4.4914644E-2,-1.0130107E-3],"categories":[],"categories_nodes":[],"categories_segments":[],"categories_sizes":[],"default_left":[1,1,1,0,0,0,0],"id":34,"left_children":[1,3,5,-1,-1,-1,-1],"loss_changes":[7.948801E-3,5.785838E-3,1.6505173E-3,0E0,0E0,0E0,0E0],"parents":[2147483647,0,0,1,1,2,2],"right_children":[2,4,6,-1,-1,-1,-1],"split_conditions":[6.206865E0,2.2501755E0,6.2924557E0,-1.6303469E-3,-1.0862668E-3,4.4914647E-3,-1.0130108E-4],"split_indices":[0,0,0,0,0,0,0],"split_type":[0,0,0,0,0,0,0],"sum_hessian":[1.36E3,1.357E3,3E0,2.43E2,1.114E3,2E0,1E0],"tree_param":{"num_deleted":"0","num_feature":"4","num_nodes":"7","size_leaf_vector":"0"}},{"base_weights":[-1.0550927E-2,-1.0795502E-2,1.0683386E-2,-1.0585508E-2,-3.779217E-2,-1.6926138E-2,2.8941713E-2],"categories":[],"categories_nodes":[],"categories_segments":[],"categories_sizes":[],"default_left":[1,1,1,0,0,0,0],"id":35,"left_children":[1,3,5,-1,-1,-1,-1],"loss_changes":[7.183522E-3,7.2306097E-3,8.5555315E-3,0E0,0E0,0E0,0E0],"parents":[2147483647,0,0,1,1,2,2],"right_children":[2,4,6,-1,-1,-1,-1],"split_conditions":[5.1515145E0,4.9585295E0,7.286509E2,-1.0585509E-3,-3.779217E-3,-1.6926138E-3,2.8941713E-3],"split_indices":[0,0,2,0,0,0,0],"split_type":[0,0,0,0,0,0,0],"sum_hessian":[1.36E3,1.345E3,1.5E1,1.336E3,9E0,6E0,9E0],"tree_param":{"num_deleted":"0","num_feature":"4","num_nodes":"7","size_leaf_vector":"0"}},{"base_weights":[-9.498507E-3,-9.886347E-3,3.2291503E-3,-1.9715508E-2,-9.524256E-3,5.816276E-2,-6.01615E-3],"categories":[],"categories_nodes":[],"categories_segments":[],"categories_sizes":[],"default_left":[1,1,1,0,0,0,0],"id":36,"left_children":[1,3,5,-1,-1,-1,-1],"loss_changes":[6.750211E-3,4.5137256E-3,2.1172902E-2,0E0,0E0,0E0,0E0],"parents":[2147483647,0,0,1,1,2,2],"right_children":[2,4,6,-1,-1,-1,-1],"split_conditions":[4.6602635E0,1.2414907E0,4.7814155E0,-1.971551E-3,-9.524256E-4,5.816276E-3,-6.01615E-4],"split_indices":[0,0,0,0,0,0,0],"split_type":[0,0,0,0,0,0,0],"sum_hessian":[1.36E3,1.32E3,4E1,4.5E1,1.275E3,5E0,3.5E1],"tree_param":{"num_deleted":"0","num_feature":"4","num_nodes":"7","size_leaf_vector":"0"}},{"base_weights":[-8.546975E-3,-9.53668E-3,-4.1105803E-3,-4.160158E-3,-1.0213383E-2,-1.1561486E-2,2.0203106E-3],"categories":[],"categories_nodes":[],"categories_segments":[],"categories_sizes":[],"default_left":[1,1,1,0,0,0,0],"id":37,"left_children":[1,3,5,-1,-1,-1,-1],"loss_changes":[5.9365705E-3,4.0033087E-3,1.144353E-2,0E0,0E0,0E0,0E0],"parents":[2147483647,0,0,1,1,2,2],"right_children":[2,4,6,-1,-1,-1,-1],"split_conditions":[3.7716942E0,4.5262613E2,9.406812E2,-4.160158E-4,-1.0213383E-3,-1.1561486E-3,2.0203106E-4],"split_indices":[0,3,3,0,0,0,0],"split_type":[0,0,0,0,0,0,0],"sum_hessian":[1.36E3,1.111E3,2.49E2,1.25E2,9.86E2,1.12E2,1.37E2],"tree_param":{"num_deleted":"0","num_feature":"4","num_nodes":"7","size_leaf_vector":"0"}},{"base_weights":[-7.6940334E-3,-6.741493E-3,-1.2324465E-2,-6.8719746E-3,7.035155E-2,-2.354963E-2,-9.705383E-3],"categories":[],"categories_nodes":[],"categories_segments":[],"categories_sizes":[],"default_left":[1,1,1,0,0,0,0],"id":38,"left_children":[1,3,5,-1,-1,-1,-1],"loss_changes":[5.919844E-3,1.18604675E-2,6.562751E-3,0E0,0E0,0E0,0E0],"parents":[2147483647,0,0,1,1,2,2],"right_children":[2,4,6,-1,-1,-1,-1],"split_conditions":[2.1582346E3,2.1526045E3,1.221995E3,-6.871975E-4,7.035155E-3,-2.354963E-3,-9.7053836E-4],"split_indices":[3,3,2,0,0,0,0],"split_type":[0,0,0,0,0,0,0],"sum_hessian":[1.36E3,1.13E3,2.3E2,1.129E3,1E0,4.2E1,1.88E2],"tree_param":{"num_deleted":"0","num_feature":"4","num_nodes":"7","size_leaf_vector":"0"}},{"base_weights":[-6.9224103E-3,-7.0269005E-3,3.0282602E-2,-6.1852382E-3,-1.1106416E-2,4.162085E-2,-1.8660724E-3],"categories":[],"categories_nodes":[],"categories_segments":[],"categories_sizes":[],"default_left":[1,1,1,0,0,0,0],"id":39,"left_children":[1,3,5,-1,-1,-1,-1],"loss_changes":[5.503759E-3,4.594095E-3,1.5357062E-3,0E0,0E0,0E0,0E0],"parents":[2147483647,0,0,1,1,2,2],"right_children":[2,4,6,-1,-1,-1,-1],"split_conditions":[6.206865E0,2.1582346E3,6.2924557E0,-6.1852386E-4,-1.1106416E-3,4.1620852E-3,-1.8660724E-4],"split_indices":[0,3,0,0,0,0,0],"split_type":[0,0,0,0,0,0,0],"sum_hessian":[1.36E3,1.357E3,3E0,1.127E3,2.3E2,2E0,1E0],"tree_param":{"num_deleted":"0","num_feature":"4","num_nodes":"7","size_leaf_vector":"0"}},{"base_weights":[-6.2285187E-3,-6.434931E-3,1.1525201E-2,-6.308017E-3,-4.7437586E-2,-2.6181776E-2,2.2240793E-2],"categories":[],"categories_nodes":[],"categories_segments":[],"categories_sizes":[],"default_left":[1,1,1,0,0,0,0],"id":40,"left_children":[1,3,5,-1,-1,-1,-1],"loss_changes":[5.061671E-3,6.7050904E-3,7.0471447E-3,0E0,0E0,0E0,0E0],"parents":[2147483647,0,0,1,1,2,2],"right_children":[2,4,6,-1,-1,-1,-1],"split_conditions":[5.1515145E0,5.0575876E0,7.666344E2,-6.308017E-4,-4.7437586E-3,-2.6181776E-3,2.2240793E-3],"split_indices":[0,0,1,0,0,0,0],"split_type":[0,0,0,0,0,0,0],"sum_hessian":[1.36E3,1.345E3,1.5E1,1.342E3,3E0,3E0,1.2E1],"tree_param":{"num_deleted":"0","num_feature":"4","num_nodes":"7","size_leaf_vector":"0"}},{"base_weights":[-5.609905E-3,-6.9627743E-3,-2.9361562E-3,-7.3132003E-3,5.138646E-3,-7.203318E-4,-1.4836208E-2],"categories":[],"categories_nodes":[],"categories_segments":[],"categories_sizes":[],"default_left":[1,1,1,0,0,0,0],"id":41,"left_children":[1,3,5,-1,-1,-1,-1],"loss_changes":[4.9026124E-3,3.8668886E-3,1.2092418E-2,0E0,0E0,0E0,0E0],"parents":[2147483647,0,0,1,1,2,2],"right_children":[2,4,6,-1,-1,-1,-1],"split_conditions":[3.3087723E0,6.3364746E3,2.1582346E3,-7.3132006E-4,5.138646E-4,-7.203318E-5,-1.4836208E-3],"split_indices":[0,2,3,0,0,0,0],"split_type":[0,0,0,0,0,0,0],"sum_hessian":[1.36E3,9.02E2,4.58E2,8.77E2,2.5E1,3.87E2,7.1E1],"tree_param":{"num_deleted":"0","num_feature":"4","num_nodes":"7","size_leaf_vector":"0"}},{"base_weights":[-5.050218E-3,-4.850692E-3,-2.1519711E-2,-6.5131867E-3,-2.5828346E-3,-1.3829364E-2,-4.113341E-2],"categories":[],"categories_nodes":[],"categories_segments":[],"categories_sizes":[],"default_left":[1,1,1,0,0,0,0],"id":42,"left_children":[1,3,5,-1,-1,-1,-1],"loss_changes":[4.3679886E-3,5.0580055E-3,1.84453E-3,0E0,0E0,0E0,0E0],"parents":[2147483647,0,0,1,1,2,2],"right_children":[2,4,6,-1,-1,-1,-1],"split_conditions":[8.621165E3,3.117756E0,3.6432872E0,-6.513187E-4,-2.5828346E-4,-1.3829365E-3,-4.113341E-3],"split_indices":[2,0,0,0,0,0,0],"split_type":[0,0,0,0,0,0,0],"sum_hessian":[1.36E3,1.345E3,1.5E1,7.75E2,5.7E2,1.2E1,3E0],"tree_param":{"num_deleted":"0","num_feature":"4","num_nodes":"7","size_leaf_vector":"0"}},{"base_weights":[-4.549903E-3,-4.8550097E-3,5.391475E-3,-4.5658997E-3,-1.8541774E-2,5.5262886E-2,-3.07019E-3],"categories":[],"categories_nodes":[],"categories_segments":[],"categories_sizes":[],"default_left":[1,1,1,0,0,0,0],"id":43,"left_children":[1,3,5,-1,-1,-1,-1],"loss_changes":[4.1543413E-3,5.1425193E-3,1.747147E-2,0E0,0E0,0E0,0E0],"parents":[2147483647,0,0,1,1,2,2],"right_children":[2,4,6,-1,-1,-1,-1],"split_conditions":[4.6602635E0,4.464712E0,4.7814155E0,-4.5658997E-4,-1.8541774E-3,5.526289E-3,-3.07019E-4],"split_indices":[0,0,0,0,0,0,0],"split_type":[0,0,0,0,0,0,0],"sum_hessian":[1.36E3,1.32E3,4E1,1.294E3,2.6E1,5E0,3.5E1],"tree_param":{"num_deleted":"0","num_feature":"4","num_nodes":"7","size_leaf_vector":"0"}},{"base_weights":[-4.0927776E-3,-4.181519E-3,2.705817E-2,-3.9984896E-3,-1.9283205E-2,3.7788313E-2,-2.566129E-3],"categories":[],"categories_nodes":[],"categories_segments":[],"categories_sizes":[],"default_left":[1,1,1,0,0,0,0],"id":44,"left_children":[1,3,5,-1,-1,-1,-1],"loss_changes":[3.8754717E-3,3.6764778E-3,1.3684614E-3,0E0,0E0,0E0,0E0],"parents":[2147483647,0,0,1,1,2,2],"right_children":[2,4,6,-1,-1,-1,-1],"split_conditions":[6.206865E0,8.621165E3,6.2924557E0,-3.9984897E-4,-1.9283205E-3,3.7788313E-3,-2.566129E-4],"split_indices":[0,2,0,0,0,0,0],"split_type":[0,0,0,0,0,0,0],"sum_hessian":[1.36E3,1.357E3,3E0,1.342E3,1.5E1,2E0,1E0],"tree_param":{"num_deleted":"0","num_feature":"4","num_nodes":"7","size_leaf_vector":"0"}},{"base_weights":[-3.6826222E-3,-7.244158E-3,-2.9020344E-3,-4.15139E-3,-9.363085E-3,-1.994811E-3,-7.1073407E-3],"categories":[],"categories_nodes":[],"categories_segments":[],"categories_sizes":[],"default_left":[1,1,1,0,0,0,0],"id":45,"left_children":[1,3,5,-1,-1,-1,-1],"loss_changes":[3.762683E-3,1.5601479E-3,4.2511616E-3,0E0,0E0,0E0,0E0],"parents":[2147483647,0,0,1,1,2,2],"right_children":[2,4,6,-1,-1,-1,-1],"split_conditions":[2.2501755E0,1.316569E3,2.1582346E3,-4.15139E-4,-9.363085E-4,-1.994811E-4,-7.107341E-4],"split_indices":[0,1,3,0,0,0,0],"split_type":[0,0,0,0,0,0,0],"sum_hessian":[1.36E3,2.43E2,1.117E3,1E2,1.43E2,9.2E2,1.97E2],"tree_param":{"num_deleted":"0","num_feature":"4","num_nodes":"7","size_leaf_vector":"0"}},{"base_weights":[-3.3160213E-3,-3.7345896E-3,2.8562818E-3,-3.6143786E-3,-4.1028008E-2,4.646434E-2,-1.5402276E-3],"categories":[],"categories_nodes":[],"categories_segments":[],"categories_sizes":[],"default_left":[1,1,1,0,0,0,0],"id":46,"left_children":[1,3,5,-1,-1,-1,-1],"loss_changes":[3.5268487E-3,5.5676326E-3,1.6751489E-2,0E0,0E0,0E0,0E0],"parents":[2147483647,0,0,1,1,2,2],"right_children":[2,4,6,-1,-1,-1,-1],"split_conditions":[4.378253E0,4.3700266E0,4.4048176E0,-3.6143788E-4,-4.102801E-3,4.646434E-3,-1.5402275E-4],"split_indices":[0,0,0,0,0,0,0],"split_type":[0,0,0,0,0,0,0],"sum_hessian":[1.36E3,1.274E3,8.6E1,1.271E3,3E0,7E0,7.9E1],"tree_param":{"num_deleted":"0","num_feature":"4","num_nodes":"7","size_leaf_vector":"0"}},{"base_weights":[-2.9843997E-3,-1.1462037E-2,-2.6924647E-3,-1.2471488E-2,-8.336007E-3,-2.8630956E-3,1.1360891E-2],"categories":[],"categories_nodes":[],"categories_segments":[],"categories_sizes":[],"default_left":[1,1,1,0,0,0,0],"id":47,"left_children":[1,3,5,-1,-1,-1,-1],"loss_changes":[3.3375006E-3,3.8038474E-5,3.1906078E-3,0E0,0E0,0E0,0E0],"parents":[2147483647,0,0,1,1,2,2],"right_children":[2,4,6,-1,-1,-1,-1],"split_conditions":[1.2302079E0,1.0926061E0,5.1515145E0,-1.2471488E-3,-8.336007E-4,-2.8630957E-4,1.1360891E-3],"split_indices":[0,0,0,0,0,0,0],"split_type":[0,0,0,0,0,0,0],"sum_hessian":[1.36E3,4.4E1,1.316E3,3.1E1,1.3E1,1.301E3,1.5E1],"tree_param":{"num_deleted":"0","num_feature":"4","num_nodes":"7","size_leaf_vector":"0"}},{"base_weights":[-2.6868628E-3,-2.4986158E-3,-1.457984E-2,-2.675541E-3,1.5780777E-2,-9.028056E-3,-3.0539935E-2],"categories":[],"categories_nodes":[],"categories_segments":[],"categories_sizes":[],"default_left":[1,1,1,0,0,0,0],"id":48,"left_children":[1,3,5,-1,-1,-1,-1],"loss_changes":[3.0106027E-3,4.379129E-3,1.5850309E-3,0E0,0E0,0E0,0E0],"parents":[2147483647,0,0,1,1,2,2],"right_children":[2,4,6,-1,-1,-1,-1],"split_conditions":[7.81777E3,6.7530176E3,3.6432872E0,-2.675541E-4,1.5780777E-3,-9.028056E-4,-3.0539937E-3],"split_indices":[2,2,0,0,0,0,0],"split_type":[0,0,0,0,0,0,0],"sum_hessian":[1.36E3,1.34E3,2E1,1.328E3,1.2E1,1.6E1,4E0],"tree_param":{"num_deleted":"0","num_feature":"4","num_nodes":"7","size_leaf_vector":"0"}},{"base_weights":[-2.4201197E-3,-2.498652E-3,2.4846673E-2,-2.575716E-3,2.4231408E-2,3.4925777E-2,-2.695322E-3],"categories":[],"categories_nodes":[],"categories_segments":[],"categories_sizes":[],"default_left":[1,1,1,0,0,0,0],"id":49,"left_children":[1,3,5,-1,-1,-1,-1],"loss_changes":[2.9764306E-3,2.859789E-3,1.2045309E-3,0E0,0E0,0E0,0E0],"parents":[2147483647,0,0,1,1,2,2],"right_children":[2,4,6,-1,-1,-1,-1],"split_conditions":[6.206865E0,1.2477094E4,6.2924557E0,-2.575716E-4,2.423141E-3,3.4925777E-3,-2.695322E-4],"split_indices":[0,1,0,0,0,0,0],"split_type":[0,0,0,0,0,0,0],"sum_hessian":[1.36E3,1.357E3,3E0,1.354E3,3E0,2E0,1E0],"tree_param":{"num_deleted":"0","num_feature":"4","num_nodes":"7","size_leaf_vector":"0"}}]},"name":"gbtree"},"learner_model_param":{"base_score":"5E-1","boost_from_average":"1","num_class":"0","num_feature":"4","num_target":"1"},"objective":{"name":"reg:squarederror","reg_loss_param":{"scale_pos_weight":"1"}}},"version":[1,7,6]}