{"learner":{"attributes":{"best_iteration":"49","best_ntree_limit":"50","scikit_learn":"{\"n_estimators\": 50, \"objective\": \"reg:squarederror\", \"max_depth\": 2, \"max_leaves\": null, \"max_bin\": null, \"grow_policy\": null, \"learning_rate\": 0.1, \"verbosity\": null, \"booster\": null, \"tree_method\": null, \"gamma\": null, \"min_child_weight\": null, \"max_delta_step\": null, \"subsample\": null, \"sampling_method\": null, \"colsample_bytree\": null, \"colsample_bylevel\": null, \"colsample_bynode\": null, \"reg_alpha\": null, \"reg_lambda\": null, \"scale_pos_weight\": null, \"base_score\": null, \"missing\": NaN, \"num_parallel_tree\": null, \"random_state\": null, \"n_jobs\": null, \"monotone_constraints\": null, \"interaction_constraints\": null, \"importance_type\": null, \"gpu_id\": null, \"validate_parameters\": null, \"predictor\": null, \"enable_categorical\": false, \"feature_types\": null, \"max_cat_to_onehot\": null, \"max_cat_threshold\": null, \"eval_metric\": null, \"early_stopping_rounds\": null, \"callbacks\": null, \"_estimator_type\": \"regressor\"}"},"feature_names":[],"feature_types":[],"gradient_booster":{"model":{"gbtree_model_param":{"num_parallel_tree":"1","num_trees":"50","size_leaf_vector":"0"},"tree_info":[0,0,0,0,0,0,0,0,0,0,0,0,0,0,0,0,0,0,0,0,0,0,0,0,0,0,0,0,0,0,0,0,0,0,0,0,0,0,0,0,0,0,0,0,0,0,0,0,0,0],"trees":[{"base_weights":[-4.14593E-1,-4.3428513E-1,-3.4727156E-1,-4.593663E-1,-4.1707638E-1,-3.510286E-1,-9.653158E-2],"categories":[],"categories_nodes":[],"categories_segments":[],"categories_sizes":[],"default_left":[1,1,1,0,0,0,0],"id":0,"left_children":[1,3,5,-1,-1,-1,-1],"loss_changes":[1.6534729E0,2.611847E-1,2.6096725E-1,0E0,0E0,0E0,0E0],"parents":[2147483647,0,0,1,1,2,2],"right_children":[2,4,6,-1,-1,-1,-1],"split_conditions":[3.6215043E0,2.5583396E0,6.057186E0,-4.593663E-2,-4.170764E-2,-3.510286E-2,-9.653158E-3],"split_indices":[0,0,0,0,0,0,0],"split_type":[0,0,0,0,0,0,0],"sum_hessian":[1.36E3,1.048E3,3.12E2,4.16E2,6.32E2,3.07E2,5E0],"tree_param":{"num_deleted":"0","num_feature":"4","num_nodes":"7","size_leaf_vector":"0"}},{"base_weights":[-3.73231E-1,-3.9094016E-1,-3.126874E-1,-4.135398E-1,-3.7543464E-1,-3.239339E-1,-2.3017555E-1],"categories":[],"categories_nodes":[],"categories_segments":[],"categories_sizes":[],"default_left":[1,1,1,0,0,0,0],"id":1,"left_children":[1,3,5,-1,-1,-1,-1],"loss_changes":[1.3369751E0,2.1234131E-1,2.158947E-1,0E0,0E0,0E0,0E0],"parents":[2147483647,0,0,1,1,2,2],"right_children":[2,4,6,-1,-1,-1,-1],"split_conditions":[3.6215043E0,2.5583396E0,4.6602635E0,-4.1353982E-2,-3.7543464E-2,-3.2393392E-2,-2.3017555E-2],"split_indices":[0,0,0,0,0,0,0],"split_type":[0,0,0,0,0,0,0],"sum_hessian":[1.36E3,1.048E3,3.12E2,4.16E2,6.32E2,2.72E2,4E1],"tree_param":{"num_deleted":"0","num_feature":"4","num_nodes":"7","size_leaf_vector":"0"}},{"base_weights":[-3.3600658E-1,-3.5683182E-1,-2.9305404E-1,-3.8374642E-1,-3.4766847E-1,-3.0626193E-1,-2.3603933E-1],"categories":[],"categories_nodes":[],"categories_segments":[],"categories_sizes":[],"default_left":[1,1,1,0,0,0,0],"id":2,"left_children":[1,3,5,-1,-1,-1,-1],"loss_changes":[1.1128387E0,9.150696E-2,2.6657867E-1,0E0,0E0,0E0,0E0],"parents":[2147483647,0,0,1,1,2,2],"right_children":[2,4,6,-1,-1,-1,-1],"split_conditions":[3.3166223E0,2.1857324E0,4.3722305E0,-3.8374644E-2,-3.476685E-2,-3.0626193E-2,-2.3603933E-2],"split_indices":[0,0,0,0,0,0,0],"split_type":[0,0,0,0,0,0,0],"sum_hessian":[1.36E3,9.11E2,4.49E2,2.21E2,6.9E2,3.61E2,8.8E1],"tree_param":{"num_deleted":"0","num_feature":"4","num_nodes":"7","size_leaf_vector":"0"}},{"base_weights":[-3.024995E-1,-3.1453064E-1,-2.4165338E-1,-3.276435E-1,-2.9208252E-1,-2.4571788E-1,-4.9636036E-2],"categories":[],"categories_nodes":[],"categories_segments":[],"categories_sizes":[],"default_left":[1,1,1,0,0,0,0],"id":3,"left_children":[1,3,5,-1,-1,-1,-1],"loss_changes":[9.2030334E-1,2.3781586E-1,1.6652775E-1,0E0,0E0,0E0,0E0],"parents":[2147483647,0,0,1,1,2,2],"right_children":[2,4,6,-1,-1,-1,-1],"split_conditions":[3.8392067E0,3.018133E0,6.057186E0,-3.2764353E-2,-2.9208252E-2,-2.457179E-2,-4.963604E-3],"split_indices":[0,0,0,0,0,0,0],"split_type":[0,0,0,0,0,0,0],"sum_hessian":[1.36E3,1.132E3,2.28E2,7.06E2,4.26E2,2.23E2,5E0],"tree_param":{"num_deleted":"0","num_feature":"4","num_nodes":"7","size_leaf_vector":"0"}},{"base_weights":[-2.7231678E-1,-2.8313226E-1,-2.1761703E-1,-2.994953E-1,-2.6840815E-1,-2.2125581E-1,-4.5499697E-2],"categories":[],"categories_nodes":[],"categories_segments":[],"categories_sizes":[],"default_left":[1,1,1,0,0,0,0],"id":4,"left_children":[1,3,5,-1,-1,-1,-1],"loss_changes":[7.4355316E-1,1.925888E-1,1.3335514E-1,0E0,0E0,0E0,0E0],"parents":[2147483647,0,0,1,1,2,2],"right_children":[2,4,6,-1,-1,-1,-1],"split_conditions":[3.8392067E0,2.7251549E0,6.057186E0,-2.9949531E-2,-2.6840815E-2,-2.2125581E-2,-4.54997E-3],"split_indices":[0,0,0,0,0,0,0],"split_type":[0,0,0,0,0,0,0],"sum_hessian":[1.36E3,1.132E3,2.28E2,5.27E2,6.05E2,2.23E2,5E0],"tree_param":{"num_deleted":"0","num_feature":"4","num_nodes":"7","size_leaf_vector":"0"}},{"base_weights":[-2.4514645E-1,-2.60692E-1,-2.1309601E-1,-2.876768E-1,-2.541218E-1,-2.2344281E-1,-1.6861692E-1],"categories":[],"categories_nodes":[],"categories_segments":[],"categories_sizes":[],"default_left":[1,1,1,0,0,0,0],"id":5,"left_children":[1,3,5,-1,-1,-1,-1],"loss_changes":[6.225586E-1,8.85849E-2,1.6942024E-1,0E0,0E0,0E0,0E0],"parents":[2147483647,0,0,1,1,2,2],"right_children":[2,4,6,-1,-1,-1,-1],"split_conditions":[3.3166223E0,2.0007892E0,4.3722305E0,-2.876768E-2,-2.5412181E-2,-2.2344282E-2,-1.6861692E-2],"split_indices":[0,0,0,0,0,0,0],"split_type":[0,0,0,0,0,0,0],"sum_hessian":[1.36E3,9.11E2,4.49E2,1.7E2,7.41E2,3.61E2,8.8E1],"tree_param":{"num_deleted":"0","num_feature":"4","num_nodes":"7","size_leaf_vector":"0"}},{"base_weights":[-2.2070043E-1,-2.3649946E-1,-1.9485389E-1,-2.59352E-1,-2.304434E-1,-2.0020297E-1,-1.2721694E-1],"categories":[],"categories_nodes":[],"categories_segments":[],"categories_sizes":[],"default_left":[1,1,1,0,0,0,0],"id":6,"left_children":[1,3,5,-1,-1,-1,-1],"loss_changes":[5.096817E-1,5.6488037E-2,1.633873E-1,0E0,0E0,0E0,0E0],"parents":[2147483647,0,0,1,1,2,2],"right_children":[2,4,6,-1,-1,-1,-1],"split_conditions":[3.223476E0,1.9971418E0,4.6602635E0,-2.5935201E-2,-2.304434E-2,-2.0020297E-2,-1.2721694E-2],"split_indices":[0,0,0,0,0,0,0],"split_type":[0,0,0,0,0,0,0],"sum_hessian":[1.36E3,8.39E2,5.21E2,1.67E2,6.72E2,4.81E2,4E1],"tree_param":{"num_deleted":"0","num_feature":"4","num_nodes":"7","size_leaf_vector":"0"}},{"base_weights":[-1.9869041E-1,-2.0690629E-1,-1.5717395E-1,-2.2380765E-1,-1.983503E-1,-1.6054983E-1,-2.717403E-2],"categories":[],"categories_nodes":[],"categories_segments":[],"categories_sizes":[],"default_left":[1,1,1,0,0,0,0],"id":7,"left_children":[1,3,5,-1,-1,-1,-1],"loss_changes":[4.317093E-1,1.19449615E-1,9.613705E-2,0E0,0E0,0E0,0E0],"parents":[2147483647,0,0,1,1,2,2],"right_children":[2,4,6,-1,-1,-1,-1],"split_conditions":[3.8392067E0,2.5020618E0,6.013875E0,-2.2380766E-2,-1.983503E-2,-1.6054984E-2,-2.717403E-3],"split_indices":[0,0,0,0,0,0,0],"split_type":[0,0,0,0,0,0,0],"sum_hessian":[1.36E3,1.132E3,2.28E2,3.72E2,7.6E2,2.22E2,6E0],"tree_param":{"num_deleted":"0","num_feature":"4","num_nodes":"7","size_leaf_vector":"0"}},{"base_weights":[-1.788662E-1,-1.8918101E-1,-1.5144186E-1,-2.0891643E-1,-1.8379073E-1,-1.5711789E-1,-1.0109397E-1],"categories":[],"categories_nodes":[],"categories_segments":[],"categories_sizes":[],"default_left":[1,1,1,0,0,0,0],"id":8,"left_children":[1,3,5,-1,-1,-1,-1],"loss_changes":[3.5634995E-1,6.638718E-2,9.1854095E-2,0E0,0E0,0E0,0E0],"parents":[2147483647,0,0,1,1,2,2],"right_children":[2,4,6,-1,-1,-1,-1],"split_conditions":[3.4726806E0,2.1384263E0,4.6602635E0,-2.0891642E-2,-1.8379074E-2,-1.571179E-2,-1.0109398E-2],"split_indices":[0,0,0,0,0,0,0],"split_type":[0,0,0,0,0,0,0],"sum_hessian":[1.36E3,9.84E2,3.76E2,2.03E2,7.81E2,3.36E2,4E1],"tree_param":{"num_deleted":"0","num_feature":"4","num_nodes":"7","size_leaf_vector":"0"}},{"base_weights":[-1.610274E-1,-1.751121E-1,-1.4416108E-1,-1.9459115E-1,-1.7096995E-1,-1.5013732E-1,-1.08360015E-1],"categories":[],"categories_nodes":[],"categories_segments":[],"categories_sizes":[],"default_left":[1,1,1,0,0,0,0],"id":9,"left_children":[1,3,5,-1,-1,-1,-1],"loss_changes":[2.98069E-1,2.6195526E-2,1.1745453E-1,0E0,0E0,0E0,0E0],"parents":[2147483647,0,0,1,1,2,2],"right_children":[2,4,6,-1,-1,-1,-1],"split_conditions":[3.0647087E0,1.8292025E0,4.3580112E0,-1.9459115E-2,-1.7096994E-2,-1.5013732E-2,-1.08360015E-2],"split_indices":[0,0,0,0,0,0,0],"split_type":[0,0,0,0,0,0,0],"sum_hessian":[1.36E3,7.36E2,6.24E2,1.21E2,6.15E2,5.32E2,9.2E1],"tree_param":{"num_deleted":"0","num_feature":"4","num_nodes":"7","size_leaf_vector":"0"}},{"base_weights":[-1.449705E-1,-1.5118228E-1,-1.1360415E-1,-1.5822971E-1,-1.391595E-1,-1.1621131E-1,2.6637863E-3],"categories":[],"categories_nodes":[],"categories_segments":[],"categories_sizes":[],"default_left":[1,1,1,0,0,0,0],"id":10,"left_children":[1,3,5,-1,-1,-1,-1],"loss_changes":[2.480011E-1,7.398224E-2,6.972623E-2,0E0,0E0,0E0,0E0],"parents":[2147483647,0,0,1,1,2,2],"right_children":[2,4,6,-1,-1,-1,-1],"split_conditions":[3.8392067E0,3.018133E0,6.057186E0,-1.5822971E-2,-1.391595E-2,-1.1621132E-2,2.6637863E-4],"split_indices":[0,0,0,0,0,0,0],"split_type":[0,0,0,0,0,0,0],"sum_hessian":[1.36E3,1.132E3,2.28E2,7.06E2,4.26E2,2.23E2,5E0],"tree_param":{"num_deleted":"0","num_feature":"4","num_nodes":"7","size_leaf_vector":"0"}},{"base_weights":[-1.3050365E-1,-1.3612024E-1,-1.0243931E-1,-1.5095074E-1,-1.309929E-1,-1.0500234E-1,-5.421732E-3],"categories":[],"categories_nodes":[],"categories_segments":[],"categories_sizes":[],"default_left":[1,1,1,0,0,0,0],"id":11,"left_children":[1,3,5,-1,-1,-1,-1],"loss_changes":[2.0058441E-1,6.622887E-2,5.6871414E-2,0E0,0E0,0E0,0E0],"parents":[2147483647,0,0,1,1,2,2],"right_children":[2,4,6,-1,-1,-1,-1],"split_conditions":[3.8369255E0,2.356911E0,6.013875E0,-1.5095075E-2,-1.309929E-2,-1.0500235E-2,-5.421732E-4],"split_indices":[0,0,0,0,0,0,0],"split_type":[0,0,0,0,0,0,0],"sum_hessian":[1.36E3,1.13E3,2.3E2,2.83E2,8.47E2,2.24E2,6E0],"tree_param":{"num_deleted":"0","num_feature":"4","num_nodes":"7","size_leaf_vector":"0"}},{"base_weights":[-1.1748212E-1,-1.2658487E-1,-1.0260894E-1,-1.4617504E-1,-1.2355663E-1,-1.0779043E-1,-7.6188974E-2],"categories":[],"categories_nodes":[],"categories_segments":[],"categories_sizes":[],"default_left":[1,1,1,0,0,0,0],"id":12,"left_children":[1,3,5,-1,-1,-1,-1],"loss_changes":[1.7127419E-1,3.177166E-2,6.324625E-2,0E0,0E0,0E0,0E0],"parents":[2147483647,0,0,1,1,2,2],"right_children":[2,4,6,-1,-1,-1,-1],"split_conditions":[3.223476E0,1.7286634E0,4.3722305E0,-1.4617505E-2,-1.2355663E-2,-1.0779044E-2,-7.6188976E-3],"split_indices":[0,0,0,0,0,0,0],"split_type":[0,0,0,0,0,0,0],"sum_hessian":[1.36E3,8.39E2,5.21E2,1.06E2,7.33E2,4.33E2,8.8E1],"tree_param":{"num_deleted":"0","num_feature":"4","num_nodes":"7","size_leaf_vector":"0"}},{"base_weights":[-1.0576724E-1,-1.15872175E-1,-9.4698615E-2,-1.3169415E-1,-1.1286248E-1,-9.722111E-2,-5.455153E-2],"categories":[],"categories_nodes":[],"categories_segments":[],"categories_sizes":[],"default_left":[1,1,1,0,0,0,0],"id":13,"left_children":[1,3,5,-1,-1,-1,-1],"loss_changes":[1.4125156E-1,1.8803596E-2,6.1028957E-2,0E0,0E0,0E0,0E0],"parents":[2147483647,0,0,1,1,2,2],"right_children":[2,4,6,-1,-1,-1,-1],"split_conditions":[3.018133E0,1.7286634E0,4.6602635E0,-1.3169415E-2,-1.1286248E-2,-9.722111E-3,-5.455153E-3],"split_indices":[0,0,0,0,0,0,0],"split_type":[0,0,0,0,0,0,0],"sum_hessian":[1.36E3,7.06E2,6.54E2,1.06E2,6E2,6.14E2,4E1],"tree_param":{"num_deleted":"0","num_feature":"4","num_nodes":"7","size_leaf_vector":"0"}},{"base_weights":[-9.521964E-2,-1.0044342E-1,-7.740825E-2,-1.1199001E-1,-9.682331E-2,-7.8933485E-2,1.378867E-2],"categories":[],"categories_nodes":[],"categories_segments":[],"categories_sizes":[],"default_left":[1,1,1,0,0,0,0],"id":14,"left_children":[1,3,5,-1,-1,-1,-1],"loss_changes":[1.1885548E-1,3.300476E-2,4.462588E-2,0E0,0E0,0E0,0E0],"parents":[2147483647,0,0,1,1,2,2],"right_children":[2,4,6,-1,-1,-1,-1],"split_conditions":[3.6215043E0,2.2501755E0,6.057186E0,-1.1199001E-2,-9.682331E-3,-7.893349E-3,1.3788671E-3],"split_indices":[0,0,0,0,0,0,0],"split_type":[0,0,0,0,0,0,0],"sum_hessian":[1.36E3,1.048E3,3.12E2,2.43E2,8.05E2,3.07E2,5E0],"tree_param":{"num_deleted":"0","num_feature":"4","num_nodes":"7","size_leaf_vector":"0"}},{"base_weights":[-8.571781E-2,-8.95954E-2,-6.574208E-2,-9.7512834E-2,-8.489198E-2,-6.758094E-2,1.2639617E-2],"categories":[],"categories_nodes":[],"categories_segments":[],"categories_sizes":[],"default_left":[1,1,1,0,0,0,0],"id":15,"left_children":[1,3,5,-1,-1,-1,-1],"loss_changes":[9.953022E-2,3.406334E-2,3.328395E-2,0E0,0E0,0E0,0E0],"parents":[2147483647,0,0,1,1,2,2],"right_children":[2,4,6,-1,-1,-1,-1],"split_conditions":[3.86021E0,2.5583396E0,6.057186E0,-9.751284E-3,-8.489198E-3,-6.758094E-3,1.2639617E-3],"split_indices":[0,0,0,0,0,0,0],"split_type":[0,0,0,0,0,0,0],"sum_hessian":[1.36E3,1.136E3,2.24E2,4.16E2,7.2E2,2.19E2,5E0],"tree_param":{"num_deleted":"0","num_feature":"4","num_nodes":"7","size_leaf_vector":"0"}},{"base_weights":[-7.716347E-2,-8.4683105E-2,-6.840722E-2,-9.789334E-2,-8.227446E-2,-7.169881E-2,-4.7445294E-2],"categories":[],"categories_nodes":[],"categories_segments":[],"categories_sizes":[],"default_left":[1,1,1,0,0,0,0],"id":16,"left_children":[1,3,5,-1,-1,-1,-1],"loss_changes":[8.382034E-2,1.5110493E-2,4.0343046E-2,0E0,0E0,0E0,0E0],"parents":[2147483647,0,0,1,1,2,2],"right_children":[2,4,6,-1,-1,-1,-1],"split_conditions":[3.0520916E0,1.7286634E0,4.3722305E0,-9.789335E-3,-8.227446E-3,-7.169881E-3,-4.7445293E-3],"split_indices":[0,0,0,0,0,0,0],"split_type":[0,0,0,0,0,0,0],"sum_hessian":[1.36E3,7.27E2,6.33E2,1.06E2,6.21E2,5.45E2,8.8E1],"tree_param":{"num_deleted":"0","num_feature":"4","num_nodes":"7","size_leaf_vector":"0"}},{"base_weights":[-6.946911E-2,-7.4589886E-2,-5.8936622E-2,-8.7281786E-2,-7.2538055E-2,-5.9898943E-2,1.0521387E-2],"categories":[],"categories_nodes":[],"categories_segments":[],"categories_sizes":[],"default_left":[1,1,1,0,0,0,0],"id":17,"left_children":[1,3,5,-1,-1,-1,-1],"loss_changes":[6.900883E-2,1.7418861E-2,3.0708551E-2,0E0,0E0,0E0,0E0],"parents":[2147483647,0,0,1,1,2,2],"right_children":[2,4,6,-1,-1,-1,-1],"split_conditions":[3.3166223E0,1.8292025E0,6.013875E0,-8.728179E-3,-7.2538056E-3,-5.9898943E-3,1.0521387E-3],"split_indices":[0,0,0,0,0,0,0],"split_type":[0,0,0,0,0,0,0],"sum_hessian":[1.36E3,9.11E2,4.49E2,1.21E2,7.9E2,4.43E2,6E0],"tree_param":{"num_deleted":"0","num_feature":"4","num_nodes":"7","size_leaf_vector":"0"}},{"base_weights":[-6.2537566E-2,-6.477134E-2,-4.2107586E-2,-6.9275774E-2,-5.9262857E-2,-4.483685E-2,5.9849557E-2],"categories":[],"categories_nodes":[],"categories_segments":[],"categories_sizes":[],"default_left":[1,1,1,0,0,0,0],"id":18,"left_children":[1,3,5,-1,-1,-1,-1],"loss_changes":[5.9382915E-2,2.628994E-2,4.0806144E-2,0E0,0E0,0E0,0E0],"parents":[2147483647,0,0,1,1,2,2],"right_children":[2,4,6,-1,-1,-1,-1],"split_conditions":[4.128564E0,2.9568052E0,4.701374E3,-6.9275773E-3,-5.926286E-3,-4.483685E-3,5.984956E-3],"split_indices":[0,0,1,0,0,0,0],"split_type":[0,0,0,0,0,0,0],"sum_hessian":[1.36E3,1.224E3,1.36E2,6.67E2,5.57E2,1.33E2,3E0],"tree_param":{"num_deleted":"0","num_feature":"4","num_nodes":"7","size_leaf_vector":"0"}},{"base_weights":[-5.6292154E-2,-5.9003826E-2,-4.233898E-2,-6.986095E-2,-5.706259E-2,-7.040372E-2,-3.679861E-2],"categories":[],"categories_nodes":[],"categories_segments":[],"categories_sizes":[],"default_left":[1,1,1,0,0,0,0],"id":19,"left_children":[1,3,5,-1,-1,-1,-1],"loss_changes":[4.899788E-2,1.9977093E-2,3.239423E-2,0E0,0E0,0E0,0E0],"parents":[2147483647,0,0,1,1,2,2],"right_children":[2,4,6,-1,-1,-1,-1],"split_conditions":[3.86021E0,1.9971418E0,7.1963025E2,-6.986095E-3,-5.706259E-3,-7.0403717E-3,-3.679861E-3],"split_indices":[0,0,1,0,0,0,0],"split_type":[0,0,0,0,0,0,0],"sum_hessian":[1.36E3,1.136E3,2.24E2,1.67E2,9.69E2,3.5E1,1.89E2],"tree_param":{"num_deleted":"0","num_feature":"4","num_nodes":"7","size_leaf_vector":"0"}},{"base_weights":[-5.0680142E-2,-5.2224334E-2,-2.9064408E-2,-5.7421736E-2,-4.845553E-2,-5.2445542E-2,-9.620712E-3],"categories":[],"categories_nodes":[],"categories_segments":[],"categories_sizes":[],"default_left":[1,1,1,0,0,0,0],"id":20,"left_children":[1,3,5,-1,-1,-1,-1],"loss_changes":[4.391098E-2,2.20747E-2,4.1774698E-2,0E0,0E0,0E0,0E0],"parents":[2147483647,0,0,1,1,2,2],"right_children":[2,4,6,-1,-1,-1,-1],"split_conditions":[4.3580112E0,2.7251549E0,1.1153356E3,-5.7421736E-3,-4.845553E-3,-5.2445545E-3,-9.6207124E-4],"split_indices":[0,0,2,0,0,0,0],"split_type":[0,0,0,0,0,0,0],"sum_hessian":[1.36E3,1.268E3,9.2E1,5.27E2,7.41E2,4.1E1,5.1E1],"tree_param":{"num_deleted":"0","num_feature":"4","num_nodes":"7","size_leaf_vector":"0"}},{"base_weights":[-4.5624465E-2,-4.6983518E-2,-2.5672771E-2,-5.059388E-2,-4.2398844E-2,-4.732586E-2,-6.191469E-3],"categories":[],"categories_nodes":[],"categories_segments":[],"categories_sizes":[],"default_left":[1,1,1,0,0,0,0],"id":21,"left_children":[1,3,5,-1,-1,-1,-1],"loss_changes":[3.5697937E-2,1.8925905E-2,3.7249893E-2,0E0,0E0,0E0,0E0],"parents":[2147483647,0,0,1,1,2,2],"right_children":[2,4,6,-1,-1,-1,-1],"split_conditions":[4.3722305E0,3.018133E0,1.1153356E3,-5.059388E-3,-4.2398847E-3,-4.732586E-3,-6.191469E-4],"split_indices":[0,0,2,0,0,0,0],"split_type":[0,0,0,0,0,0,0],"sum_hessian":[1.36E3,1.272E3,8.8E1,7.06E2,5.66E2,4.1E1,4.7E1],"tree_param":{"num_deleted":"0","num_feature":"4","num_nodes":"7","size_leaf_vector":"0"}},{"base_weights":[-4.107278E-2,-4.190713E-2,-1.452437E-2,-4.8389956E-2,-3.945104E-2,-4.3510344E-2,1.2572579E-2],"categories":[],"categories_nodes":[],"categories_segments":[],"categories_sizes":[],"default_left":[1,1,1,0,0,0,0],"id":22,"left_children":[1,3,5,-1,-1,-1,-1],"loss_changes":[2.9538393E-2,1.9092798E-2,3.432059E-2,0E0,0E0,0E0,0E0],"parents":[2147483647,0,0,1,1,2,2],"right_children":[2,4,6,-1,-1,-1,-1],"split_conditions":[4.6260967E0,2.4816303E0,1.2160138E3,-4.8389956E-3,-3.9451043E-3,-4.3510343E-3,1.2572579E-3],"split_indices":[0,0,2,0,0,0,0],"split_type":[0,0,0,0,0,0,0],"sum_hessian":[1.36E3,1.318E3,4.2E1,3.57E2,9.61E2,2E1,2.2E1],"tree_param":{"num_deleted":"0","num_feature":"4","num_nodes":"7","size_leaf_vector":"0"}},{"base_weights":[-3.6974233E-2,-3.9709445E-2,-2.9729772E-2,-5.5300422E-2,-3.8674302E-2,-3.0209947E-2,7.5407825E-2],"categories":[],"categories_nodes":[],"categories_segments":[],"categories_sizes":[],"default_left":[1,1,1,0,0,0,0],"id":23,"left_children":[1,3,5,-1,-1,-1,-1],"loss_changes":[2.578795E-2,1.37581825E-2,2.1310687E-2,0E0,0E0,0E0,0E0],"parents":[2147483647,0,0,1,1,2,2],"right_children":[2,4,6,-1,-1,-1,-1],"split_conditions":[3.4726806E0,1.3621168E0,1.1510035E4,-5.530042E-3,-3.8674304E-3,-3.0209948E-3,7.5407824E-3],"split_indices":[0,0,1,0,0,0,0],"split_type":[0,0,0,0,0,0,0],"sum_hessian":[1.36E3,9.84E2,3.76E2,5.8E1,9.26E2,3.75E2,1E0],"tree_param":{"num_deleted":"0","num_feature":"4","num_nodes":"7","size_leaf_vector":"0"}},{"base_weights":[-3.3280388E-2,-3.400781E-2,-1.0193136E-2,-4.5933988E-2,-3.2991774E-2,-3.6489356E-2,1.4259636E-2],"categories":[],"categories_nodes":[],"categories_segments":[],"categories_sizes":[],"default_left":[1,1,1,0,0,0,0],"id":24,"left_children":[1,3,5,-1,-1,-1,-1],"loss_changes":[2.251029E-2,1.4467478E-2,2.8169993E-2,0E0,0E0,0E0,0E0],"parents":[2147483647,0,0,1,1,2,2],"right_children":[2,4,6,-1,-1,-1,-1],"split_conditions":[4.6260967E0,1.6913098E0,1.2160138E3,-4.593399E-3,-3.2991774E-3,-3.6489356E-3,1.4259637E-3],"split_indices":[0,0,2,0,0,0,0],"split_type":[0,0,0,0,0,0,0],"sum_hessian":[1.36E3,1.318E3,4.2E1,1E2,1.218E3,2E1,2.2E1],"tree_param":{"num_deleted":"0","num_feature":"4","num_nodes":"7","size_leaf_vector":"0"}},{"base_weights":[-2.9959783E-2,-3.3009343E-2,-2.499505E-2,-4.5348566E-2,-3.2036167E-2,-2.5324358E-2,7.3287025E-2],"categories":[],"categories_nodes":[],"categories_segments":[],"categories_sizes":[],"default_left":[1,1,1,0,0,0,0],"id":25,"left_children":[1,3,5,-1,-1,-1,-1],"loss_changes":[1.9780755E-2,8.63415E-3,1.8750519E-2,0E0,0E0,0E0,0E0],"parents":[2147483647,0,0,1,1,2,2],"right_children":[2,4,6,-1,-1,-1,-1],"split_conditions":[3.223476E0,1.3621168E0,1.2477094E4,-4.534857E-3,-3.2036167E-3,-2.5324358E-3,7.3287026E-3],"split_indices":[0,0,1,0,0,0,0],"split_type":[0,0,0,0,0,0,0],"sum_hessian":[1.36E3,8.39E2,5.21E2,5.8E1,7.81E2,5.2E2,1E0],"tree_param":{"num_deleted":"0","num_feature":"4","num_nodes":"7","size_leaf_vector":"0"}},{"base_weights":[-2.6965966E-2,-2.7919421E-2,-1.3025353E-2,-3.525652E-2,-2.6779681E-2,-3.0357353E-2,2.4115092E-3],"categories":[],"categories_nodes":[],"categories_segments":[],"categories_sizes":[],"default_left":[1,1,1,0,0,0,0],"id":26,"left_children":[1,3,5,-1,-1,-1,-1],"loss_changes":[1.7726421E-2,9.701133E-3,2.388531E-2,0E0,0E0,0E0,0E0],"parents":[2147483647,0,0,1,1,2,2],"right_children":[2,4,6,-1,-1,-1,-1],"split_conditions":[4.3722305E0,1.9971418E0,1.1153356E3,-3.525652E-3,-2.6779682E-3,-3.0357353E-3,2.4115092E-4],"split_indices":[0,0,2,0,0,0,0],"split_type":[0,0,0,0,0,0,0],"sum_hessian":[1.36E3,1.272E3,8.8E1,1.67E2,1.105E3,4.1E1,4.7E1],"tree_param":{"num_deleted":"0","num_feature":"4","num_nodes":"7","size_leaf_vector":"0"}},{"base_weights":[-2.427598E-2,-2.4640705E-2,7.923778E-3,-2.7492115E-2,-2.145229E-2,-3.2100856E-2,3.5148643E-2],"categories":[],"categories_nodes":[],"categories_segments":[],"categories_sizes":[],"default_left":[1,1,1,0,0,0,0],"id":27,"left_children":[1,3,5,-1,-1,-1,-1],"loss_changes":[1.6178966E-2,1.1647344E-2,1.8562946E-2,0E0,0E0,0E0,0E0],"parents":[2147483647,0,0,1,1,2,2],"right_children":[2,4,6,-1,-1,-1,-1],"split_conditions":[5.1515145E0,3.018133E0,7.286509E2,-2.7492116E-3,-2.145229E-3,-3.2100857E-3,3.5148642E-3],"split_indices":[0,0,2,0,0,0,0],"split_type":[0,0,0,0,0,0,0],"sum_hessian":[1.36E3,1.345E3,1.5E1,7.06E2,6.39E2,6E0,9E0],"tree_param":{"num_deleted":"0","num_feature":"4","num_nodes":"7","size_leaf_vector":"0"}},{"base_weights":[-2.1851754E-2,-2.2010462E-2,3.749235E-2,-2.4746792E-2,-1.9009547E-2,4.87072E-2,1.9239038E-3],"categories":[],"categories_nodes":[],"categories_segments":[],"categories_sizes":[],"default_left":[1,1,1,0,0,0,0],"id":28,"left_children":[1,3,5,-1,-1,-1,-1],"loss_changes":[1.3643563E-2,1.0680795E-2,1.5018708E-3,0E0,0E0,0E0,0E0],"parents":[2147483647,0,0,1,1,2,2],"right_children":[2,4,6,-1,-1,-1,-1],"split_conditions":[6.206865E0,3.018133E0,6.2924557E0,-2.4746794E-3,-1.9009548E-3,4.8707197E-3,1.9239039E-4],"split_indices":[0,0,0,0,0,0,0],"split_type":[0,0,0,0,0,0,0],"sum_hessian":[1.36E3,1.357E3,3E0,7.06E2,6.51E2,2E0,1E0],"tree_param":{"num_deleted":"0","num_feature":"4","num_nodes":"7","size_leaf_vector":"0"}},{"base_weights":[-1.9666072E-2,-1.99798E-2,7.9553E-3,-2.0114154E-2,3.0124899E-2,-4.6192408E-2,2.4004186E-2],"categories":[],"categories_nodes":[],"categories_segments":[],"categories_sizes":[],"default_left":[1,1,1,0,0,0,0],"id":29,"left_children":[1,3,5,-1,-1,-1,-1],"loss_changes":[1.1952758E-2,9.666979E-3,1.5012977E-2,0E0,0E0,0E0,0E0],"parents":[2147483647,0,0,1,1,2,2],"right_children":[2,4,6,-1,-1,-1,-1],"split_conditions":[5.1515145E0,1.2477094E4,7.666344E2,-2.0114153E-3,3.01249E-3,-4.6192408E-3,2.4004185E-3],"split_indices":[0,1,1,0,0,0,0],"split_type":[0,0,0,0,0,0,0],"sum_hessian":[1.36E3,1.345E3,1.5E1,1.342E3,3E0,3E0,1.2E1],"tree_param":{"num_deleted":"0","num_feature":"4","num_nodes":"7","size_leaf_vector":"0"}},{"base_weights":[-1.7700357E-2,-1.8976402E-2,-1.1173409E-2,-3.079079E-2,-1.8358888E-2,-3.274559E-2,-7.0272414E-3],"categories":[],"categories_nodes":[],"categories_segments":[],"categories_sizes":[],"default_left":[1,1,1,0,0,0,0],"id":30,"left_children":[1,3,5,-1,-1,-1,-1],"loss_changes":[1.11233E-2,7.7297688E-3,1.9894311E-2,0E0,0E0,0E0,0E0],"parents":[2147483647,0,0,1,1,2,2],"right_children":[2,4,6,-1,-1,-1,-1],"split_conditions":[3.86021E0,1.3309274E0,7.1963025E2,-3.079079E-3,-1.8358888E-3,-3.2745588E-3,-7.0272415E-4],"split_indices":[0,0,1,0,0,0,0],"split_type":[0,0,0,0,0,0,0],"sum_hessian":[1.36E3,1.136E3,2.24E2,5.4E1,1.082E3,3.5E1,1.89E2],"tree_param":{"num_deleted":"0","num_feature":"4","num_nodes":"7","size_leaf_vector":"0"}},{"base_weights":[-1.5936855E-2,-1.6412802E-2,-9.6680707E-4,-1.653824E-2,2.8959155E-2,4.6606723E-2,-1.1511847E-2],"categories":[],"categories_nodes":[],"categories_segments":[],"categories_sizes":[],"default_left":[1,1,1,0,0,0,0],"id":31,"left_children":[1,3,5,-1,-1,-1,-1],"loss_changes":[9.681225E-3,7.985771E-3,2.2108115E-2,0E0,0E0,0E0,0E0],"parents":[2147483647,0,0,1,1,2,2],"right_children":[2,4,6,-1,-1,-1,-1],"split_conditions":[4.6260967E0,1.2477094E4,4.7814155E0,-1.653824E-3,2.8959156E-3,4.6606725E-3,-1.1511848E-3],"split_indices":[0,1,0,0,0,0,0],"split_type":[0,0,0,0,0,0,0],"sum_hessian":[1.36E3,1.318E3,4.2E1,1.315E3,3E0,7E0,3.5E1],"tree_param":{"num_deleted":"0","num_feature":"4","num_nodes":"7","size_leaf_vector":"0"}},{"base_weights":[-1.433968E-2,-1.447327E-2,3.4599006E-2,-2.5743602E-2,-1.3950637E-2,4.5095712E-2,1.5544444E-3],"categories":[],"categories_nodes":[],"categories_segments":[],"categories_sizes":[],"default_left":[1,1,1,0,0,0,0],"id":32,"left_children":[1,3,5,-1,-1,-1,-1],"loss_changes":[9.398609E-3,7.6397955E-3,1.3173372E-3,0E0,0E0,0E0,0E0],"parents":[2147483647,0,0,1,1,2,2],"right_children":[2,4,6,-1,-1,-1,-1],"split_conditions":[6.206865E0,1.3621168E0,6.2924557E0,-2.5743602E-3,-1.3950637E-3,4.5095715E-3,1.5544445E-4],"split_indices":[0,0,0,0,0,0,0],"split_type":[0,0,0,0,0,0,0],"sum_hessian":[1.36E3,1.357E3,3E0,5.8E1,1.299E3,2E0,1E0],"tree_param":{"num_deleted":"0","num_feature":"4","num_nodes":"7","size_leaf_vector":"0"}},{"base_weights":[-1.2905202E-2,-1.3764859E-2,-5.8201775E-3,-2.490385E-2,-1.3324294E-2,-8.04146E-3,7.67117E-2],"categories":[],"categories_nodes":[],"categories_segments":[],"categories_sizes":[],"default_left":[1,1,1,0,0,0,0],"id":33,"left_children":[1,3,5,-1,-1,-1,-1],"loss_changes":[8.209303E-3,5.620897E-3,2.7932547E-2,0E0,0E0,0E0,0E0],"parents":[2147483647,0,0,1,1,2,2],"right_children":[2,4,6,-1,-1,-1,-1],"split_conditions":[4.0947046E0,1.2302079E0,4.701374E3,-2.4903852E-3,-1.3324295E-3,-8.04146E-4,7.67117E-3],"split_indices":[0,0,1,0,0,0,0],"split_type":[0,0,0,0,0,0,0],"sum_hessian":[1.36E3,1.212E3,1.48E2,4.4E1,1.168E3,1.45E2,3E0],"tree_param":{"num_deleted":"0","num_feature":"4","num_nodes":"7","size_leaf_vector":"0"}},{"base_weights":[-1.1612444E-2,-1.17350295E-2,3.2908477E-2,-1.3949339E-2,-9.577441E-3,4.262544E-2,1.878798E-3],"categories":[],"categories_nodes":[],"categories_segments":[],"categories_sizes":[],"default_left":[1,1,1,0,0,0,0],"id":34,"left_children":[1,3,5,-1,-1,-1,-1],"loss_changes":[7.814005E-3,6.354362E-3,1.1259723E-3,0E0,0E0,0E0,0E0],"parents":[2147483647,0,0,1,1,2,2],"right_children":[2,4,6,-1,-1,-1,-1],"split_conditions":[6.206865E0,2.9568052E0,6.2924557E0,-1.3949339E-3,-9.5774414E-4,4.2625437E-3,1.878798E-4],"split_indices":[0,0,0,0,0,0,0],"split_type":[0,0,0,0,0,0,0],"sum_hessian":[1.36E3,1.357E3,3E0,6.67E2,6.9E2,2E0,1E0],"tree_param":{"num_deleted":"0","num_feature":"4","num_nodes":"7","size_leaf_vector":"0"}},{"base_weights":[-1.0449658E-2,-1.0690701E-2,1.0481141E-2,-1.055698E-2,-5.2915E-2,-2.2157405E-2,3.228001E-2],"categories":[],"categories_nodes":[],"categories_segments":[],"categories_sizes":[],"default_left":[1,1,1,0,0,0,0],"id":35,"left_children":[1,3,5,-1,-1,-1,-1],"loss_changes":[6.9785863E-3,7.0413053E-3,1.2098975E-2,0E0,0E0,0E0,0E0],"parents":[2147483647,0,0,1,1,2,2],"right_children":[2,4,6,-1,-1,-1,-1],"split_conditions":[5.1515145E0,5.0575876E0,4.83765E2,-1.055698E-3,-5.2915E-3,-2.2157405E-3,3.228001E-3],"split_indices":[0,0,3,0,0,0,0],"split_type":[0,0,0,0,0,0,0],"sum_hessian":[1.36E3,1.345E3,1.5E1,1.342E3,3E0,6E0,9E0],"tree_param":{"num_deleted":"0","num_feature":"4","num_nodes":"7","size_leaf_vector":"0"}},{"base_weights":[-9.408613E-3,-1.0738106E-2,-5.9100473E-3,-2.0072635E-2,-1.0280304E-2,-6.2897517E-3,6.8429455E-2],"categories":[],"categories_nodes":[],"categories_segments":[],"categories_sizes":[],"default_left":[1,1,1,0,0,0,0],"id":36,"left_children":[1,3,5,-1,-1,-1,-1],"loss_changes":[6.266974E-3,4.0029213E-3,1.1072005E-2,0E0,0E0,0E0,0E0],"parents":[2147483647,0,0,1,1,2,2],"right_children":[2,4,6,-1,-1,-1,-1],"split_conditions":[3.4726806E0,1.2302079E0,1.1510035E4,-2.0072635E-3,-1.0280304E-3,-6.2897516E-4,6.8429457E-3],"split_indices":[0,0,1,0,0,0,0],"split_type":[0,0,0,0,0,0,0],"sum_hessian":[1.36E3,9.84E2,3.76E2,4.4E1,9.4E2,3.75E2,1E0],"tree_param":{"num_deleted":"0","num_feature":"4","num_nodes":"7","size_leaf_vector":"0"}},{"base_weights":[-8.465415E-3,-8.5729E-3,3.0141905E-2,-8.671921E-3,2.7113892E-2,3.9865643E-2,4.8534572E-4],"categories":[],"categories_nodes":[],"categories_segments":[],"categories_sizes":[],"default_left":[1,1,1,0,0,0,0],"id":37,"left_children":[1,3,5,-1,-1,-1,-1],"loss_changes":[5.9061274E-3,5.03397E-3,1.134142E-3,0E0,0E0,0E0,0E0],"parents":[2147483647,0,0,1,1,2,2],"right_children":[2,4,6,-1,-1,-1,-1],"split_conditions":[6.206865E0,1.2477094E4,6.2924557E0,-8.671921E-4,2.7113892E-3,3.9865645E-3,4.8534574E-5],"split_indices":[0,1,0,0,0,0,0],"split_type":[0,0,0,0,0,0,0],"sum_hessian":[1.36E3,1.357E3,3E0,1.354E3,3E0,2E0,1E0],"tree_param":{"num_deleted":"0","num_feature":"4","num_nodes":"7","size_leaf_vector":"0"}},{"base_weights":[-7.6145525E-3,-7.971808E-3,3.5211544E-3,-7.817211E-3,-4.0500056E-2,4.7523852E-2,-6.355033E-3],"categories":[],"categories_nodes":[],"categories_segments":[],"categories_sizes":[],"default_left":[1,1,1,0,0,0,0],"id":38,"left_children":[1,3,5,-1,-1,-1,-1],"loss_changes":[5.4425374E-3,6.316364E-3,1.8988907E-2,0E0,0E0,0E0,0E0],"parents":[2147483647,0,0,1,1,2,2],"right_children":[2,4,6,-1,-1,-1,-1],"split_conditions":[4.6260967E0,4.5868893E0,4.7814155E0,-7.817211E-4,-4.0500057E-3,4.7523854E-3,-6.3550327E-4],"split_indices":[0,0,0,0,0,0,0],"split_type":[0,0,0,0,0,0,0],"sum_hessian":[1.36E3,1.318E3,4.2E1,1.313E3,5E0,7E0,3.5E1],"tree_param":{"num_deleted":"0","num_feature":"4","num_nodes":"7","size_leaf_vector":"0"}},{"base_weights":[-6.8536224E-3,-1.0803981E-2,-5.8660875E-3,-1.6497709E-2,-9.627673E-3,-5.9874575E-3,2.8613113E-2],"categories":[],"categories_nodes":[],"categories_segments":[],"categories_sizes":[],"default_left":[1,1,1,0,0,0,0],"id":39,"left_children":[1,3,5,-1,-1,-1,-1],"loss_changes":[5.246043E-3,1.6562082E-3,4.7368743E-3,0E0,0E0,0E0,0E0],"parents":[2147483647,0,0,1,1,2,2],"right_children":[2,4,6,-1,-1,-1,-1],"split_conditions":[2.3190148E0,1.2302079E0,6.206865E0,-1.6497709E-3,-9.627673E-4,-5.9874577E-4,2.8613114E-3],"split_indices":[0,0,0,0,0,0,0],"split_type":[0,0,0,0,0,0,0],"sum_hessian":[1.36E3,2.7E2,1.09E3,4.4E1,2.26E2,1.087E3,3E0],"tree_param":{"num_deleted":"0","num_feature":"4","num_nodes":"7","size_leaf_vector":"0"}},{"base_weights":[-6.1685187E-3,-6.658615E-3,9.10824E-4,-6.4237346E-3,-2.8929817E-2,-1.2798155E-2,1.2887205E-2],"categories":[],"categories_nodes":[],"categories_segments":[],"categories_sizes":[],"default_left":[1,1,1,0,0,0,0],"id":40,"left_children":[1,3,5,-1,-1,-1,-1],"loss_changes":[4.7281384E-3,6.4733215E-3,1.4777305E-2,0E0,0E0,0E0,0E0],"parents":[2147483647,0,0,1,1,2,2],"right_children":[2,4,6,-1,-1,-1,-1],"split_conditions":[4.3722305E0,4.3190775E0,1.1153356E3,-6.4237346E-4,-2.8929817E-3,-1.2798154E-3,1.2887205E-3],"split_indices":[0,0,2,0,0,0,0],"split_type":[0,0,0,0,0,0,0],"sum_hessian":[1.36E3,1.272E3,8.8E1,1.26E3,1.2E1,4.1E1,4.7E1],"tree_param":{"num_deleted":"0","num_feature":"4","num_nodes":"7","size_leaf_vector":"0"}},{"base_weights":[-5.5542574E-3,-6.6570705E-3,-2.6581693E-3,-7.001947E-3,3.8325991E-3,-3.0108902E-3,6.498243E-2],"categories":[],"categories_nodes":[],"categories_segments":[],"categories_sizes":[],"default_left":[1,1,1,0,0,0,0],"id":41,"left_children":[1,3,5,-1,-1,-1,-1],"loss_changes":[4.3291263E-3,3.5902113E-3,9.190215E-3,0E0,0E0,0E0,0E0],"parents":[2147483647,0,0,1,1,2,2],"right_children":[2,4,6,-1,-1,-1,-1],"split_conditions":[3.4726806E0,6.2021914E3,1.1510035E4,-7.0019474E-4,3.8325993E-4,-3.0108902E-4,6.498243E-3],"split_indices":[0,2,1,0,0,0,0],"split_type":[0,0,0,0,0,0,0],"sum_hessian":[1.36E3,9.84E2,3.76E2,9.53E2,3.1E1,3.75E2,1E0],"tree_param":{"num_deleted":"0","num_feature":"4","num_nodes":"7","size_leaf_vector":"0"}},{"base_weights":[-4.9945093E-3,-5.1802276E-3,1.094118E-2,-5.053735E-3,-4.6355017E-2,-1.8484334E-2,3.0444922E-2],"categories":[],"categories_nodes":[],"categories_segments":[],"categories_sizes":[],"default_left":[1,1,1,0,0,0,0],"id":42,"left_children":[1,3,5,-1,-1,-1,-1],"loss_changes":[4.0846206E-3,6.7761056E-3,9.7452765E-3,0E0,0E0,0E0,0E0],"parents":[2147483647,0,0,1,1,2,2],"right_children":[2,4,6,-1,-1,-1,-1],"split_conditions":[5.1515145E0,5.0575876E0,4.83765E2,-5.053735E-4,-4.6355017E-3,-1.8484334E-3,3.0444923E-3],"split_indices":[0,0,3,0,0,0,0],"split_type":[0,0,0,0,0,0,0],"sum_hessian":[1.36E3,1.345E3,1.5E1,1.342E3,3E0,6E0,9E0],"tree_param":{"num_deleted":"0","num_feature":"4","num_nodes":"7","size_leaf_vector":"0"}},{"base_weights":[-4.4979574E-3,-7.363662E-3,-3.4716425E-3,-1.3077723E-2,-6.521317E-3,-3.6867373E-3,1.628071E-2],"categories":[],"categories_nodes":[],"categories_segments":[],"categories_sizes":[],"default_left":[1,1,1,0,0,0,0],"id":43,"left_children":[1,3,5,-1,-1,-1,-1],"loss_changes":[3.977293E-3,1.6378462E-3,4.325647E-3,0E0,0E0,0E0,0E0],"parents":[2147483647,0,0,1,1,2,2],"right_children":[2,4,6,-1,-1,-1,-1],"split_conditions":[2.4816303E0,1.2302079E0,5.382385E3,-1.3077724E-3,-6.5213174E-4,-3.6867373E-4,1.6280711E-3],"split_indices":[0,0,3,0,0,0,0],"split_type":[0,0,0,0,0,0,0],"sum_hessian":[1.36E3,3.57E2,1.003E3,4.4E1,3.13E2,9.93E2,1E1],"tree_param":{"num_deleted":"0","num_feature":"4","num_nodes":"7","size_leaf_vector":"0"}},{"base_weights":[-4.0486753E-3,-4.1323407E-3,2.536786E-2,-3.9374884E-3,-1.9271122E-2,-7.6230713E-3,6.2170327E-2],"categories":[],"categories_nodes":[],"categories_segments":[],"categories_sizes":[],"default_left":[1,1,1,0,0,0,0],"id":44,"left_children":[1,3,5,-1,-1,-1,-1],"loss_changes":[3.454443E-3,3.929982E-3,5.3305198E-3,0E0,0E0,0E0,0E0],"parents":[2147483647,0,0,1,1,2,2],"right_children":[2,4,6,-1,-1,-1,-1],"split_conditions":[1.2477094E4,6.6450176E3,3.7660322E0,-3.9374884E-4,-1.9271122E-3,-7.6230714E-4,6.2170327E-3],"split_indices":[1,1,0,0,0,0,0],"split_type":[0,0,0,0,0,0,0],"sum_hessian":[1.36E3,1.357E3,3E0,1.341E3,1.6E1,2E0,1E0],"tree_param":{"num_deleted":"0","num_feature":"4","num_nodes":"7","size_leaf_vector":"0"}},{"base_weights":[-3.641506E-3,-5.0620995E-3,-1.9100831E-3,-1.1414014E-2,-4.648304E-3,-2.1055776E-3,5.906181E-2],"categories":[],"categories_nodes":[],"categories_segments":[],"categories_sizes":[],"default_left":[1,1,1,0,0,0,0],"id":45,"left_children":[1,3,5,-1,-1,-1,-1],"loss_changes":[3.3379104E-3,1.910355E-3,7.4549606E-3,0E0,0E0,0E0,0E0],"parents":[2147483647,0,0,1,1,2,2],"right_children":[2,4,6,-1,-1,-1,-1],"split_conditions":[3.0708306E0,1.2302079E0,1.2477094E4,-1.1414014E-3,-4.648304E-4,-2.1055776E-4,5.906181E-3],"split_indices":[0,0,1,0,0,0,0],"split_type":[0,0,0,0,0,0,0],"sum_hessian":[1.36E3,7.46E2,6.14E2,4.4E1,7.02E2,6.13E2,1E0],"tree_param":{"num_deleted":"0","num_feature":"4","num_nodes":"7","size_leaf_vector":"0"}},{"base_weights":[-3.2743514E-3,-3.3563888E-3,2.5396012E-2,-3.50967E-3,1.16092935E-2,3.5315614E-2,-2.181396E-3],"categories":[],"categories_nodes":[],"categories_segments":[],"categories_sizes":[],"default_left":[1,1,1,0,0,0,0],"id":46,"left_children":[1,3,5,-1,-1,-1,-1],"loss_changes":[3.2863785E-3,3.1559374E-3,1.1712648E-3,0E0,0E0,0E0,0E0],"parents":[2147483647,0,0,1,1,2,2],"right_children":[2,4,6,-1,-1,-1,-1],"split_conditions":[6.206865E0,5.382385E3,6.2924557E0,-3.5096702E-4,1.1609293E-3,3.5315615E-3,-2.181396E-4],"split_indices":[0,3,0,0,0,0,0],"split_type":[0,0,0,0,0,0,0],"sum_hessian":[1.36E3,1.357E3,3E0,1.344E3,1.3E1,2E0,1E0],"tree_param":{"num_deleted":"0","num_feature":"4","num_nodes":"7","size_leaf_vector":"0"}},{"base_weights":[-2.9438864E-3,-2.2496383E-3,-6.330253E-3,-1.7543038E-3,-2.0369941E-2,-1.1599352E-2,-4.2879648E-4],"categories":[],"categories_nodes":[],"categories_segments":[],"categories_sizes":[],"default_left":[1,1,1,0,0,0,0],"id":47,"left_children":[1,3,5,-1,-1,-1,-1],"loss_changes":[3.1854408E-3,1.0115681E-2,7.1780523E-3,0E0,0E0,0E0,0E0],"parents":[2147483647,0,0,1,1,2,2],"right_children":[2,4,6,-1,-1,-1,-1],"split_conditions":[2.1582346E3,3.7940928E3,3.005168E3,-1.7543038E-4,-2.036994E-3,-1.1599351E-3,-4.287965E-5],"split_indices":[3,1,1,0,0,0,0],"split_type":[0,0,0,0,0,0,0],"sum_hessian":[1.36E3,1.13E3,2.3E2,1.101E3,2.9E1,1.21E2,1.09E2],"tree_param":{"num_deleted":"0","num_feature":"4","num_nodes":"7","size_leaf_vector":"0"}},{"base_weights":[-2.6520065E-3,-3.1732447E-3,1.6091613E-3,-2.9135055E-3,-1.5399509E-2,-2.4473306E-4,6.887402E-2],"categories":[],"categories_nodes":[],"categories_segments":[],"categories_sizes":[],"default_left":[1,1,1,0,0,0,0],"id":48,"left_children":[1,3,5,-1,-1,-1,-1],"loss_changes":[3.0280016E-3,3.8071843E-3,1.8597443E-2,0E0,0E0,0E0,0E0],"parents":[2147483647,0,0,1,1,2,2],"right_children":[2,4,6,-1,-1,-1,-1],"split_conditions":[4.0947046E0,6.0449375E3,4.701374E3,-2.9135056E-4,-1.539951E-3,-2.4473307E-5,6.887402E-3],"split_indices":[0,1,1,0,0,0,0],"split_type":[0,0,0,0,0,0,0],"sum_hessian":[1.36E3,1.212E3,1.48E2,1.188E3,2.4E1,1.45E2,3E0],"tree_param":{"num_deleted":"0","num_feature":"4","num_nodes":"7","size_leaf_vector":"0"}},{"base_weights":[-2.383111E-3,-2.540187E-3,1.0979859E-2,-2.3931798E-3,-3.4972955E-2,-3.0259414E-2,2.2824261E-2],"categories":[],"categories_nodes":[],"categories_segments":[],"categories_sizes":[],"default_left":[1,1,1,0,0,0,0],"id":49,"left_children":[1,3,5,-1,-1,-1,-1],"loss_changes":[2.8846343E-3,6.3338354E-3,8.505921E-3,0E0,0E0,0E0,0E0],"parents":[2147483647,0,0,1,1,2,2],"right_children":[2,4,6,-1,-1,-1,-1],"split_conditions":[5.1515145E0,5.0255976E0,7.666344E2,-2.3931799E-4,-3.4972955E-3,-3.0259413E-3,2.2824262E-3],"split_indices":[0,0,1,0,0,0,0],"split_type":[0,0,0,0,0,0,0],"sum_hessian":[1.36E3,1.345E3,1.5E1,1.34E3,5E0,3E0,1.2E1],"tree_param":{"num_deleted":"0","num_feature":"4","num_nodes":"7","size_leaf_vector":"0"}}]},"name":"gbtree"},"learner_model_param":{"base_score":"5E-1","boost_from_average":"1","num_class":"0","num_feature":"4","num_target":"1"},"objective":{"name":"reg:squarederror","reg_loss_param":{"scale_pos_weight":"1"}}},"version":[1,7,6]}