{"learner":{"attributes":{"best_iteration":"49","best_ntree_limit":"50","scikit_learn":"{\"n_estimators\": 50, \"objective\": \"reg:squarederror\", \"max_depth\": 2, \"max_leaves\": null, \"max_bin\": null, \"grow_policy\": null, \"learning_rate\": 0.1, \"verbosity\": null, \"booster\": null, \"tree_method\": null, \"gamma\": null, \"min_child_weight\": null, \"max_delta_step\": null, \"subsample\": null, \"sampling_method\": null, \"colsample_bytree\": null, \"colsample_bylevel\": null, \"colsample_bynode\": null, \"reg_alpha\": null, \"reg_lambda\": null, \"scale_pos_weight\": null, \"base_score\": null, \"missing\": NaN, \"num_parallel_tree\": null, \"random_state\": null, \"n_jobs\": null, \"monotone_constraints\": null, \"interaction_constraints\": null, \"importance_type\": null, \"gpu_id\": null, \"validate_parameters\": null, \"predictor\": null, \"enable_categorical\": false, \"feature_types\": null, \"max_cat_to_onehot\": null, \"max_cat_threshold\": null, \"eval_metric\": null, \"early_stopping_rounds\": null, \"callbacks\": null, \"_estimator_type\": \"regressor\"}"},"feature_names":[],"feature_types":[],"gradient_booster":{"model":{"gbtree_model_param":{"num_parallel_tree":"1","num_trees":"50","size_leaf_vector":"0"},"tree_info":[0,0,0,0,0,0,0,0,0,0,0,0,0,0,0,0,0,0,0,0,0,0,0,0,0,0,0,0,0,0,0,0,0,0,0,0,0,0,0,0,0,0,0,0,0,0,0,0,0,0],"trees":[{"base_weights":[-4.102306E-1,-4.3138257E-1,-3.3803043E-1,-4.5757365E-1,-4.1344723E-1,-3.4310678E-1,-2.110582E-2],"categories":[],"categories_nodes":[],"categories_segments":[],"categories_sizes":[],"default_left":[1,1,1,0,0,0,0],"id":0,"left_children":[1,3,5,-1,-1,-1,-1],"loss_changes":[1.932663E0,3.0358887E-1,4.9632263E-1,0E0,0E0,0E0,0E0],"parents":[2147483647,0,0,1,1,2,2],"right_children":[2,4,6,-1,-1,-1,-1],"split_conditions":[3.6215043E0,2.5583396E0,6.057186E0,-4.5757364E-2,-4.1344725E-2,-3.431068E-2,-2.110582E-3],"split_indices":[0,0,0,0,0,0,0],"split_type":[0,0,0,0,0,0,0],"sum_hessian":[1.36E3,1.048E3,3.12E2,4.16E2,6.32E2,3.07E2,5E0],"tree_param":{"num_deleted":"0","num_feature":"4","num_nodes":"7","size_leaf_vector":"0"}},{"base_weights":[-3.692983E-1,-3.8832736E-1,-3.0434376E-1,-4.1192603E-1,-3.7216783E-1,-3.089075E-1,-1.9347012E-2],"categories":[],"categories_nodes":[],"categories_segments":[],"categories_sizes":[],"default_left":[1,1,1,0,0,0,0],"id":1,"left_children":[1,3,5,-1,-1,-1,-1],"loss_changes":[1.5640411E0,2.4671936E-1,4.0112686E-1,0E0,0E0,0E0,0E0],"parents":[2147483647,0,0,1,1,2,2],"right_children":[2,4,6,-1,-1,-1,-1],"split_conditions":[3.6215043E0,2.5583396E0,6.057186E0,-4.1192602E-2,-3.7216783E-2,-3.0890752E-2,-1.9347012E-3],"split_indices":[0,0,0,0,0,0,0],"split_type":[0,0,0,0,0,0,0],"sum_hessian":[1.36E3,1.048E3,3.12E2,4.16E2,6.32E2,3.07E2,5E0],"tree_param":{"num_deleted":"0","num_feature":"4","num_nodes":"7","size_leaf_vector":"0"}},{"base_weights":[-3.324502E-1,-3.5471705E-1,-2.8658396E-1,-3.828401E-1,-3.4522295E-1,-2.9638758E-1,-1.815579E-1],"categories":[],"categories_nodes":[],"categories_segments":[],"categories_sizes":[],"default_left":[1,1,1,0,0,0,0],"id":2,"left_children":[1,3,5,-1,-1,-1,-1],"loss_changes":[1.2883301E0,1.11335754E-1,4.09523E-1,0E0,0E0,0E0,0E0],"parents":[2147483647,0,0,1,1,2,2],"right_children":[2,4,6,-1,-1,-1,-1],"split_conditions":[3.3166223E0,2.1853266E0,4.6602635E0,-3.828401E-2,-3.4522295E-2,-2.9638758E-2,-1.8155789E-2],"split_indices":[0,0,0,0,0,0,0],"split_type":[0,0,0,0,0,0,0],"sum_hessian":[1.36E3,9.11E2,4.49E2,2.2E2,6.91E2,4.09E2,4E1],"tree_param":{"num_deleted":"0","num_feature":"4","num_nodes":"7","size_leaf_vector":"0"}},{"base_weights":[-2.992938E-1,-3.123362E-1,-2.3345816E-1,-3.2609776E-1,-2.8881922E-1,-2.3859951E-1,-2.6049365E-3],"categories":[],"categories_nodes":[],"categories_segments":[],"categories_sizes":[],"default_left":[1,1,1,0,0,0,0],"id":3,"left_children":[1,3,5,-1,-1,-1,-1],"loss_changes":[1.0957184E0,2.7249146E-1,2.7117825E-1,0E0,0E0,0E0,0E0],"parents":[2147483647,0,0,1,1,2,2],"right_children":[2,4,6,-1,-1,-1,-1],"split_conditions":[3.8392067E0,3.018133E0,6.057186E0,-3.2609776E-2,-2.8881922E-2,-2.3859952E-2,-2.6049366E-4],"split_indices":[0,0,0,0,0,0,0],"split_type":[0,0,0,0,0,0,0],"sum_hessian":[1.36E3,1.132E3,2.28E2,7.06E2,4.26E2,2.23E2,5E0],"tree_param":{"num_deleted":"0","num_feature":"4","num_nodes":"7","size_leaf_vector":"0"}},{"base_weights":[-2.6942733E-1,-2.8122127E-1,-2.105165E-1,-2.935341E-1,-2.6007682E-1,-2.1511056E-1,-2.3878515E-3],"categories":[],"categories_nodes":[],"categories_segments":[],"categories_sizes":[],"default_left":[1,1,1,0,0,0,0],"id":4,"left_children":[1,3,5,-1,-1,-1,-1],"loss_changes":[8.8640594E-1,2.1811676E-1,2.2035694E-1,0E0,0E0,0E0,0E0],"parents":[2147483647,0,0,1,1,2,2],"right_children":[2,4,6,-1,-1,-1,-1],"split_conditions":[3.8369255E0,3.018133E0,6.057186E0,-2.935341E-2,-2.6007682E-2,-2.1511056E-2,-2.3878516E-4],"split_indices":[0,0,0,0,0,0,0],"split_type":[0,0,0,0,0,0,0],"sum_hessian":[1.36E3,1.13E3,2.3E2,7.06E2,4.24E2,2.25E2,5E0],"tree_param":{"num_deleted":"0","num_feature":"4","num_nodes":"7","size_leaf_vector":"0"}},{"base_weights":[-2.4254124E-1,-2.5309527E-1,-1.8926503E-1,-2.752596E-1,-2.425438E-1,-1.9386435E-1,-1.5705718E-2],"categories":[],"categories_nodes":[],"categories_segments":[],"categories_sizes":[],"default_left":[1,1,1,0,0,0,0],"id":5,"left_children":[1,3,5,-1,-1,-1,-1],"loss_changes":[7.173538E-1,1.9820404E-1,1.7975616E-1,0E0,0E0,0E0,0E0],"parents":[2147483647,0,0,1,1,2,2],"right_children":[2,4,6,-1,-1,-1,-1],"split_conditions":[3.8392067E0,2.4816303E0,6.013875E0,-2.7525961E-2,-2.425438E-2,-1.9386435E-2,-1.5705718E-3],"split_indices":[0,0,0,0,0,0,0],"split_type":[0,0,0,0,0,0,0],"sum_hessian":[1.36E3,1.132E3,2.28E2,3.57E2,7.75E2,2.22E2,6E0],"tree_param":{"num_deleted":"0","num_feature":"4","num_nodes":"7","size_leaf_vector":"0"}},{"base_weights":[-2.1834056E-1,-2.3529094E-1,-1.9021402E-1,-2.6046312E-1,-2.2856542E-1,-2.0123087E-1,-1.3713369E-1],"categories":[],"categories_nodes":[],"categories_segments":[],"categories_sizes":[],"default_left":[1,1,1,0,0,0,0],"id":6,"left_children":[1,3,5,-1,-1,-1,-1],"loss_changes":[6.041107E-1,8.35228E-2,2.747364E-1,0E0,0E0,0E0,0E0],"parents":[2147483647,0,0,1,1,2,2],"right_children":[2,4,6,-1,-1,-1,-1],"split_conditions":[3.22831E0,2.0007892E0,4.362111E0,-2.6046311E-2,-2.2856543E-2,-2.0123087E-2,-1.3713369E-2],"split_indices":[0,0,0,0,0,0,0],"split_type":[0,0,0,0,0,0,0],"sum_hessian":[1.36E3,8.44E2,5.16E2,1.7E2,6.74E2,4.25E2,9.1E1],"tree_param":{"num_deleted":"0","num_feature":"4","num_nodes":"7","size_leaf_vector":"0"}},{"base_weights":[-1.965673E-1,-2.1028624E-1,-1.6832677E-1,-2.3456915E-1,-2.0440665E-1,-1.7521214E-1,-9.536742E-2],"categories":[],"categories_nodes":[],"categories_segments":[],"categories_sizes":[],"default_left":[1,1,1,0,0,0,0],"id":7,"left_children":[1,3,5,-1,-1,-1,-1],"loss_changes":[4.9189377E-1,8.226013E-2,2.0934868E-1,0E0,0E0,0E0,0E0],"parents":[2147483647,0,0,1,1,2,2],"right_children":[2,4,6,-1,-1,-1,-1],"split_conditions":[3.3166223E0,2.0007892E0,4.6602635E0,-2.3456914E-2,-2.0440666E-2,-1.7521216E-2,-9.536742E-3],"split_indices":[0,0,0,0,0,0,0],"split_type":[0,0,0,0,0,0,0],"sum_hessian":[1.36E3,9.11E2,4.49E2,1.7E2,7.41E2,4.09E2,4E1],"tree_param":{"num_deleted":"0","num_feature":"4","num_nodes":"7","size_leaf_vector":"0"}},{"base_weights":[-1.769627E-1,-1.8173277E-1,-1.09971516E-1,-1.9360682E-1,-1.6645063E-1,-1.1596674E-1,5.2413784E-2],"categories":[],"categories_nodes":[],"categories_segments":[],"categories_sizes":[],"default_left":[1,1,1,0,0,0,0],"id":8,"left_children":[1,3,5,-1,-1,-1,-1],"loss_changes":[4.1492462E-1,1.9805145E-1,9.661698E-2,0E0,0E0,0E0,0E0],"parents":[2147483647,0,0,1,1,2,2],"right_children":[2,4,6,-1,-1,-1,-1],"split_conditions":[4.3580112E0,3.0189004E0,6.206865E0,-1.9360682E-2,-1.6645065E-2,-1.1596674E-2,5.2413787E-3],"split_indices":[0,0,0,0,0,0,0],"split_type":[0,0,0,0,0,0,0],"sum_hessian":[1.36E3,1.268E3,9.2E1,7.07E2,5.61E2,8.9E1,3E0],"tree_param":{"num_deleted":"0","num_feature":"4","num_nodes":"7","size_leaf_vector":"0"}},{"base_weights":[-1.5929756E-1,-1.6650796E-1,-1.2215306E-1,-1.854712E-1,-1.600067E-1,-1.2546763E-1,1.9739911E-2],"categories":[],"categories_nodes":[],"categories_segments":[],"categories_sizes":[],"default_left":[1,1,1,0,0,0,0],"id":9,"left_children":[1,3,5,-1,-1,-1,-1],"loss_changes":[3.4417343E-1,1.1049843E-1,1.0829711E-1,0E0,0E0,0E0,0E0],"parents":[2147483647,0,0,1,1,2,2],"right_children":[2,4,6,-1,-1,-1,-1],"split_conditions":[3.86021E0,2.356911E0,6.057186E0,-1.8547121E-2,-1.6000671E-2,-1.2546763E-2,1.973991E-3],"split_indices":[0,0,0,0,0,0,0],"split_type":[0,0,0,0,0,0,0],"sum_hessian":[1.36E3,1.136E3,2.24E2,2.83E2,8.53E2,2.19E2,5E0],"tree_param":{"num_deleted":"0","num_feature":"4","num_nodes":"7","size_leaf_vector":"0"}},{"base_weights":[-1.4340095E-1,-1.473912E-1,-8.741153E-2,-1.5693226E-1,-1.3417801E-1,-9.241424E-2,4.700227E-2],"categories":[],"categories_nodes":[],"categories_segments":[],"categories_sizes":[],"default_left":[1,1,1,0,0,0,0],"id":10,"left_children":[1,3,5,-1,-1,-1,-1],"loss_changes":[2.9117775E-1,1.3892365E-1,6.687993E-2,0E0,0E0,0E0,0E0],"parents":[2147483647,0,0,1,1,2,2],"right_children":[2,4,6,-1,-1,-1,-1],"split_conditions":[4.3580112E0,3.0577044E0,6.206865E0,-1.5693227E-2,-1.3417802E-2,-9.241424E-3,4.700227E-3],"split_indices":[0,0,0,0,0,0,0],"split_type":[0,0,0,0,0,0,0],"sum_hessian":[1.36E3,1.268E3,9.2E1,7.3E2,5.38E2,8.9E1,3E0],"tree_param":{"num_deleted":"0","num_feature":"4","num_nodes":"7","size_leaf_vector":"0"}},{"base_weights":[-1.2908559E-1,-1.3752162E-1,-1.0670206E-1,-1.5832286E-1,-1.3311219E-1,-1.1236954E-1,-5.7515673E-2],"categories":[],"categories_nodes":[],"categories_segments":[],"categories_sizes":[],"default_left":[1,1,1,0,0,0,0],"id":11,"left_children":[1,3,5,-1,-1,-1,-1],"loss_changes":[2.4232101E-1,6.927109E-2,9.863043E-2,0E0,0E0,0E0,0E0],"parents":[2147483647,0,0,1,1,2,2],"right_children":[2,4,6,-1,-1,-1,-1],"split_conditions":[3.4726806E0,1.9923561E0,4.6602635E0,-1.5832286E-2,-1.3311219E-2,-1.1236954E-2,-5.7515674E-3],"split_indices":[0,0,0,0,0,0,0],"split_type":[0,0,0,0,0,0,0],"sum_hessian":[1.36E3,9.84E2,3.76E2,1.66E2,8.18E2,3.36E2,4E1],"tree_param":{"num_deleted":"0","num_feature":"4","num_nodes":"7","size_leaf_vector":"0"}},{"base_weights":[-1.1621092E-1,-1.259869E-1,-1.0025682E-1,-1.4675672E-1,-1.2228745E-1,-1.0416179E-1,-5.1904373E-2],"categories":[],"categories_nodes":[],"categories_segments":[],"categories_sizes":[],"default_left":[1,1,1,0,0,0,0],"id":12,"left_children":[1,3,5,-1,-1,-1,-1],"loss_changes":[1.9963837E-1,4.659748E-2,9.315491E-2,0E0,0E0,0E0,0E0],"parents":[2147483647,0,0,1,1,2,2],"right_children":[2,4,6,-1,-1,-1,-1],"split_conditions":[3.223476E0,1.8292025E0,4.6602635E0,-1.4675672E-2,-1.2228745E-2,-1.0416179E-2,-5.190437E-3],"split_indices":[0,0,0,0,0,0,0],"split_type":[0,0,0,0,0,0,0],"sum_hessian":[1.36E3,8.39E2,5.21E2,1.21E2,7.18E2,4.81E2,4E1],"tree_param":{"num_deleted":"0","num_feature":"4","num_nodes":"7","size_leaf_vector":"0"}},{"base_weights":[-1.0462107E-1,-1.07669055E-1,-6.190582E-2,-1.1797129E-1,-1.0019297E-1,-8.900073E-2,-3.883097E-2],"categories":[],"categories_nodes":[],"categories_segments":[],"categories_sizes":[],"default_left":[1,1,1,0,0,0,0],"id":13,"left_children":[1,3,5,-1,-1,-1,-1],"loss_changes":[1.7053032E-1,8.5920334E-2,5.4688632E-2,0E0,0E0,0E0,0E0],"parents":[2147483647,0,0,1,1,2,2],"right_children":[2,4,6,-1,-1,-1,-1],"split_conditions":[4.3580112E0,2.7251549E0,1.1153356E3,-1.1797129E-2,-1.0019298E-2,-8.900073E-3,-3.883097E-3],"split_indices":[0,0,2,0,0,0,0],"split_type":[0,0,0,0,0,0,0],"sum_hessian":[1.36E3,1.268E3,9.2E1,5.27E2,7.41E2,4.1E1,5.1E1],"tree_param":{"num_deleted":"0","num_feature":"4","num_nodes":"7","size_leaf_vector":"0"}},{"base_weights":[-9.418438E-2,-9.990506E-2,-7.471097E-2,-1.2122759E-1,-9.717565E-2,-7.670305E-2,2.3328738E-2],"categories":[],"categories_nodes":[],"categories_segments":[],"categories_sizes":[],"default_left":[1,1,1,0,0,0,0],"id":14,"left_children":[1,3,5,-1,-1,-1,-1],"loss_changes":[1.441536E-1,4.926777E-2,6.291914E-2,0E0,0E0,0E0,0E0],"parents":[2147483647,0,0,1,1,2,2],"right_children":[2,4,6,-1,-1,-1,-1],"split_conditions":[3.6215043E0,1.7745993E0,6.013875E0,-1.212276E-2,-9.717565E-3,-7.670305E-3,2.3328739E-3],"split_indices":[0,0,0,0,0,0,0],"split_type":[0,0,0,0,0,0,0],"sum_hessian":[1.36E3,1.048E3,3.12E2,1.14E2,9.34E2,3.06E2,6E0],"tree_param":{"num_deleted":"0","num_feature":"4","num_nodes":"7","size_leaf_vector":"0"}},{"base_weights":[-8.478591E-2,-8.734828E-2,-4.891023E-2,-9.870966E-2,-8.239921E-2,-7.282489E-2,-2.8653966E-2],"categories":[],"categories_nodes":[],"categories_segments":[],"categories_sizes":[],"default_left":[1,1,1,0,0,0,0],"id":15,"left_children":[1,3,5,-1,-1,-1,-1],"loss_changes":[1.2084103E-1,6.3220024E-2,4.296449E-2,0E0,0E0,0E0,0E0],"parents":[2147483647,0,0,1,1,2,2],"right_children":[2,4,6,-1,-1,-1,-1],"split_conditions":[4.3580112E0,2.5171747E0,1.1153356E3,-9.870966E-3,-8.239921E-3,-7.282489E-3,-2.8653967E-3],"split_indices":[0,0,2,0,0,0,0],"split_type":[0,0,0,0,0,0,0],"sum_hessian":[1.36E3,1.268E3,9.2E1,3.79E2,8.89E2,4.1E1,5.1E1],"tree_param":{"num_deleted":"0","num_feature":"4","num_nodes":"7","size_leaf_vector":"0"}},{"base_weights":[-7.632808E-2,-8.3299056E-2,-6.49642E-2,-1.0027225E-1,-8.071127E-2,-6.576357E-2,5.4995343E-2],"categories":[],"categories_nodes":[],"categories_segments":[],"categories_sizes":[],"default_left":[1,1,1,0,0,0,0],"id":16,"left_children":[1,3,5,-1,-1,-1,-1],"loss_changes":[1.02403164E-1,2.8802872E-2,5.3672314E-2,0E0,0E0,0E0,0E0],"parents":[2147483647,0,0,1,1,2,2],"right_children":[2,4,6,-1,-1,-1,-1],"split_conditions":[3.223476E0,1.7286634E0,6.206865E0,-1.0027225E-2,-8.071127E-3,-6.576357E-3,5.4995343E-3],"split_indices":[0,0,0,0,0,0,0],"split_type":[0,0,0,0,0,0,0],"sum_hessian":[1.36E3,8.39E2,5.21E2,1.06E2,7.33E2,5.18E2,3E0],"tree_param":{"num_deleted":"0","num_feature":"4","num_nodes":"7","size_leaf_vector":"0"}},{"base_weights":[-6.870936E-2,-7.1451254E-2,-4.3690868E-2,-8.358622E-2,-6.8363294E-2,-4.6334732E-2,5.5801403E-2],"categories":[],"categories_nodes":[],"categories_segments":[],"categories_sizes":[],"default_left":[1,1,1,0,0,0,0],"id":17,"left_children":[1,3,5,-1,-1,-1,-1],"loss_changes":[9.024048E-2,4.0189266E-2,3.8622618E-2,0E0,0E0,0E0,0E0],"parents":[2147483647,0,0,1,1,2,2],"right_children":[2,4,6,-1,-1,-1,-1],"split_conditions":[4.128564E0,2.2501755E0,4.701374E3,-8.358623E-3,-6.8363296E-3,-4.633473E-3,5.5801403E-3],"split_indices":[0,0,1,0,0,0,0],"split_type":[0,0,0,0,0,0,0],"sum_hessian":[1.36E3,1.224E3,1.36E2,2.43E2,9.81E2,1.33E2,3E0],"tree_param":{"num_deleted":"0","num_feature":"4","num_nodes":"7","size_leaf_vector":"0"}},{"base_weights":[-6.1848894E-2,-6.383939E-2,-3.268317E-2,-6.968831E-2,-5.8143973E-2,-6.886503E-2,-1.9774724E-2],"categories":[],"categories_nodes":[],"categories_segments":[],"categories_sizes":[],"default_left":[1,1,1,0,0,0,0],"id":18,"left_children":[1,3,5,-1,-1,-1,-1],"loss_changes":[7.692528E-2,3.8354874E-2,4.02058E-2,0E0,0E0,0E0,0E0],"parents":[2147483647,0,0,1,1,2,2],"right_children":[2,4,6,-1,-1,-1,-1],"split_conditions":[4.3722305E0,2.8863575E0,7.6110596E2,-6.968831E-3,-5.8143972E-3,-6.886503E-3,-1.9774723E-3],"split_indices":[0,0,1,0,0,0,0],"split_type":[0,0,0,0,0,0,0],"sum_hessian":[1.36E3,1.272E3,8.8E1,6.22E2,6.5E2,2.2E1,6.6E1],"tree_param":{"num_deleted":"0","num_feature":"4","num_nodes":"7","size_leaf_vector":"0"}},{"base_weights":[-5.567991E-2,-5.882075E-2,-4.006098E-2,-7.5154535E-2,-5.7058275E-2,-4.1567553E-2,5.5828907E-2],"categories":[],"categories_nodes":[],"categories_segments":[],"categories_sizes":[],"default_left":[1,1,1,0,0,0,0],"id":19,"left_children":[1,3,5,-1,-1,-1,-1],"loss_changes":[6.440973E-2,2.8270483E-2,3.5692096E-2,0E0,0E0,0E0,0E0],"parents":[2147483647,0,0,1,1,2,2],"right_children":[2,4,6,-1,-1,-1,-1],"split_conditions":[3.8369255E0,1.7286634E0,6.206865E0,-7.5154537E-3,-5.7058274E-3,-4.1567553E-3,5.582891E-3],"split_indices":[0,0,0,0,0,0,0],"split_type":[0,0,0,0,0,0,0],"sum_hessian":[1.36E3,1.13E3,2.3E2,1.06E2,1.024E3,2.27E2,3E0],"tree_param":{"num_deleted":"0","num_feature":"4","num_nodes":"7","size_leaf_vector":"0"}},{"base_weights":[-5.012058E-2,-5.1786255E-2,-2.5732702E-2,-5.8749665E-2,-4.8214633E-2,-4.657335E-2,-6.9610365E-3],"categories":[],"categories_nodes":[],"categories_segments":[],"categories_sizes":[],"default_left":[1,1,1,0,0,0,0],"id":20,"left_children":[1,3,5,-1,-1,-1,-1],"loss_changes":[5.3954363E-2,2.8827429E-2,3.449382E-2,0E0,0E0,0E0,0E0],"parents":[2147483647,0,0,1,1,2,2],"right_children":[2,4,6,-1,-1,-1,-1],"split_conditions":[4.3722305E0,2.5836763E0,1.1153356E3,-5.8749667E-3,-4.8214635E-3,-4.657335E-3,-6.9610367E-4],"split_indices":[0,0,2,0,0,0,0],"split_type":[0,0,0,0,0,0,0],"sum_hessian":[1.36E3,1.272E3,8.8E1,4.26E2,8.46E2,4.1E1,4.7E1],"tree_param":{"num_deleted":"0","num_feature":"4","num_nodes":"7","size_leaf_vector":"0"}},{"base_weights":[-4.5120314E-2,-4.8780646E-2,-3.5437167E-2,-6.725005E-2,-4.755252E-2,-3.73181E-2,9.33371E-3],"categories":[],"categories_nodes":[],"categories_segments":[],"categories_sizes":[],"default_left":[1,1,1,0,0,0,0],"id":21,"left_children":[1,3,5,-1,-1,-1,-1],"loss_changes":[4.651022E-2,1.9144535E-2,3.209585E-2,0E0,0E0,0E0,0E0],"parents":[2147483647,0,0,1,1,2,2],"right_children":[2,4,6,-1,-1,-1,-1],"split_conditions":[3.4726806E0,1.3621168E0,5.1515145E0,-6.7250053E-3,-4.755252E-3,-3.73181E-3,9.33371E-4],"split_indices":[0,0,0,0,0,0,0],"split_type":[0,0,0,0,0,0,0],"sum_hessian":[1.36E3,9.84E2,3.76E2,5.8E1,9.26E2,3.61E2,1.5E1],"tree_param":{"num_deleted":"0","num_feature":"4","num_nodes":"7","size_leaf_vector":"0"}},{"base_weights":[-4.0618774E-2,-4.4864345E-2,-3.3601116E-2,-6.0639028E-2,-4.3624736E-2,-3.419773E-2,5.1463768E-2],"categories":[],"categories_nodes":[],"categories_segments":[],"categories_sizes":[],"default_left":[1,1,1,0,0,0,0],"id":22,"left_children":[1,3,5,-1,-1,-1,-1],"loss_changes":[3.9042234E-2,1.3878107E-2,2.799803E-2,0E0,0E0,0E0,0E0],"parents":[2147483647,0,0,1,1,2,2],"right_children":[2,4,6,-1,-1,-1,-1],"split_conditions":[3.22831E0,1.3621168E0,6.206865E0,-6.0639028E-3,-4.3624737E-3,-3.419773E-3,5.146377E-3],"split_indices":[0,0,0,0,0,0,0],"split_type":[0,0,0,0,0,0,0],"sum_hessian":[1.36E3,8.44E2,5.16E2,5.8E1,7.86E2,5.13E2,3E0],"tree_param":{"num_deleted":"0","num_feature":"4","num_nodes":"7","size_leaf_vector":"0"}},{"base_weights":[-3.656329E-2,-3.7473816E-2,-7.783136E-3,-4.8319045E-2,-3.5870496E-2,-3.6600973E-2,1.8867202E-2],"categories":[],"categories_nodes":[],"categories_segments":[],"categories_sizes":[],"default_left":[1,1,1,0,0,0,0],"id":23,"left_children":[1,3,5,-1,-1,-1,-1],"loss_changes":[3.537333E-2,2.1202087E-2,3.371478E-2,0E0,0E0,0E0,0E0],"parents":[2147483647,0,0,1,1,2,2],"right_children":[2,4,6,-1,-1,-1,-1],"split_conditions":[4.6260967E0,1.9923561E0,1.2160138E3,-4.8319045E-3,-3.5870497E-3,-3.6600975E-3,1.8867202E-3],"split_indices":[0,0,2,0,0,0,0],"split_type":[0,0,0,0,0,0,0],"sum_hessian":[1.36E3,1.318E3,4.2E1,1.66E2,1.152E3,2E1,2.2E1],"tree_param":{"num_deleted":"0","num_feature":"4","num_nodes":"7","size_leaf_vector":"0"}},{"base_weights":[-3.291445E-2,-3.5500087E-2,-2.4143673E-2,-4.644189E-2,-3.4298167E-2,-2.593434E-2,1.0716491E-2],"categories":[],"categories_nodes":[],"categories_segments":[],"categories_sizes":[],"default_left":[1,1,1,0,0,0,0],"id":24,"left_children":[1,3,5,-1,-1,-1,-1],"loss_changes":[3.000784E-2,1.220274E-2,1.9816324E-2,0E0,0E0,0E0,0E0],"parents":[2147483647,0,0,1,1,2,2],"right_children":[2,4,6,-1,-1,-1,-1],"split_conditions":[3.6215043E0,1.6913098E0,5.1515145E0,-4.644189E-3,-3.4298168E-3,-2.5934342E-3,1.0716491E-3],"split_indices":[0,0,0,0,0,0,0],"split_type":[0,0,0,0,0,0,0],"sum_hessian":[1.36E3,1.048E3,3.12E2,1E2,9.48E2,2.97E2,1.5E1],"tree_param":{"num_deleted":"0","num_feature":"4","num_nodes":"7","size_leaf_vector":"0"}},{"base_weights":[-2.9630056E-2,-3.0764783E-2,-1.3066694E-2,-3.480549E-2,-2.7863631E-2,-4.232805E-2,-2.826727E-3],"categories":[],"categories_nodes":[],"categories_segments":[],"categories_sizes":[],"default_left":[1,1,1,0,0,0,0],"id":25,"left_children":[1,3,5,-1,-1,-1,-1],"loss_changes":[2.5177956E-2,1.3953209E-2,2.654789E-2,0E0,0E0,0E0,0E0],"parents":[2147483647,0,0,1,1,2,2],"right_children":[2,4,6,-1,-1,-1,-1],"split_conditions":[4.3722305E0,2.7251549E0,7.6110596E2,-3.4805492E-3,-2.7863632E-3,-4.2328048E-3,-2.826727E-4],"split_indices":[0,0,1,0,0,0,0],"split_type":[0,0,0,0,0,0,0],"sum_hessian":[1.36E3,1.272E3,8.8E1,5.27E2,7.45E2,2.2E1,6.6E1],"tree_param":{"num_deleted":"0","num_feature":"4","num_nodes":"7","size_leaf_vector":"0"}},{"base_weights":[-2.6674973E-2,-2.7099641E-2,1.0717472E-2,-3.0274706E-2,-2.3101518E-2,-3.489242E-2,4.1572653E-2],"categories":[],"categories_nodes":[],"categories_segments":[],"categories_sizes":[],"default_left":[1,1,1,0,0,0,0],"id":26,"left_children":[1,3,5,-1,-1,-1,-1],"loss_changes":[2.1902323E-2,1.6387165E-2,2.3967396E-2,0E0,0E0,0E0,0E0],"parents":[2147483647,0,0,1,1,2,2],"right_children":[2,4,6,-1,-1,-1,-1],"split_conditions":[5.1515145E0,3.0708306E0,7.286509E2,-3.0274705E-3,-2.310152E-3,-3.4892422E-3,4.157265E-3],"split_indices":[0,0,2,0,0,0,0],"split_type":[0,0,0,0,0,0,0],"sum_hessian":[1.36E3,1.345E3,1.5E1,7.46E2,5.99E2,6E0,9E0],"tree_param":{"num_deleted":"0","num_feature":"4","num_nodes":"7","size_leaf_vector":"0"}},{"base_weights":[-2.4010906E-2,-2.5660114E-2,-1.5570191E-2,-3.896471E-2,-2.4908833E-2,-3.9546292E-2,-1.0945402E-2],"categories":[],"categories_nodes":[],"categories_segments":[],"categories_sizes":[],"default_left":[1,1,1,0,0,0,0],"id":27,"left_children":[1,3,5,-1,-1,-1,-1],"loss_changes":[1.8546283E-2,1.0394275E-2,2.451614E-2,0E0,0E0,0E0,0E0],"parents":[2147483647,0,0,1,1,2,2],"right_children":[2,4,6,-1,-1,-1,-1],"split_conditions":[3.86021E0,1.3621168E0,7.1963025E2,-3.896471E-3,-2.4908835E-3,-3.9546294E-3,-1.0945402E-3],"split_indices":[0,0,1,0,0,0,0],"split_type":[0,0,0,0,0,0,0],"sum_hessian":[1.36E3,1.136E3,2.24E2,5.8E1,1.078E3,3.5E1,1.89E2],"tree_param":{"num_deleted":"0","num_feature":"4","num_nodes":"7","size_leaf_vector":"0"}},{"base_weights":[-2.161822E-2,-2.1990737E-2,1.1071118E-2,-2.8033745E-2,-2.044126E-2,-3.01463E-2,3.88162E-2],"categories":[],"categories_nodes":[],"categories_segments":[],"categories_sizes":[],"default_left":[1,1,1,0,0,0,0],"id":28,"left_children":[1,3,5,-1,-1,-1,-1],"loss_changes":[1.6816914E-2,1.2030244E-2,1.9467454E-2,0E0,0E0,0E0,0E0],"parents":[2147483647,0,0,1,1,2,2],"right_children":[2,4,6,-1,-1,-1,-1],"split_conditions":[5.1515145E0,2.3198228E0,7.286509E2,-2.8033745E-3,-2.0441262E-3,-3.0146302E-3,3.88162E-3],"split_indices":[0,0,2,0,0,0,0],"split_type":[0,0,0,0,0,0,0],"sum_hessian":[1.36E3,1.345E3,1.5E1,2.71E2,1.074E3,6E0,9E0],"tree_param":{"num_deleted":"0","num_feature":"4","num_nodes":"7","size_leaf_vector":"0"}},{"base_weights":[-1.945932E-2,-2.0322887E-2,-6.88877E-3,-2.8174106E-2,-1.9389903E-2,-3.0299937E-2,1.2507166E-3],"categories":[],"categories_nodes":[],"categories_segments":[],"categories_sizes":[],"default_left":[1,1,1,0,0,0,0],"id":29,"left_children":[1,3,5,-1,-1,-1,-1],"loss_changes":[1.4634371E-2,8.7785125E-3,1.6997281E-2,0E0,0E0,0E0,0E0],"parents":[2147483647,0,0,1,1,2,2],"right_children":[2,4,6,-1,-1,-1,-1],"split_conditions":[4.3722305E0,1.8946505E0,7.6110596E2,-2.8174107E-3,-1.9389903E-3,-3.0299937E-3,1.2507166E-4],"split_indices":[0,0,1,0,0,0,0],"split_type":[0,0,0,0,0,0,0],"sum_hessian":[1.36E3,1.272E3,8.8E1,1.32E2,1.14E3,2.2E1,6.6E1],"tree_param":{"num_deleted":"0","num_feature":"4","num_nodes":"7","size_leaf_vector":"0"}},{"base_weights":[-1.7519018E-2,-1.767641E-2,4.0295117E-2,-1.9913638E-2,-1.4021403E-2,5.301122E-2,1.0734051E-3],"categories":[],"categories_nodes":[],"categories_segments":[],"categories_sizes":[],"default_left":[1,1,1,0,0,0,0],"id":30,"left_children":[1,3,5,-1,-1,-1,-1],"loss_changes":[1.3096631E-2,1.0825217E-2,1.938086E-3,0E0,0E0,0E0,0E0],"parents":[2147483647,0,0,1,1,2,2],"right_children":[2,4,6,-1,-1,-1,-1],"split_conditions":[6.206865E0,3.223476E0,6.2924557E0,-1.991364E-3,-1.4021404E-3,5.301122E-3,1.07340515E-4],"split_indices":[0,0,0,0,0,0,0],"split_type":[0,0,0,0,0,0,0],"sum_hessian":[1.36E3,1.357E3,3E0,8.39E2,5.18E2,2E0,1E0],"tree_param":{"num_deleted":"0","num_feature":"4","num_nodes":"7","size_leaf_vector":"0"}},{"base_weights":[-1.5765637E-2,-1.60706E-2,1.0874757E-2,-1.6205154E-2,3.312356E-2,-2.5115535E-2,3.4980483E-2],"categories":[],"categories_nodes":[],"categories_segments":[],"categories_sizes":[],"default_left":[1,1,1,0,0,0,0],"id":31,"left_children":[1,3,5,-1,-1,-1,-1],"loss_changes":[1.1231989E-2,9.446353E-3,1.4759709E-2,0E0,0E0,0E0,0E0],"parents":[2147483647,0,0,1,1,2,2],"right_children":[2,4,6,-1,-1,-1,-1],"split_conditions":[5.1515145E0,1.2477094E4,7.286509E2,-1.6205155E-3,3.312356E-3,-2.5115535E-3,3.4980483E-3],"split_indices":[0,1,2,0,0,0,0],"split_type":[0,0,0,0,0,0,0],"sum_hessian":[1.36E3,1.345E3,1.5E1,1.342E3,3E0,6E0,9E0],"tree_param":{"num_deleted":"0","num_feature":"4","num_nodes":"7","size_leaf_vector":"0"}},{"base_weights":[-1.4187105E-2,-1.6975237E-2,-1.1482985E-2,-2.7902553E-2,-1.6160006E-2,-1.1724888E-2,7.8078076E-2],"categories":[],"categories_nodes":[],"categories_segments":[],"categories_sizes":[],"default_left":[1,1,1,0,0,0,0],"id":32,"left_children":[1,3,5,-1,-1,-1,-1],"loss_changes":[1.0066271E-2,5.499825E-3,1.5951052E-2,0E0,0E0,0E0,0E0],"parents":[2147483647,0,0,1,1,2,2],"right_children":[2,4,6,-1,-1,-1,-1],"split_conditions":[2.9568052E0,1.2302079E0,1.2477094E4,-2.7902552E-3,-1.6160005E-3,-1.1724889E-3,7.8078075E-3],"split_indices":[0,0,1,0,0,0,0],"split_type":[0,0,0,0,0,0,0],"sum_hessian":[1.36E3,6.67E2,6.93E2,4.4E1,6.23E2,6.92E2,1E0],"tree_param":{"num_deleted":"0","num_feature":"4","num_nodes":"7","size_leaf_vector":"0"}},{"base_weights":[-1.2766757E-2,-1.3237887E-2,1.9817865E-3,-1.3357717E-2,2.9495345E-2,5.034964E-2,-8.821676E-3],"categories":[],"categories_nodes":[],"categories_segments":[],"categories_sizes":[],"default_left":[1,1,1,0,0,0,0],"id":33,"left_children":[1,3,5,-1,-1,-1,-1],"loss_changes":[9.483099E-3,7.1481615E-3,2.29134E-2,0E0,0E0,0E0,0E0],"parents":[2147483647,0,0,1,1,2,2],"right_children":[2,4,6,-1,-1,-1,-1],"split_conditions":[4.6260967E0,1.2477094E4,4.7814155E0,-1.3357716E-3,2.9495347E-3,5.034964E-3,-8.8216754E-4],"split_indices":[0,1,0,0,0,0,0],"split_type":[0,0,0,0,0,0,0],"sum_hessian":[1.36E3,1.318E3,4.2E1,1.315E3,3E0,7E0,3.5E1],"tree_param":{"num_deleted":"0","num_feature":"4","num_nodes":"7","size_leaf_vector":"0"}},{"base_weights":[-1.1485846E-2,-1.1618835E-2,3.653518E-2,-1.3963369E-2,-9.3355235E-3,4.8514884E-2,2.9803813E-4],"categories":[],"categories_nodes":[],"categories_segments":[],"categories_sizes":[],"default_left":[1,1,1,0,0,0,0],"id":34,"left_children":[1,3,5,-1,-1,-1,-1],"loss_changes":[9.116158E-3,7.1394295E-3,1.7219814E-3,0E0,0E0,0E0,0E0],"parents":[2147483647,0,0,1,1,2,2],"right_children":[2,4,6,-1,-1,-1,-1],"split_conditions":[6.206865E0,2.9568052E0,6.2924557E0,-1.396337E-3,-9.3355234E-4,4.8514884E-3,2.9803812E-5],"split_indices":[0,0,0,0,0,0,0],"split_type":[0,0,0,0,0,0,0],"sum_hessian":[1.36E3,1.357E3,3E0,6.67E2,6.9E2,2E0,1E0],"tree_param":{"num_deleted":"0","num_feature":"4","num_nodes":"7","size_leaf_vector":"0"}},{"base_weights":[-1.0335387E-2,-1.059163E-2,1.1867043E-2,-1.0409088E-2,-4.9624518E-2,-2.0401465E-2,3.326829E-2],"categories":[],"categories_nodes":[],"categories_segments":[],"categories_sizes":[],"default_left":[1,1,1,0,0,0,0],"id":35,"left_children":[1,3,5,-1,-1,-1,-1],"loss_changes":[7.868722E-3,9.073898E-3,1.1728104E-2,0E0,0E0,0E0,0E0],"parents":[2147483647,0,0,1,1,2,2],"right_children":[2,4,6,-1,-1,-1,-1],"split_conditions":[5.1515145E0,5.0255976E0,7.286509E2,-1.0409089E-3,-4.9624518E-3,-2.0401466E-3,3.3268293E-3],"split_indices":[0,0,2,0,0,0,0],"split_type":[0,0,0,0,0,0,0],"sum_hessian":[1.36E3,1.345E3,1.5E1,1.34E3,5E0,6E0,9E0],"tree_param":{"num_deleted":"0","num_feature":"4","num_nodes":"7","size_leaf_vector":"0"}},{"base_weights":[-9.305316E-3,-1.034271E-2,-4.021663E-3,-2.115085E-2,-9.857266E-3,-2.380181E-2,-2.526792E-4],"categories":[],"categories_nodes":[],"categories_segments":[],"categories_sizes":[],"default_left":[1,1,1,0,0,0,0],"id":36,"left_children":[1,3,5,-1,-1,-1,-1],"loss_changes":[7.418357E-3,5.7570487E-3,1.6767975E-2,0E0,0E0,0E0,0E0],"parents":[2147483647,0,0,1,1,2,2],"right_children":[2,4,6,-1,-1,-1,-1],"split_conditions":[3.86021E0,1.2577431E0,7.1963025E2,-2.115085E-3,-9.857266E-4,-2.3801809E-3,-2.526792E-5],"split_indices":[0,0,1,0,0,0,0],"split_type":[0,0,0,0,0,0,0],"sum_hessian":[1.36E3,1.136E3,2.24E2,4.7E1,1.089E3,3.5E1,1.89E2],"tree_param":{"num_deleted":"0","num_feature":"4","num_nodes":"7","size_leaf_vector":"0"}},{"base_weights":[-8.37883E-3,-8.953763E-3,-6.1201914E-5,-8.726599E-3,-3.0299954E-2,3.4936953E-2,-4.4352063E-3],"categories":[],"categories_nodes":[],"categories_segments":[],"categories_sizes":[],"default_left":[1,1,1,0,0,0,0],"id":37,"left_children":[1,3,5,-1,-1,-1,-1],"loss_changes":[6.5078735E-3,5.9084743E-3,1.3779259E-2,0E0,0E0,0E0,0E0],"parents":[2147483647,0,0,1,1,2,2],"right_children":[2,4,6,-1,-1,-1,-1],"split_conditions":[4.3722305E0,4.3190775E0,4.4048176E0,-8.726599E-4,-3.0299954E-3,3.4936953E-3,-4.4352064E-4],"split_indices":[0,0,0,0,0,0,0],"split_type":[0,0,0,0,0,0,0],"sum_hessian":[1.36E3,1.272E3,8.8E1,1.26E3,1.2E1,9E0,7.9E1],"tree_param":{"num_deleted":"0","num_feature":"4","num_nodes":"7","size_leaf_vector":"0"}},{"base_weights":[-7.541575E-3,-7.6523693E-3,3.1958453E-2,-1.2544693E-2,-6.781645E-3,4.3375194E-2,-1.1458844E-3],"categories":[],"categories_nodes":[],"categories_segments":[],"categories_sizes":[],"default_left":[1,1,1,0,0,0,0],"id":38,"left_children":[1,3,5,-1,-1,-1,-1],"loss_changes":[6.200798E-3,5.6998283E-3,1.5614778E-3,0E0,0E0,0E0,0E0],"parents":[2147483647,0,0,1,1,2,2],"right_children":[2,4,6,-1,-1,-1,-1],"split_conditions":[6.206865E0,2.1384263E0,6.2924557E0,-1.2544694E-3,-6.7816454E-4,4.3375194E-3,-1.1458844E-4],"split_indices":[0,0,0,0,0,0,0],"split_type":[0,0,0,0,0,0,0],"sum_hessian":[1.36E3,1.357E3,3E0,2.03E2,1.154E3,2E0,1E0],"tree_param":{"num_deleted":"0","num_feature":"4","num_nodes":"7","size_leaf_vector":"0"}},{"base_weights":[-6.785733E-3,-7.147066E-3,4.455743E-3,-6.8548643E-3,-2.3313947E-2,4.896965E-2,-5.560007E-3],"categories":[],"categories_nodes":[],"categories_segments":[],"categories_sizes":[],"default_left":[1,1,1,0,0,0,0],"id":39,"left_children":[1,3,5,-1,-1,-1,-1],"loss_changes":[5.560115E-3,6.071128E-3,1.94434E-2,0E0,0E0,0E0,0E0],"parents":[2147483647,0,0,1,1,2,2],"right_children":[2,4,6,-1,-1,-1,-1],"split_conditions":[4.6260967E0,4.475686E0,4.7814155E0,-6.854864E-4,-2.3313947E-3,4.896965E-3,-5.560007E-4],"split_indices":[0,0,0,0,0,0,0],"split_type":[0,0,0,0,0,0,0],"sum_hessian":[1.36E3,1.318E3,4.2E1,1.296E3,2.2E1,7E0,3.5E1],"tree_param":{"num_deleted":"0","num_feature":"4","num_nodes":"7","size_leaf_vector":"0"}},{"base_weights":[-6.1061895E-3,-6.212392E-3,3.1476036E-2,-6.4246156E-3,1.198945E-2,-8.315829E-3,7.542581E-2],"categories":[],"categories_nodes":[],"categories_segments":[],"categories_sizes":[],"default_left":[1,1,1,0,0,0,0],"id":40,"left_children":[1,3,5,-1,-1,-1,-1],"loss_changes":[5.6277253E-3,5.3228065E-3,7.6226015E-3,0E0,0E0,0E0,0E0],"parents":[2147483647,0,0,1,1,2,2],"right_children":[2,4,6,-1,-1,-1,-1],"split_conditions":[1.2477094E4,5.1515145E0,3.7660322E0,-6.424616E-4,1.198945E-3,-8.315829E-4,7.5425813E-3],"split_indices":[1,0,0,0,0,0,0],"split_type":[0,0,0,0,0,0,0],"sum_hessian":[1.36E3,1.357E3,3E0,1.342E3,1.5E1,2E0,1E0],"tree_param":{"num_deleted":"0","num_feature":"4","num_nodes":"7","size_leaf_vector":"0"}},{"base_weights":[-5.4902295E-3,-6.5543014E-3,-1.9065196E-3,-1.6038751E-2,-6.1231027E-3,-2.371954E-3,7.165452E-2],"categories":[],"categories_nodes":[],"categories_segments":[],"categories_sizes":[],"default_left":[1,1,1,0,0,0,0],"id":41,"left_children":[1,3,5,-1,-1,-1,-1],"loss_changes":[5.1774383E-3,4.191868E-3,1.08864065E-2,0E0,0E0,0E0,0E0],"parents":[2147483647,0,0,1,1,2,2],"right_children":[2,4,6,-1,-1,-1,-1],"split_conditions":[3.6215043E0,1.2302079E0,1.1510035E4,-1.6038752E-3,-6.123103E-4,-2.371954E-4,7.165452E-3],"split_indices":[0,0,1,0,0,0,0],"split_type":[0,0,0,0,0,0,0],"sum_hessian":[1.36E3,1.048E3,3.12E2,4.4E1,1.004E3,3.11E2,1E0],"tree_param":{"num_deleted":"0","num_feature":"4","num_nodes":"7","size_leaf_vector":"0"}},{"base_weights":[-4.937744E-3,-5.0355853E-3,2.9514022E-2,-5.130929E-3,2.8520973E-2,4.0213007E-2,-1.2914687E-3],"categories":[],"categories_nodes":[],"categories_segments":[],"categories_sizes":[],"default_left":[1,1,1,0,0,0,0],"id":42,"left_children":[1,3,5,-1,-1,-1,-1],"loss_changes":[4.7363155E-3,4.4911318E-3,1.3702842E-3,0E0,0E0,0E0,0E0],"parents":[2147483647,0,0,1,1,2,2],"right_children":[2,4,6,-1,-1,-1,-1],"split_conditions":[6.206865E0,1.2477094E4,6.2924557E0,-5.130929E-4,2.8520974E-3,4.021301E-3,-1.2914688E-4],"split_indices":[0,1,0,0,0,0,0],"split_type":[0,0,0,0,0,0,0],"sum_hessian":[1.36E3,1.357E3,3E0,1.354E3,3E0,2E0,1E0],"tree_param":{"num_deleted":"0","num_feature":"4","num_nodes":"7","size_leaf_vector":"0"}},{"base_weights":[-4.4393917E-3,-7.624975E-3,-3.4326934E-3,-1.3968826E-2,-6.5856194E-3,-2.4321624E-3,-8.209359E-3],"categories":[],"categories_nodes":[],"categories_segments":[],"categories_sizes":[],"default_left":[1,1,1,0,0,0,0],"id":43,"left_children":[1,3,5,-1,-1,-1,-1],"loss_changes":[4.338447E-3,2.0574909E-3,4.931286E-3,0E0,0E0,0E0,0E0],"parents":[2147483647,0,0,1,1,2,2],"right_children":[2,4,6,-1,-1,-1,-1],"split_conditions":[2.4363794E0,1.2302079E0,2.1582346E3,-1.3968827E-3,-6.5856194E-4,-2.4321624E-4,-8.209359E-4],"split_indices":[0,0,3,0,0,0,0],"split_type":[0,0,0,0,0,0,0],"sum_hessian":[1.36E3,3.25E2,1.035E3,4.4E1,2.81E2,8.57E2,1.78E2],"tree_param":{"num_deleted":"0","num_feature":"4","num_nodes":"7","size_leaf_vector":"0"}},{"base_weights":[-3.997745E-3,-4.08822E-3,2.7718075E-2,-4.176543E-3,2.6853172E-2,3.7694294E-2,-1.1052936E-3],"categories":[],"categories_nodes":[],"categories_segments":[],"categories_sizes":[],"default_left":[1,1,1,0,0,0,0],"id":44,"left_children":[1,3,5,-1,-1,-1,-1],"loss_changes":[4.018709E-3,3.8233344E-3,1.1918563E-3,0E0,0E0,0E0,0E0],"parents":[2147483647,0,0,1,1,2,2],"right_children":[2,4,6,-1,-1,-1,-1],"split_conditions":[6.206865E0,1.2477094E4,6.2924557E0,-4.1765432E-4,2.6853173E-3,3.7694294E-3,-1.1052936E-4],"split_indices":[0,1,0,0,0,0,0],"split_type":[0,0,0,0,0,0,0],"sum_hessian":[1.36E3,1.357E3,3E0,1.354E3,3E0,2E0,1E0],"tree_param":{"num_deleted":"0","num_feature":"4","num_nodes":"7","size_leaf_vector":"0"}},{"base_weights":[-3.5936155E-3,-4.9082637E-3,-1.4379653E-3,-5.2539166E-3,7.134856E-3,-1.6943362E-3,6.5424696E-2],"categories":[],"categories_nodes":[],"categories_segments":[],"categories_sizes":[],"default_left":[1,1,1,0,0,0,0],"id":45,"left_children":[1,3,5,-1,-1,-1,-1],"loss_changes":[3.8499087E-3,3.5549998E-3,8.973077E-3,0E0,0E0,0E0,0E0],"parents":[2147483647,0,0,1,1,2,2],"right_children":[2,4,6,-1,-1,-1,-1],"split_conditions":[3.22831E0,6.3364746E3,1.2477094E4,-5.2539166E-4,7.1348564E-4,-1.6943362E-4,6.54247E-3],"split_indices":[0,2,1,0,0,0,0],"split_type":[0,0,0,0,0,0,0],"sum_hessian":[1.36E3,8.44E2,5.16E2,8.21E2,2.3E1,5.15E2,1E0],"tree_param":{"num_deleted":"0","num_feature":"4","num_nodes":"7","size_leaf_vector":"0"}},{"base_weights":[-3.2294344E-3,-3.3131167E-3,2.5988065E-2,-1.0950066E-2,-2.9884654E-3,4.345472E-2,5.6809387E-3],"categories":[],"categories_nodes":[],"categories_segments":[],"categories_sizes":[],"default_left":[1,1,1,0,0,0,0],"id":46,"left_children":[1,3,5,-1,-1,-1,-1],"loss_changes":[3.4137303E-3,3.334228E-3,1.1719267E-3,0E0,0E0,0E0,0E0],"parents":[2147483647,0,0,1,1,2,2],"right_children":[2,4,6,-1,-1,-1,-1],"split_conditions":[6.206865E0,1.3309274E0,1.56171E3,-1.0950066E-3,-2.9884654E-4,4.3454724E-3,5.680939E-4],"split_indices":[0,0,2,0,0,0,0],"split_type":[0,0,0,0,0,0,0],"sum_hessian":[1.36E3,1.357E3,3E0,5.4E1,1.303E3,1E0,2E0],"tree_param":{"num_deleted":"0","num_feature":"4","num_nodes":"7","size_leaf_vector":"0"}},{"base_weights":[-2.9039038E-3,-3.4207406E-3,1.7386433E-3,-3.2779793E-3,-4.6179116E-2,-4.990399E-4,7.626636E-2],"categories":[],"categories_nodes":[],"categories_segments":[],"categories_sizes":[],"default_left":[1,1,1,0,0,0,0],"id":47,"left_children":[1,3,5,-1,-1,-1,-1],"loss_changes":[3.2715835E-3,7.32632E-3,2.2885472E-2,0E0,0E0,0E0,0E0],"parents":[2147483647,0,0,1,1,2,2],"right_children":[2,4,6,-1,-1,-1,-1],"split_conditions":[4.128564E0,4.1121206E0,4.701374E3,-3.2779793E-4,-4.6179118E-3,-4.990399E-5,7.6266364E-3],"split_indices":[0,0,1,0,0,0,0],"split_type":[0,0,0,0,0,0,0],"sum_hessian":[1.36E3,1.224E3,1.36E2,1.221E3,3E0,1.33E2,3E0],"tree_param":{"num_deleted":"0","num_feature":"4","num_nodes":"7","size_leaf_vector":"0"}},{"base_weights":[-2.6115812E-3,-1.921054E-3,-5.981169E-3,-1.3958905E-3,-2.1148028E-2,-1.1393925E-2,7.64437E-5],"categories":[],"categories_nodes":[],"categories_segments":[],"categories_sizes":[],"default_left":[1,1,1,0,0,0,0],"id":48,"left_children":[1,3,5,-1,-1,-1,-1],"loss_changes":[3.1552743E-3,1.1390533E-2,7.5749876E-3,0E0,0E0,0E0,0E0],"parents":[2147483647,0,0,1,1,2,2],"right_children":[2,4,6,-1,-1,-1,-1],"split_conditions":[2.1582346E3,3.7940928E3,3.005168E3,-1.3958906E-4,-2.1148028E-3,-1.1393925E-3,7.64437E-6],"split_indices":[3,1,1,0,0,0,0],"split_type":[0,0,0,0,0,0,0],"sum_hessian":[1.36E3,1.13E3,2.3E2,1.101E3,2.9E1,1.21E2,1.09E2],"tree_param":{"num_deleted":"0","num_feature":"4","num_nodes":"7","size_leaf_vector":"0"}},{"base_weights":[-2.352911E-3,-2.5154797E-3,1.147024E-2,-2.3416204E-3,-4.09538E-2,-1.8627178E-2,3.139141E-2],"categories":[],"categories_nodes":[],"categories_segments":[],"categories_sizes":[],"default_left":[1,1,1,0,0,0,0],"id":49,"left_children":[1,3,5,-1,-1,-1,-1],"loss_changes":[3.0873087E-3,8.899234E-3,1.0177946E-2,0E0,0E0,0E0,0E0],"parents":[2147483647,0,0,1,1,2,2],"right_children":[2,4,6,-1,-1,-1,-1],"split_conditions":[5.1515145E0,5.0255976E0,4.83765E2,-2.3416204E-4,-4.09538E-3,-1.8627178E-3,3.1391408E-3],"split_indices":[0,0,3,0,0,0,0],"split_type":[0,0,0,0,0,0,0],"sum_hessian":[1.36E3,1.345E3,1.5E1,1.34E3,5E0,6E0,9E0],"tree_param":{"num_deleted":"0","num_feature":"4","num_nodes":"7","size_leaf_vector":"0"}}]},"name":"gbtree"},"learner_model_param":{"base_score":"5E-1","boost_from_average":"1","num_class":"0","num_feature":"4","num_target":"1"},"objective":{"name":"reg:squarederror","reg_loss_param":{"scale_pos_weight":"1"}}},"version":[1,7,6]}